<?xml version="1.0"?>
<opencv_storage>
<cascade>
  <stageType>BOOST</stageType>
  <featureType>HAAR</featureType>
  <height>48</height>
  <width>91</width>
  <stageParams>
    <boostType>GAB</boostType>
    <minHitRate>9.9900001287460327e-01</minHitRate>
    <maxFalseAlarm>5.0000000000000000e-01</maxFalseAlarm>
    <weightTrimRate>9.4999999999999996e-01</weightTrimRate>
    <maxDepth>1</maxDepth>
    <maxWeakCount>100</maxWeakCount></stageParams>
  <featureParams>
    <maxCatCount>0</maxCatCount>
    <featSize>1</featSize>
    <mode>BASIC</mode></featureParams>
  <stageNum>7</stageNum>
  <stages>
    <!-- stage 0 -->
    <_>
      <maxWeakCount>1</maxWeakCount>
      <stageThreshold>1.</stageThreshold>
      <weakClassifiers>
        <_>
          <internalNodes>
            0 -1 2 2.3616030812263489e-03</internalNodes>
          <leafValues>
            -1. 1.</leafValues></_></weakClassifiers></_>
    <!-- stage 1 -->
    <_>
      <maxWeakCount>2</maxWeakCount>
      <stageThreshold>-2.7341173961758614e-02</stageThreshold>
      <weakClassifiers>
        <_>
          <internalNodes>
            0 -1 8 5.7127587497234344e-03</internalNodes>
          <leafValues>
            -9.9004977941513062e-01 1.</leafValues></_>
        <_>
          <internalNodes>
            0 -1 6 -2.6296358555555344e-02</internalNodes>
          <leafValues>
            9.6270859241485596e-01 -1.</leafValues></_></weakClassifiers></_>
    <!-- stage 2 -->
    <_>
      <maxWeakCount>2</maxWeakCount>
      <stageThreshold>-1.7162734270095825e-01</stageThreshold>
      <weakClassifiers>
        <_>
          <internalNodes>
            0 -1 12 3.5087880678474903e-03</internalNodes>
          <leafValues>
            -9.6969699859619141e-01 9.0196079015731812e-01</leafValues></_>
        <_>
          <internalNodes>
            0 -1 5 -3.4483117051422596e-03</internalNodes>
          <leafValues>
            7.9806959629058838e-01 -1.</leafValues></_></weakClassifiers></_>
    <!-- stage 3 -->
    <_>
      <maxWeakCount>2</maxWeakCount>
      <stageThreshold>-2.8974696993827820e-01</stageThreshold>
      <weakClassifiers>
        <_>
          <internalNodes>
            0 -1 0 2.1062310785055161e-02</internalNodes>
          <leafValues>
            -9.5876288414001465e-01 8.1132078170776367e-01</leafValues></_>
        <_>
          <internalNodes>
            0 -1 3 -4.1924621909856796e-03</internalNodes>
          <leafValues>
            6.6901588439941406e-01 -9.7930884361267090e-01</leafValues></_></weakClassifiers></_>
    <!-- stage 4 -->
    <_>
      <maxWeakCount>2</maxWeakCount>
      <stageThreshold>-2.4399568140506744e-01</stageThreshold>
      <weakClassifiers>
        <_>
          <internalNodes>
            0 -1 13 -1.3379857409745455e-03</internalNodes>
          <leafValues>
            8.4615385532379150e-01 -9.5918369293212891e-01</leafValues></_>
        <_>
          <internalNodes>
            0 -1 10 -2.2541478301718598e-06</internalNodes>
          <leafValues>
            7.1518796682357788e-01 -9.7972500324249268e-01</leafValues></_></weakClassifiers></_>
    <!-- stage 5 -->
    <_>
      <maxWeakCount>2</maxWeakCount>
      <stageThreshold>-2.4593211710453033e-01</stageThreshold>
      <weakClassifiers>
        <_>
          <internalNodes>
            0 -1 1 1.9933217763900757e-01</internalNodes>
          <leafValues>
            -8.8292682170867920e-01 8.5263156890869141e-01</leafValues></_>
        <_>
          <internalNodes>
            0 -1 7 3.3709873150655767e-06</internalNodes>
          <leafValues>
            -1. 6.3699471950531006e-01</leafValues></_></weakClassifiers></_>
    <!-- stage 6 -->
    <_>
      <maxWeakCount>3</maxWeakCount>
      <stageThreshold>-1.2127885818481445e+00</stageThreshold>
      <weakClassifiers>
        <_>
          <internalNodes>
            0 -1 11 -5.6332163512706757e-03</internalNodes>
          <leafValues>
            8.2692307233810425e-01 -9.4897961616516113e-01</leafValues></_>
        <_>
          <internalNodes>
            0 -1 9 6.0751815326511860e-03</internalNodes>
          <leafValues>
            -9.2496800422668457e-01 7.9558759927749634e-01</leafValues></_>
        <_>
          <internalNodes>
            0 -1 4 -9.8614883609116077e-04</internalNodes>
          <leafValues>
            6.6115903854370117e-01 -1.</leafValues></_></weakClassifiers></_></stages>
  <features>
    <_>
      <rects>
        <_>
          12 38 68 2 -1.</_>
        <_>
          46 38 34 2 2.</_></rects>
      <tilted>0</tilted></_>
    <_>
      <rects>
        <_>
          13 2 66 40 -1.</_>
        <_>
          13 2 33 20 2.</_>
        <_>
          46 22 33 20 2.</_></rects>
      <tilted>0</tilted></_>
    <_>
      <rects>
        <_>
          35 20 14 6 -1.</_>
        <_>
          35 22 14 2 3.</_></rects>
      <tilted>0</tilted></_>
    <_>
      <rects>
        <_>
          40 3 11 12 -1.</_>
        <_>
          40 7 11 4 3.</_></rects>
      <tilted>0</tilted></_>
    <_>
      <rects>
        <_>
          40 18 10 3 -1.</_>
        <_>
          45 18 5 3 2.</_></rects>
      <tilted>0</tilted></_>
    <_>
      <rects>
        <_>
          44 12 5 8 -1.</_>
        <_>
          44 16 5 4 2.</_></rects>
      <tilted>0</tilted></_>
    <_>
      <rects>
        <_>
          46 29 24 16 -1.</_>
        <_>
          46 29 12 8 2.</_>
        <_>
          58 37 12 8 2.</_></rects>
      <tilted>0</tilted></_>
    <_>
      <rects>
        <_>
          47 24 2 1 -1.</_>
        <_>
          48 24 1 1 2.</_></rects>
      <tilted>0</tilted></_>
    <_>
      <rects>
        <_>
          54 30 10 4 -1.</_>
        <_>
          59 30 5 4 2.</_></rects>
      <tilted>0</tilted></_>
    <_>
      <rects>
        <_>
          55 30 3 18 -1.</_>
        <_>
          55 36 3 6 3.</_></rects>
      <tilted>0</tilted></_>
    <_>
      <rects>
        <_>
          57 23 2 1 -1.</_>
        <_>
          58 23 1 1 2.</_></rects>
      <tilted>0</tilted></_>
    <_>
      <rects>
        <_>
          58 26 8 12 -1.</_>
        <_>
          58 26 4 6 2.</_>
        <_>
          62 32 4 6 2.</_></rects>
      <tilted>0</tilted></_>
    <_>
      <rects>
        <_>
          61 20 4 11 -1.</_>
        <_>
          63 20 2 11 2.</_></rects>
      <tilted>0</tilted></_>
    <_>
      <rects>
        <_>
          62 17 2 26 -1.</_>
        <_>
          62 17 1 13 2.</_>
        <_>
          63 30 1 13 2.</_></rects>
      <tilted>0</tilted></_></features></cascade>
</opencv_storage>
