<?xml version="1.0"?>
<opencv_storage>
<cascade>
  <stageType>BOOST</stageType>
  <featureType>HAAR</featureType>
  <height>55</height>
  <width>45</width>
  <stageParams>
    <boostType>GAB</boostType>
    <minHitRate>9.9900001287460327e-01</minHitRate>
    <maxFalseAlarm>5.0000000000000000e-01</maxFalseAlarm>
    <weightTrimRate>9.4999999999999996e-01</weightTrimRate>
    <maxDepth>1</maxDepth>
    <maxWeakCount>100</maxWeakCount></stageParams>
  <featureParams>
    <maxCatCount>0</maxCatCount>
    <featSize>1</featSize>
    <mode>BASIC</mode></featureParams>
  <stageNum>9</stageNum>
  <stages>
    <!-- stage 0 -->
    <_>
      <maxWeakCount>1</maxWeakCount>
      <stageThreshold>9.6078431606292725e-01</stageThreshold>
      <weakClassifiers>
        <_>
          <internalNodes>
            0 -1 12 3.4550272393971682e-03</internalNodes>
          <leafValues>
            -1. 9.6078431606292725e-01</leafValues></_></weakClassifiers></_>
    <!-- stage 1 -->
    <_>
      <maxWeakCount>2</maxWeakCount>
      <stageThreshold>-9.4831801950931549e-02</stageThreshold>
      <weakClassifiers>
        <_>
          <internalNodes>
            0 -1 1 -7.7906087040901184e-02</internalNodes>
          <leafValues>
            8.4905660152435303e-01 -9.7938144207000732e-01</leafValues></_>
        <_>
          <internalNodes>
            0 -1 10 2.7905225753784180e-02</internalNodes>
          <leafValues>
            -9.4388842582702637e-01 9.1934663057327271e-01</leafValues></_></weakClassifiers></_>
    <!-- stage 2 -->
    <_>
      <maxWeakCount>2</maxWeakCount>
      <stageThreshold>-1.7366285622119904e-01</stageThreshold>
      <weakClassifiers>
        <_>
          <internalNodes>
            0 -1 6 3.5911747254431248e-03</internalNodes>
          <leafValues>
            -9.8952877521514893e-01 8.1651377677917480e-01</leafValues></_>
        <_>
          <internalNodes>
            0 -1 11 -2.6229134527966380e-04</internalNodes>
          <leafValues>
            8.5046344995498657e-01 -9.9017661809921265e-01</leafValues></_></weakClassifiers></_>
    <!-- stage 3 -->
    <_>
      <maxWeakCount>2</maxWeakCount>
      <stageThreshold>-1.3685260713100433e-01</stageThreshold>
      <weakClassifiers>
        <_>
          <internalNodes>
            0 -1 15 4.3967254459857941e-03</internalNodes>
          <leafValues>
            -9.2857140302658081e-01 7.8846156597137451e-01</leafValues></_>
        <_>
          <internalNodes>
            0 -1 2 1.6894631087779999e-02</internalNodes>
          <leafValues>
            -9.2531412839889526e-01 8.3292835950851440e-01</leafValues></_></weakClassifiers></_>
    <!-- stage 4 -->
    <_>
      <maxWeakCount>2</maxWeakCount>
      <stageThreshold>-3.4004309773445129e-01</stageThreshold>
      <weakClassifiers>
        <_>
          <internalNodes>
            0 -1 3 -1.2574782967567444e-01</internalNodes>
          <leafValues>
            6.3793104887008667e-01 -9.4565218687057495e-01</leafValues></_>
        <_>
          <internalNodes>
            0 -1 4 5.5625876411795616e-03</internalNodes>
          <leafValues>
            -9.7797411680221558e-01 6.2369680404663086e-01</leafValues></_></weakClassifiers></_>
    <!-- stage 5 -->
    <_>
      <maxWeakCount>2</maxWeakCount>
      <stageThreshold>-1.3690078258514404e-01</stageThreshold>
      <weakClassifiers>
        <_>
          <internalNodes>
            0 -1 16 2.0170393399894238e-03</internalNodes>
          <leafValues>
            -7.5784754753112793e-01 8.9610391855239868e-01</leafValues></_>
        <_>
          <internalNodes>
            0 -1 8 -8.3919689059257507e-03</internalNodes>
          <leafValues>
            6.2094676494598389e-01 -9.7039902210235596e-01</leafValues></_></weakClassifiers></_>
    <!-- stage 6 -->
    <_>
      <maxWeakCount>2</maxWeakCount>
      <stageThreshold>-2.8915369510650635e-01</stageThreshold>
      <weakClassifiers>
        <_>
          <internalNodes>
            0 -1 7 -1.5157805755734444e-03</internalNodes>
          <leafValues>
            5.0000000000000000e-01 -9.8809522390365601e-01</leafValues></_>
        <_>
          <internalNodes>
            0 -1 14 4.2114756070077419e-03</internalNodes>
          <leafValues>
            -7.8915369510650635e-01 8.7293910980224609e-01</leafValues></_></weakClassifiers></_>
    <!-- stage 7 -->
    <_>
      <maxWeakCount>2</maxWeakCount>
      <stageThreshold>-3.1972366571426392e-01</stageThreshold>
      <weakClassifiers>
        <_>
          <internalNodes>
            0 -1 0 -1.2705956399440765e-01</internalNodes>
          <leafValues>
            7.2222220897674561e-01 -9.2708331346511841e-01</leafValues></_>
        <_>
          <internalNodes>
            0 -1 13 -1.0158135555684566e-03</internalNodes>
          <leafValues>
            6.0735964775085449e-01 -9.7840130329132080e-01</leafValues></_></weakClassifiers></_>
    <!-- stage 8 -->
    <_>
      <maxWeakCount>2</maxWeakCount>
      <stageThreshold>-3.6628943681716919e-01</stageThreshold>
      <weakClassifiers>
        <_>
          <internalNodes>
            0 -1 9 -2.0132817327976227e-02</internalNodes>
          <leafValues>
            7.0642203092575073e-01 -9.2670154571533203e-01</leafValues></_>
        <_>
          <internalNodes>
            0 -1 5 5.4522319696843624e-03</internalNodes>
          <leafValues>
            -1. 5.6041210889816284e-01</leafValues></_></weakClassifiers></_></stages>
  <features>
    <_>
      <rects>
        <_>
          0 17 45 13 -1.</_>
        <_>
          15 17 15 13 3.</_></rects>
      <tilted>0</tilted></_>
    <_>
      <rects>
        <_>
          1 12 20 22 -1.</_>
        <_>
          11 12 10 22 2.</_></rects>
      <tilted>0</tilted></_>
    <_>
      <rects>
        <_>
          3 16 8 26 -1.</_>
        <_>
          3 16 4 13 2.</_>
        <_>
          7 29 4 13 2.</_></rects>
      <tilted>0</tilted></_>
    <_>
      <rects>
        <_>
          5 1 21 32 -1.</_>
        <_>
          5 17 21 16 2.</_></rects>
      <tilted>0</tilted></_>
    <_>
      <rects>
        <_>
          7 30 10 10 -1.</_>
        <_>
          7 30 5 5 2.</_>
        <_>
          12 35 5 5 2.</_></rects>
      <tilted>0</tilted></_>
    <_>
      <rects>
        <_>
          9 20 2 27 -1.</_>
        <_>
          9 29 2 9 3.</_></rects>
      <tilted>0</tilted></_>
    <_>
      <rects>
        <_>
          10 31 14 4 -1.</_>
        <_>
          10 33 14 2 2.</_></rects>
      <tilted>0</tilted></_>
    <_>
      <rects>
        <_>
          10 41 6 6 -1.</_>
        <_>
          10 44 6 3 2.</_></rects>
      <tilted>0</tilted></_>
    <_>
      <rects>
        <_>
          11 5 14 8 -1.</_>
        <_>
          11 9 14 4 2.</_></rects>
      <tilted>0</tilted></_>
    <_>
      <rects>
        <_>
          12 16 27 10 -1.</_>
        <_>
          12 21 27 5 2.</_></rects>
      <tilted>0</tilted></_>
    <_>
      <rects>
        <_>
          23 32 20 16 -1.</_>
        <_>
          23 32 10 8 2.</_>
        <_>
          33 40 10 8 2.</_></rects>
      <tilted>0</tilted></_>
    <_>
      <rects>
        <_>
          24 29 4 2 -1.</_>
        <_>
          24 29 2 1 2.</_>
        <_>
          26 30 2 1 2.</_></rects>
      <tilted>0</tilted></_>
    <_>
      <rects>
        <_>
          25 26 4 9 -1.</_>
        <_>
          25 29 4 3 3.</_></rects>
      <tilted>0</tilted></_>
    <_>
      <rects>
        <_>
          28 35 8 4 -1.</_>
        <_>
          28 37 8 2 2.</_></rects>
      <tilted>0</tilted></_>
    <_>
      <rects>
        <_>
          36 34 6 8 -1.</_>
        <_>
          36 34 3 4 2.</_>
        <_>
          39 38 3 4 2.</_></rects>
      <tilted>0</tilted></_>
    <_>
      <rects>
        <_>
          38 21 4 22 -1.</_>
        <_>
          40 21 2 22 2.</_></rects>
      <tilted>0</tilted></_>
    <_>
      <rects>
        <_>
          41 22 2 16 -1.</_>
        <_>
          42 22 1 16 2.</_></rects>
      <tilted>0</tilted></_></features></cascade>
</opencv_storage>
