<?xml version="1.0"?>
<opencv_storage>
<cascade>
  <stageType>BOOST</stageType>
  <featureType>HAAR</featureType>
  <height>70</height>
  <width>60</width>
  <stageParams>
    <boostType>GAB</boostType>
    <minHitRate>9.9900001287460327e-01</minHitRate>
    <maxFalseAlarm>5.0000000000000000e-01</maxFalseAlarm>
    <weightTrimRate>9.4999999999999996e-01</weightTrimRate>
    <maxDepth>1</maxDepth>
    <maxWeakCount>100</maxWeakCount></stageParams>
  <featureParams>
    <maxCatCount>0</maxCatCount>
    <featSize>1</featSize>
    <mode>BASIC</mode></featureParams>
  <stageNum>11</stageNum>
  <stages>
    <!-- stage 0 -->
    <_>
      <maxWeakCount>1</maxWeakCount>
      <stageThreshold>9.4174754619598389e-01</stageThreshold>
      <weakClassifiers>
        <_>
          <internalNodes>
            0 -1 6 -1.4944707974791527e-02</internalNodes>
          <leafValues>
            9.4174754619598389e-01 -1.</leafValues></_></weakClassifiers></_>
    <!-- stage 1 -->
    <_>
      <maxWeakCount>2</maxWeakCount>
      <stageThreshold>-1.9280067086219788e-01</stageThreshold>
      <weakClassifiers>
        <_>
          <internalNodes>
            0 -1 12 7.4601629748940468e-03</internalNodes>
          <leafValues>
            -9.8952877521514893e-01 8.1651377677917480e-01</leafValues></_>
        <_>
          <internalNodes>
            0 -1 16 3.3482476137578487e-03</internalNodes>
          <leafValues>
            -9.9001157283782959e-01 7.9672813415527344e-01</leafValues></_></weakClassifiers></_>
    <!-- stage 2 -->
    <_>
      <maxWeakCount>2</maxWeakCount>
      <stageThreshold>-1.5201501548290253e-01</stageThreshold>
      <weakClassifiers>
        <_>
          <internalNodes>
            0 -1 7 -1.1974690482020378e-02</internalNodes>
          <leafValues>
            8.8349515199661255e-01 -9.6954315900802612e-01</leafValues></_>
        <_>
          <internalNodes>
            0 -1 1 -3.5284687764942646e-03</internalNodes>
          <leafValues>
            8.1752812862396240e-01 -9.7069817781448364e-01</leafValues></_></weakClassifiers></_>
    <!-- stage 3 -->
    <_>
      <maxWeakCount>2</maxWeakCount>
      <stageThreshold>-9.9569946527481079e-02</stageThreshold>
      <weakClassifiers>
        <_>
          <internalNodes>
            0 -1 21 -2.9798070900142193e-03</internalNodes>
          <leafValues>
            9.2857140302658081e-01 -8.2407408952713013e-01</leafValues></_>
        <_>
          <internalNodes>
            0 -1 8 -8.9655375631991774e-05</internalNodes>
          <leafValues>
            7.2450411319732666e-01 -9.7155618667602539e-01</leafValues></_></weakClassifiers></_>
    <!-- stage 4 -->
    <_>
      <maxWeakCount>1</maxWeakCount>
      <stageThreshold>6.2601625919342041e-01</stageThreshold>
      <weakClassifiers>
        <_>
          <internalNodes>
            0 -1 2 -6.3411787152290344e-02</internalNodes>
          <leafValues>
            6.2601625919342041e-01 -1.</leafValues></_></weakClassifiers></_>
    <!-- stage 5 -->
    <_>
      <maxWeakCount>2</maxWeakCount>
      <stageThreshold>-3.3777588605880737e-01</stageThreshold>
      <weakClassifiers>
        <_>
          <internalNodes>
            0 -1 4 -2.2309467196464539e-02</internalNodes>
          <leafValues>
            6.6666668653488159e-01 -9.4623655080795288e-01</leafValues></_>
        <_>
          <internalNodes>
            0 -1 9 -4.5635029673576355e-03</internalNodes>
          <leafValues>
            6.0846066474914551e-01 -9.7804492712020874e-01</leafValues></_></weakClassifiers></_>
    <!-- stage 6 -->
    <_>
      <maxWeakCount>3</maxWeakCount>
      <stageThreshold>-8.1891745328903198e-01</stageThreshold>
      <weakClassifiers>
        <_>
          <internalNodes>
            0 -1 18 1.2751648202538490e-02</internalNodes>
          <leafValues>
            -8.4541064500808716e-01 8.0645161867141724e-01</leafValues></_>
        <_>
          <internalNodes>
            0 -1 14 9.0443540830165148e-04</internalNodes>
          <leafValues>
            -7.7370572090148926e-01 8.9527589082717896e-01</leafValues></_>
        <_>
          <internalNodes>
            0 -1 19 4.2186700738966465e-03</internalNodes>
          <leafValues>
            -8.4322673082351685e-01 8.0019891262054443e-01</leafValues></_></weakClassifiers></_>
    <!-- stage 7 -->
    <_>
      <maxWeakCount>3</maxWeakCount>
      <stageThreshold>-1.1446336507797241e+00</stageThreshold>
      <weakClassifiers>
        <_>
          <internalNodes>
            0 -1 5 3.0381511896848679e-02</internalNodes>
          <leafValues>
            -9.6551722288131714e-01 5.3968256711959839e-01</leafValues></_>
        <_>
          <internalNodes>
            0 -1 13 7.9242578067351133e-05</internalNodes>
          <leafValues>
            -8.8522124290466309e-01 6.0646778345108032e-01</leafValues></_>
        <_>
          <internalNodes>
            0 -1 20 1.5865631867200136e-03</internalNodes>
          <leafValues>
            -7.8558421134948730e-01 8.6425524950027466e-01</leafValues></_></weakClassifiers></_>
    <!-- stage 8 -->
    <_>
      <maxWeakCount>2</maxWeakCount>
      <stageThreshold>-3.2688492536544800e-01</stageThreshold>
      <weakClassifiers>
        <_>
          <internalNodes>
            0 -1 10 3.8034960743971169e-04</internalNodes>
          <leafValues>
            -9.5652174949645996e-01 6.5517240762710571e-01</leafValues></_>
        <_>
          <internalNodes>
            0 -1 11 8.1059131771326065e-03</internalNodes>
          <leafValues>
            -9.7818946838378906e-01 6.2963682413101196e-01</leafValues></_></weakClassifiers></_>
    <!-- stage 9 -->
    <_>
      <maxWeakCount>2</maxWeakCount>
      <stageThreshold>-1.6401185095310211e-01</stageThreshold>
      <weakClassifiers>
        <_>
          <internalNodes>
            0 -1 0 4.4634953141212463e-02</internalNodes>
          <leafValues>
            -8.9162564277648926e-01 8.3505153656005859e-01</leafValues></_>
        <_>
          <internalNodes>
            0 -1 17 -2.2632839682046324e-04</internalNodes>
          <leafValues>
            7.2761374711990356e-01 -9.9006539583206177e-01</leafValues></_></weakClassifiers></_>
    <!-- stage 10 -->
    <_>
      <maxWeakCount>2</maxWeakCount>
      <stageThreshold>-3.4029909968376160e-01</stageThreshold>
      <weakClassifiers>
        <_>
          <internalNodes>
            0 -1 3 -1.8037833273410797e-02</internalNodes>
          <leafValues>
            7.8378379344940186e-01 -9.8941797018051147e-01</leafValues></_>
        <_>
          <internalNodes>
            0 -1 15 -5.6071579456329346e-03</internalNodes>
          <leafValues>
            6.4911890029907227e-01 -9.7902512550354004e-01</leafValues></_></weakClassifiers></_></stages>
  <features>
    <_>
      <rects>
        <_>
          0 0 30 26 -1.</_>
        <_>
          10 0 10 26 3.</_></rects>
      <tilted>0</tilted></_>
    <_>
      <rects>
        <_>
          5 31 18 4 -1.</_>
        <_>
          11 31 6 4 3.</_></rects>
      <tilted>0</tilted></_>
    <_>
      <rects>
        <_>
          6 15 28 28 -1.</_>
        <_>
          6 29 28 14 2.</_></rects>
      <tilted>0</tilted></_>
    <_>
      <rects>
        <_>
          6 24 16 20 -1.</_>
        <_>
          14 24 8 20 2.</_></rects>
      <tilted>0</tilted></_>
    <_>
      <rects>
        <_>
          11 21 45 4 -1.</_>
        <_>
          26 21 15 4 3.</_></rects>
      <tilted>0</tilted></_>
    <_>
      <rects>
        <_>
          11 31 30 33 -1.</_>
        <_>
          11 42 30 11 3.</_></rects>
      <tilted>0</tilted></_>
    <_>
      <rects>
        <_>
          13 16 38 8 -1.</_>
        <_>
          13 20 38 4 2.</_></rects>
      <tilted>0</tilted></_>
    <_>
      <rects>
        <_>
          14 18 39 3 -1.</_>
        <_>
          27 18 13 3 3.</_></rects>
      <tilted>0</tilted></_>
    <_>
      <rects>
        <_>
          14 42 6 1 -1.</_>
        <_>
          17 42 3 1 2.</_></rects>
      <tilted>0</tilted></_>
    <_>
      <rects>
        <_>
          20 45 20 12 -1.</_>
        <_>
          20 45 10 6 2.</_>
        <_>
          30 51 10 6 2.</_></rects>
      <tilted>0</tilted></_>
    <_>
      <rects>
        <_>
          23 56 32 4 -1.</_>
        <_>
          23 56 16 2 2.</_>
        <_>
          39 58 16 2 2.</_></rects>
      <tilted>0</tilted></_>
    <_>
      <rects>
        <_>
          26 17 13 32 -1.</_>
        <_>
          26 33 13 16 2.</_></rects>
      <tilted>0</tilted></_>
    <_>
      <rects>
        <_>
          26 38 21 5 -1.</_>
        <_>
          33 38 7 5 3.</_></rects>
      <tilted>0</tilted></_>
    <_>
      <rects>
        <_>
          27 44 3 2 -1.</_>
        <_>
          27 45 3 1 2.</_></rects>
      <tilted>0</tilted></_>
    <_>
      <rects>
        <_>
          29 35 6 4 -1.</_>
        <_>
          29 35 3 2 2.</_>
        <_>
          32 37 3 2 2.</_></rects>
      <tilted>0</tilted></_>
    <_>
      <rects>
        <_>
          29 35 18 14 -1.</_>
        <_>
          29 35 9 7 2.</_>
        <_>
          38 42 9 7 2.</_></rects>
      <tilted>0</tilted></_>
    <_>
      <rects>
        <_>
          34 32 2 21 -1.</_>
        <_>
          34 39 2 7 3.</_></rects>
      <tilted>0</tilted></_>
    <_>
      <rects>
        <_>
          34 41 4 10 -1.</_>
        <_>
          36 41 2 10 2.</_></rects>
      <tilted>0</tilted></_>
    <_>
      <rects>
        <_>
          41 39 14 20 -1.</_>
        <_>
          41 39 7 10 2.</_>
        <_>
          48 49 7 10 2.</_></rects>
      <tilted>0</tilted></_>
    <_>
      <rects>
        <_>
          51 23 9 36 -1.</_>
        <_>
          54 23 3 36 3.</_></rects>
      <tilted>0</tilted></_>
    <_>
      <rects>
        <_>
          52 16 4 20 -1.</_>
        <_>
          52 16 2 10 2.</_>
        <_>
          54 26 2 10 2.</_></rects>
      <tilted>0</tilted></_>
    <_>
      <rects>
        <_>
          53 32 4 30 -1.</_>
        <_>
          53 32 2 15 2.</_>
        <_>
          55 47 2 15 2.</_></rects>
      <tilted>0</tilted></_></features></cascade>
</opencv_storage>
