<?xml version="1.0"?>
<opencv_storage>
<cascade>
  <stageType>BOOST</stageType>
  <featureType>HAAR</featureType>
  <height>56</height>
  <width>41</width>
  <stageParams>
    <boostType>GAB</boostType>
    <minHitRate>9.9900001287460327e-01</minHitRate>
    <maxFalseAlarm>5.0000000000000000e-01</maxFalseAlarm>
    <weightTrimRate>9.4999999999999996e-01</weightTrimRate>
    <maxDepth>1</maxDepth>
    <maxWeakCount>100</maxWeakCount></stageParams>
  <featureParams>
    <maxCatCount>0</maxCatCount>
    <featSize>1</featSize>
    <mode>BASIC</mode></featureParams>
  <stageNum>11</stageNum>
  <stages>
    <!-- stage 0 -->
    <_>
      <maxWeakCount>2</maxWeakCount>
      <stageThreshold>-9.4106018543243408e-02</stageThreshold>
      <weakClassifiers>
        <_>
          <internalNodes>
            0 -1 10 -1.4213676564395428e-02</internalNodes>
          <leafValues>
            9.6039605140686035e-01 -9.8994976282119751e-01</leafValues></_>
        <_>
          <internalNodes>
            0 -1 6 7.1325018070638180e-03</internalNodes>
          <leafValues>
            -1. 8.9584374427795410e-01</leafValues></_></weakClassifiers></_>
    <!-- stage 1 -->
    <_>
      <maxWeakCount>2</maxWeakCount>
      <stageThreshold>-9.5173291862010956e-02</stageThreshold>
      <weakClassifiers>
        <_>
          <internalNodes>
            0 -1 8 -1.0217143595218658e-01</internalNodes>
          <leafValues>
            8.6792451143264771e-01 -9.8969072103500366e-01</leafValues></_>
        <_>
          <internalNodes>
            0 -1 20 1.7239291220903397e-02</internalNodes>
          <leafValues>
            -9.0709674358367920e-01 8.9451742172241211e-01</leafValues></_></weakClassifiers></_>
    <!-- stage 2 -->
    <_>
      <maxWeakCount>2</maxWeakCount>
      <stageThreshold>-2.2976966202259064e-01</stageThreshold>
      <weakClassifiers>
        <_>
          <internalNodes>
            0 -1 18 1.5084416605532169e-02</internalNodes>
          <leafValues>
            -9.3814432621002197e-01 7.7358490228652954e-01</leafValues></_>
        <_>
          <internalNodes>
            0 -1 17 1.9218716770410538e-03</internalNodes>
          <leafValues>
            -9.6964257955551147e-01 7.0837467908859253e-01</leafValues></_></weakClassifiers></_>
    <!-- stage 3 -->
    <_>
      <maxWeakCount>2</maxWeakCount>
      <stageThreshold>-2.1024742722511292e-01</stageThreshold>
      <weakClassifiers>
        <_>
          <internalNodes>
            0 -1 0 -1.4934303238987923e-02</internalNodes>
          <leafValues>
            7.9797977209091187e-01 -8.9054727554321289e-01</leafValues></_>
        <_>
          <internalNodes>
            0 -1 2 -1.2855131924152374e-01</internalNodes>
          <leafValues>
            6.8029981851577759e-01 -1.</leafValues></_></weakClassifiers></_>
    <!-- stage 4 -->
    <_>
      <maxWeakCount>2</maxWeakCount>
      <stageThreshold>-2.2700296342372894e-01</stageThreshold>
      <weakClassifiers>
        <_>
          <internalNodes>
            0 -1 19 -1.7137237591668963e-04</internalNodes>
          <leafValues>
            7.0434784889221191e-01 -9.7837835550308228e-01</leafValues></_>
        <_>
          <internalNodes>
            0 -1 14 -4.3637695489451289e-04</internalNodes>
          <leafValues>
            7.5137543678283691e-01 -9.3042826652526855e-01</leafValues></_></weakClassifiers></_>
    <!-- stage 5 -->
    <_>
      <maxWeakCount>2</maxWeakCount>
      <stageThreshold>-3.1259459257125854e-01</stageThreshold>
      <weakClassifiers>
        <_>
          <internalNodes>
            0 -1 9 -1.0624974034726620e-02</internalNodes>
          <leafValues>
            5.5737704038619995e-01 -9.4382023811340332e-01</leafValues></_>
        <_>
          <internalNodes>
            0 -1 3 3.4089996479451656e-03</internalNodes>
          <leafValues>
            -8.6997163295745850e-01 7.7996683120727539e-01</leafValues></_></weakClassifiers></_>
    <!-- stage 6 -->
    <_>
      <maxWeakCount>2</maxWeakCount>
      <stageThreshold>-4.3279930949211121e-01</stageThreshold>
      <weakClassifiers>
        <_>
          <internalNodes>
            0 -1 11 -2.7332773804664612e-01</internalNodes>
          <leafValues>
            5.2066117525100708e-01 -9.1061455011367798e-01</leafValues></_>
        <_>
          <internalNodes>
            0 -1 13 -1.0960585204884410e-03</internalNodes>
          <leafValues>
            6.0345274209976196e-01 -9.5346045494079590e-01</leafValues></_></weakClassifiers></_>
    <!-- stage 7 -->
    <_>
      <maxWeakCount>3</maxWeakCount>
      <stageThreshold>-1.2679182291030884e+00</stageThreshold>
      <weakClassifiers>
        <_>
          <internalNodes>
            0 -1 23 -2.4762453977018595e-03</internalNodes>
          <leafValues>
            7.0873785018920898e-01 -8.7817257642745972e-01</leafValues></_>
        <_>
          <internalNodes>
            0 -1 22 2.4075214751064777e-03</internalNodes>
          <leafValues>
            -8.7412643432617188e-01 6.7277896404266357e-01</leafValues></_>
        <_>
          <internalNodes>
            0 -1 16 -1.2196749448776245e-03</internalNodes>
          <leafValues>
            4.8438087105751038e-01 -9.8954236507415771e-01</leafValues></_></weakClassifiers></_>
    <!-- stage 8 -->
    <_>
      <maxWeakCount>2</maxWeakCount>
      <stageThreshold>-3.4652024507522583e-01</stageThreshold>
      <weakClassifiers>
        <_>
          <internalNodes>
            0 -1 12 7.5643444433808327e-03</internalNodes>
          <leafValues>
            -8.3419686555862427e-01 5.7009345293045044e-01</leafValues></_>
        <_>
          <internalNodes>
            0 -1 7 -4.8900942783802748e-04</internalNodes>
          <leafValues>
            5.0344467163085938e-01 -9.1661369800567627e-01</leafValues></_></weakClassifiers></_>
    <!-- stage 9 -->
    <_>
      <maxWeakCount>3</maxWeakCount>
      <stageThreshold>-1.0282269716262817e+00</stageThreshold>
      <weakClassifiers>
        <_>
          <internalNodes>
            0 -1 1 -1.1147139966487885e-01</internalNodes>
          <leafValues>
            6.6972476243972778e-01 -9.0575915575027466e-01</leafValues></_>
        <_>
          <internalNodes>
            0 -1 21 8.4008220583200455e-03</internalNodes>
          <leafValues>
            -8.5493475198745728e-01 6.8026232719421387e-01</leafValues></_>
        <_>
          <internalNodes>
            0 -1 4 -1.8041435629129410e-02</internalNodes>
          <leafValues>
            8.3131980895996094e-01 -8.0273014307022095e-01</leafValues></_></weakClassifiers></_>
    <!-- stage 10 -->
    <_>
      <maxWeakCount>2</maxWeakCount>
      <stageThreshold>-1.2815223634243011e-01</stageThreshold>
      <weakClassifiers>
        <_>
          <internalNodes>
            0 -1 15 2.1194382861722261e-04</internalNodes>
          <leafValues>
            -8.2159626483917236e-01 8.6206895112991333e-01</leafValues></_>
        <_>
          <internalNodes>
            0 -1 5 2.6709993835538626e-04</internalNodes>
          <leafValues>
            -9.5201039314270020e-01 6.9344401359558105e-01</leafValues></_></weakClassifiers></_></stages>
  <features>
    <_>
      <rects>
        <_>
          0 20 8 12 -1.</_>
        <_>
          4 20 4 12 2.</_></rects>
      <tilted>0</tilted></_>
    <_>
      <rects>
        <_>
          2 5 13 28 -1.</_>
        <_>
          2 19 13 14 2.</_></rects>
      <tilted>0</tilted></_>
    <_>
      <rects>
        <_>
          2 9 36 47 -1.</_>
        <_>
          14 9 12 47 3.</_></rects>
      <tilted>0</tilted></_>
    <_>
      <rects>
        <_>
          2 16 12 8 -1.</_>
        <_>
          2 16 6 4 2.</_>
        <_>
          8 20 6 4 2.</_></rects>
      <tilted>0</tilted></_>
    <_>
      <rects>
        <_>
          3 31 24 4 -1.</_>
        <_>
          11 31 8 4 3.</_></rects>
      <tilted>0</tilted></_>
    <_>
      <rects>
        <_>
          4 42 8 1 -1.</_>
        <_>
          8 42 4 1 2.</_></rects>
      <tilted>0</tilted></_>
    <_>
      <rects>
        <_>
          6 34 17 6 -1.</_>
        <_>
          6 37 17 3 2.</_></rects>
      <tilted>0</tilted></_>
    <_>
      <rects>
        <_>
          6 39 2 8 -1.</_>
        <_>
          6 43 2 4 2.</_></rects>
      <tilted>0</tilted></_>
    <_>
      <rects>
        <_>
          7 5 21 22 -1.</_>
        <_>
          7 16 21 11 2.</_></rects>
      <tilted>0</tilted></_>
    <_>
      <rects>
        <_>
          7 42 20 8 -1.</_>
        <_>
          7 46 20 4 2.</_></rects>
      <tilted>0</tilted></_>
    <_>
      <rects>
        <_>
          9 32 30 8 -1.</_>
        <_>
          9 32 15 4 2.</_>
        <_>
          24 36 15 4 2.</_></rects>
      <tilted>0</tilted></_>
    <_>
      <rects>
        <_>
          12 2 26 51 -1.</_>
        <_>
          12 19 26 17 3.</_></rects>
      <tilted>0</tilted></_>
    <_>
      <rects>
        <_>
          21 10 6 15 -1.</_>
        <_>
          21 15 6 5 3.</_></rects>
      <tilted>0</tilted></_>
    <_>
      <rects>
        <_>
          22 8 5 4 -1.</_>
        <_>
          22 10 5 2 2.</_></rects>
      <tilted>0</tilted></_>
    <_>
      <rects>
        <_>
          22 18 5 2 -1.</_>
        <_>
          22 19 5 1 2.</_></rects>
      <tilted>0</tilted></_>
    <_>
      <rects>
        <_>
          22 29 2 1 -1.</_>
        <_>
          23 29 1 1 2.</_></rects>
      <tilted>0</tilted></_>
    <_>
      <rects>
        <_>
          24 35 10 3 -1.</_>
        <_>
          29 35 5 3 2.</_></rects>
      <tilted>0</tilted></_>
    <_>
      <rects>
        <_>
          27 25 1 15 -1.</_>
        <_>
          27 30 1 5 3.</_></rects>
      <tilted>0</tilted></_>
    <_>
      <rects>
        <_>
          27 32 14 14 -1.</_>
        <_>
          27 32 7 7 2.</_>
        <_>
          34 39 7 7 2.</_></rects>
      <tilted>0</tilted></_>
    <_>
      <rects>
        <_>
          28 28 2 8 -1.</_>
        <_>
          29 28 1 8 2.</_></rects>
      <tilted>0</tilted></_>
    <_>
      <rects>
        <_>
          31 18 10 11 -1.</_>
        <_>
          36 18 5 11 2.</_></rects>
      <tilted>0</tilted></_>
    <_>
      <rects>
        <_>
          36 22 4 28 -1.</_>
        <_>
          38 22 2 28 2.</_></rects>
      <tilted>0</tilted></_>
    <_>
      <rects>
        <_>
          37 21 2 32 -1.</_>
        <_>
          38 21 1 32 2.</_></rects>
      <tilted>0</tilted></_>
    <_>
      <rects>
        <_>
          38 23 1 14 -1.</_>
        <_>
          38 30 1 7 2.</_></rects>
      <tilted>0</tilted></_></features></cascade>
</opencv_storage>
