<?xml version="1.0"?>
<opencv_storage>
<cascade>
  <stageType>BOOST</stageType>
  <featureType>HAAR</featureType>
  <height>71</height>
  <width>84</width>
  <stageParams>
    <boostType>GAB</boostType>
    <minHitRate>9.9900001287460327e-01</minHitRate>
    <maxFalseAlarm>5.0000000000000000e-01</maxFalseAlarm>
    <weightTrimRate>9.4999999999999996e-01</weightTrimRate>
    <maxDepth>1</maxDepth>
    <maxWeakCount>100</maxWeakCount></stageParams>
  <featureParams>
    <maxCatCount>0</maxCatCount>
    <featSize>1</featSize>
    <mode>BASIC</mode></featureParams>
  <stageNum>5</stageNum>
  <stages>
    <!-- stage 0 -->
    <_>
      <maxWeakCount>1</maxWeakCount>
      <stageThreshold>1.</stageThreshold>
      <weakClassifiers>
        <_>
          <internalNodes>
            0 -1 4 2.5945965200662613e-02</internalNodes>
          <leafValues>
            -1. 1.</leafValues></_></weakClassifiers></_>
    <!-- stage 1 -->
    <_>
      <maxWeakCount>1</maxWeakCount>
      <stageThreshold>9.4174754619598389e-01</stageThreshold>
      <weakClassifiers>
        <_>
          <internalNodes>
            0 -1 0 -1.1839179322123528e-02</internalNodes>
          <leafValues>
            9.4174754619598389e-01 -1.</leafValues></_></weakClassifiers></_>
    <!-- stage 2 -->
    <_>
      <maxWeakCount>2</maxWeakCount>
      <stageThreshold>-9.2222847044467926e-02</stageThreshold>
      <weakClassifiers>
        <_>
          <internalNodes>
            0 -1 1 2.6160344481468201e-02</internalNodes>
          <leafValues>
            -9.6984922885894775e-01 9.2079210281372070e-01</leafValues></_>
        <_>
          <internalNodes>
            0 -1 2 5.8703310787677765e-03</internalNodes>
          <leafValues>
            -1. 8.7762641906738281e-01</leafValues></_></weakClassifiers></_>
    <!-- stage 3 -->
    <_>
      <maxWeakCount>1</maxWeakCount>
      <stageThreshold>9.0476191043853760e-01</stageThreshold>
      <weakClassifiers>
        <_>
          <internalNodes>
            0 -1 3 -4.3039377778768539e-02</internalNodes>
          <leafValues>
            9.0476191043853760e-01 -1.</leafValues></_></weakClassifiers></_>
    <!-- stage 4 -->
    <_>
      <maxWeakCount>2</maxWeakCount>
      <stageThreshold>-5.0383821129798889e-02</stageThreshold>
      <weakClassifiers>
        <_>
          <internalNodes>
            0 -1 5 1.0251853382214904e-04</internalNodes>
          <leafValues>
            -9.2270529270172119e-01 9.7849464416503906e-01</leafValues></_>
        <_>
          <internalNodes>
            0 -1 6 9.1522518778219819e-04</internalNodes>
          <leafValues>
            -9.4391977787017822e-01 8.7232148647308350e-01</leafValues></_></weakClassifiers></_></stages>
  <features>
    <_>
      <rects>
        <_>
          20 35 14 20 -1.</_>
        <_>
          20 45 14 10 2.</_></rects>
      <tilted>0</tilted></_>
    <_>
      <rects>
        <_>
          23 17 16 38 -1.</_>
        <_>
          23 17 8 19 2.</_>
        <_>
          31 36 8 19 2.</_></rects>
      <tilted>0</tilted></_>
    <_>
      <rects>
        <_>
          25 28 14 14 -1.</_>
        <_>
          25 28 7 7 2.</_>
        <_>
          32 35 7 7 2.</_></rects>
      <tilted>0</tilted></_>
    <_>
      <rects>
        <_>
          29 31 39 21 -1.</_>
        <_>
          42 31 13 21 3.</_></rects>
      <tilted>0</tilted></_>
    <_>
      <rects>
        <_>
          41 34 16 18 -1.</_>
        <_>
          41 43 16 9 2.</_></rects>
      <tilted>0</tilted></_>
    <_>
      <rects>
        <_>
          41 35 2 3 -1.</_>
        <_>
          42 35 1 3 2.</_></rects>
      <tilted>0</tilted></_>
    <_>
      <rects>
        <_>
          45 28 12 3 -1.</_>
        <_>
          49 28 4 3 3.</_></rects>
      <tilted>0</tilted></_></features></cascade>
</opencv_storage>
