<?xml version="1.0"?>
<opencv_storage>
<cascade>
  <stageType>BOOST</stageType>
  <featureType>HAAR</featureType>
  <height>62</height>
  <width>48</width>
  <stageParams>
    <boostType>GAB</boostType>
    <minHitRate>9.9900001287460327e-01</minHitRate>
    <maxFalseAlarm>5.0000000000000000e-01</maxFalseAlarm>
    <weightTrimRate>9.4999999999999996e-01</weightTrimRate>
    <maxDepth>1</maxDepth>
    <maxWeakCount>100</maxWeakCount></stageParams>
  <featureParams>
    <maxCatCount>0</maxCatCount>
    <featSize>1</featSize>
    <mode>BASIC</mode></featureParams>
  <stageNum>6</stageNum>
  <stages>
    <!-- stage 0 -->
    <_>
      <maxWeakCount>1</maxWeakCount>
      <stageThreshold>9.6078431606292725e-01</stageThreshold>
      <weakClassifiers>
        <_>
          <internalNodes>
            0 -1 6 4.1978154331445694e-03</internalNodes>
          <leafValues>
            -1. 9.6078431606292725e-01</leafValues></_></weakClassifiers></_>
    <!-- stage 1 -->
    <_>
      <maxWeakCount>1</maxWeakCount>
      <stageThreshold>9.8019802570343018e-01</stageThreshold>
      <weakClassifiers>
        <_>
          <internalNodes>
            0 -1 1 -7.9464659094810486e-02</internalNodes>
          <leafValues>
            9.8019802570343018e-01 -1.</leafValues></_></weakClassifiers></_>
    <!-- stage 2 -->
    <_>
      <maxWeakCount>1</maxWeakCount>
      <stageThreshold>8.6915886402130127e-01</stageThreshold>
      <weakClassifiers>
        <_>
          <internalNodes>
            0 -1 5 5.6127645075321198e-03</internalNodes>
          <leafValues>
            -1. 8.6915886402130127e-01</leafValues></_></weakClassifiers></_>
    <!-- stage 3 -->
    <_>
      <maxWeakCount>2</maxWeakCount>
      <stageThreshold>-1.4927648007869720e-01</stageThreshold>
      <weakClassifiers>
        <_>
          <internalNodes>
            0 -1 8 4.2233406566083431e-03</internalNodes>
          <leafValues>
            -9.1346156597137451e-01 9.7826087474822998e-01</leafValues></_>
        <_>
          <internalNodes>
            0 -1 7 2.9179414923419245e-05</internalNodes>
          <leafValues>
            -9.3242973089218140e-01 7.6418507099151611e-01</leafValues></_></weakClassifiers></_>
    <!-- stage 4 -->
    <_>
      <maxWeakCount>2</maxWeakCount>
      <stageThreshold>-1.0858791321516037e-01</stageThreshold>
      <weakClassifiers>
        <_>
          <internalNodes>
            0 -1 3 -1.6628529876470566e-02</internalNodes>
          <leafValues>
            8.6407768726348877e-01 -9.5939087867736816e-01</leafValues></_>
        <_>
          <internalNodes>
            0 -1 2 -1.3037793338298798e-02</internalNodes>
          <leafValues>
            8.5080295801162720e-01 -9.2515492439270020e-01</leafValues></_></weakClassifiers></_>
    <!-- stage 5 -->
    <_>
      <maxWeakCount>3</maxWeakCount>
      <stageThreshold>-8.7001943588256836e-01</stageThreshold>
      <weakClassifiers>
        <_>
          <internalNodes>
            0 -1 9 -7.2294147685170174e-03</internalNodes>
          <leafValues>
            1. -8.5185188055038452e-01</leafValues></_>
        <_>
          <internalNodes>
            0 -1 0 -5.2086682990193367e-03</internalNodes>
          <leafValues>
            8.1877034902572632e-01 -8.9932769536972046e-01</leafValues></_>
        <_>
          <internalNodes>
            0 -1 4 2.2854567505419254e-03</internalNodes>
          <leafValues>
            -8.3693796396255493e-01 8.8659316301345825e-01</leafValues></_></weakClassifiers></_></stages>
  <features>
    <_>
      <rects>
        <_>
          0 25 8 7 -1.</_>
        <_>
          4 25 4 7 2.</_></rects>
      <tilted>0</tilted></_>
    <_>
      <rects>
        <_>
          10 2 8 36 -1.</_>
        <_>
          10 20 8 18 2.</_></rects>
      <tilted>0</tilted></_>
    <_>
      <rects>
        <_>
          12 23 36 12 -1.</_>
        <_>
          24 23 12 12 3.</_></rects>
      <tilted>0</tilted></_>
    <_>
      <rects>
        <_>
          15 7 24 8 -1.</_>
        <_>
          15 11 24 4 2.</_></rects>
      <tilted>0</tilted></_>
    <_>
      <rects>
        <_>
          22 28 4 10 -1.</_>
        <_>
          22 28 2 5 2.</_>
        <_>
          24 33 2 5 2.</_></rects>
      <tilted>0</tilted></_>
    <_>
      <rects>
        <_>
          26 30 12 5 -1.</_>
        <_>
          30 30 4 5 3.</_></rects>
      <tilted>0</tilted></_>
    <_>
      <rects>
        <_>
          28 28 2 15 -1.</_>
        <_>
          28 33 2 5 3.</_></rects>
      <tilted>0</tilted></_>
    <_>
      <rects>
        <_>
          33 26 2 12 -1.</_>
        <_>
          33 26 1 6 2.</_>
        <_>
          34 32 1 6 2.</_></rects>
      <tilted>0</tilted></_>
    <_>
      <rects>
        <_>
          37 42 10 3 -1.</_>
        <_>
          42 42 5 3 2.</_></rects>
      <tilted>0</tilted></_>
    <_>
      <rects>
        <_>
          44 25 4 30 -1.</_>
        <_>
          44 25 2 15 2.</_>
        <_>
          46 40 2 15 2.</_></rects>
      <tilted>0</tilted></_></features></cascade>
</opencv_storage>
