<?xml version="1.0"?>
<opencv_storage>
<cascade>
  <stageType>BOOST</stageType>
  <featureType>HAAR</featureType>
  <height>38</height>
  <width>54</width>
  <stageParams>
    <boostType>GAB</boostType>
    <minHitRate>9.9900001287460327e-01</minHitRate>
    <maxFalseAlarm>5.0000000000000000e-01</maxFalseAlarm>
    <weightTrimRate>9.4999999999999996e-01</weightTrimRate>
    <maxDepth>1</maxDepth>
    <maxWeakCount>100</maxWeakCount></stageParams>
  <featureParams>
    <maxCatCount>0</maxCatCount>
    <featSize>1</featSize>
    <mode>BASIC</mode></featureParams>
  <stageNum>8</stageNum>
  <stages>
    <!-- stage 0 -->
    <_>
      <maxWeakCount>1</maxWeakCount>
      <stageThreshold>1.</stageThreshold>
      <weakClassifiers>
        <_>
          <internalNodes>
            0 -1 1 -9.9247694015502930e-02</internalNodes>
          <leafValues>
            1. -1.</leafValues></_></weakClassifiers></_>
    <!-- stage 1 -->
    <_>
      <maxWeakCount>2</maxWeakCount>
      <stageThreshold>-1.6299504041671753e-01</stageThreshold>
      <weakClassifiers>
        <_>
          <internalNodes>
            0 -1 12 4.1454847902059555e-02</internalNodes>
          <leafValues>
            -9.8974359035491943e-01 8.8571429252624512e-01</leafValues></_>
        <_>
          <internalNodes>
            0 -1 10 -4.6115944860503078e-04</internalNodes>
          <leafValues>
            8.2674854993820190e-01 -9.9005937576293945e-01</leafValues></_></weakClassifiers></_>
    <!-- stage 2 -->
    <_>
      <maxWeakCount>2</maxWeakCount>
      <stageThreshold>-6.1323795467615128e-02</stageThreshold>
      <weakClassifiers>
        <_>
          <internalNodes>
            0 -1 13 -6.3287874218076468e-04</internalNodes>
          <leafValues>
            9.5789474248886108e-01 -9.3170732259750366e-01</leafValues></_>
        <_>
          <internalNodes>
            0 -1 6 1.1489401571452618e-02</internalNodes>
          <leafValues>
            -9.4382005929946899e-01 8.7038350105285645e-01</leafValues></_></weakClassifiers></_>
    <!-- stage 3 -->
    <_>
      <maxWeakCount>2</maxWeakCount>
      <stageThreshold>-1.7444363236427307e-01</stageThreshold>
      <weakClassifiers>
        <_>
          <internalNodes>
            0 -1 0 -1.3778861612081528e-02</internalNodes>
          <leafValues>
            8.6000001430511475e-01 -9.3000000715255737e-01</leafValues></_>
        <_>
          <internalNodes>
            0 -1 11 1.6514948219992220e-04</internalNodes>
          <leafValues>
            -9.9006932973861694e-01 7.5555634498596191e-01</leafValues></_></weakClassifiers></_>
    <!-- stage 4 -->
    <_>
      <maxWeakCount>3</maxWeakCount>
      <stageThreshold>-1.1466193199157715e+00</stageThreshold>
      <weakClassifiers>
        <_>
          <internalNodes>
            0 -1 2 -1.0487428307533264e-01</internalNodes>
          <leafValues>
            8.0952382087707520e-01 -9.4871795177459717e-01</leafValues></_>
        <_>
          <internalNodes>
            0 -1 14 -4.2221350595355034e-03</internalNodes>
          <leafValues>
            8.6843800544738770e-01 -8.8401979207992554e-01</leafValues></_>
        <_>
          <internalNodes>
            0 -1 8 -1.2964825145900249e-04</internalNodes>
          <leafValues>
            6.8611848354339600e-01 -9.9073892831802368e-01</leafValues></_></weakClassifiers></_>
    <!-- stage 5 -->
    <_>
      <maxWeakCount>2</maxWeakCount>
      <stageThreshold>-3.3363950252532959e-01</stageThreshold>
      <weakClassifiers>
        <_>
          <internalNodes>
            0 -1 3 -2.2708952426910400e-02</internalNodes>
          <leafValues>
            7.4774771928787231e-01 -9.6825397014617920e-01</leafValues></_>
        <_>
          <internalNodes>
            0 -1 9 1.1389842256903648e-04</internalNodes>
          <leafValues>
            -9.7880113124847412e-01 6.3461446762084961e-01</leafValues></_></weakClassifiers></_>
    <!-- stage 6 -->
    <_>
      <maxWeakCount>2</maxWeakCount>
      <stageThreshold>-2.8081548213958740e-01</stageThreshold>
      <weakClassifiers>
        <_>
          <internalNodes>
            0 -1 5 -3.0288472771644592e-02</internalNodes>
          <leafValues>
            6.5765768289566040e-01 -9.1534394025802612e-01</leafValues></_>
        <_>
          <internalNodes>
            0 -1 4 1.7241958528757095e-02</internalNodes>
          <leafValues>
            -9.3847310543060303e-01 7.0399129390716553e-01</leafValues></_></weakClassifiers></_>
    <!-- stage 7 -->
    <_>
      <maxWeakCount>2</maxWeakCount>
      <stageThreshold>-3.8580584526062012e-01</stageThreshold>
      <weakClassifiers>
        <_>
          <internalNodes>
            0 -1 7 -1.4984205365180969e-02</internalNodes>
          <leafValues>
            6.0344827175140381e-01 -9.2391306161880493e-01</leafValues></_>
        <_>
          <internalNodes>
            0 -1 15 -4.4445022940635681e-03</internalNodes>
          <leafValues>
            5.3810721635818481e-01 -1.</leafValues></_></weakClassifiers></_></stages>
  <features>
    <_>
      <rects>
        <_>
          2 10 8 16 -1.</_>
        <_>
          6 10 4 16 2.</_></rects>
      <tilted>0</tilted></_>
    <_>
      <rects>
        <_>
          2 17 43 18 -1.</_>
        <_>
          2 23 43 6 3.</_></rects>
      <tilted>0</tilted></_>
    <_>
      <rects>
        <_>
          4 3 40 16 -1.</_>
        <_>
          4 11 40 8 2.</_></rects>
      <tilted>0</tilted></_>
    <_>
      <rects>
        <_>
          6 6 36 4 -1.</_>
        <_>
          18 6 12 4 3.</_></rects>
      <tilted>0</tilted></_>
    <_>
      <rects>
        <_>
          8 8 10 24 -1.</_>
        <_>
          8 8 5 12 2.</_>
        <_>
          13 20 5 12 2.</_></rects>
      <tilted>0</tilted></_>
    <_>
      <rects>
        <_>
          10 2 7 16 -1.</_>
        <_>
          10 10 7 8 2.</_></rects>
      <tilted>0</tilted></_>
    <_>
      <rects>
        <_>
          12 32 27 2 -1.</_>
        <_>
          21 32 9 2 3.</_></rects>
      <tilted>0</tilted></_>
    <_>
      <rects>
        <_>
          19 26 31 6 -1.</_>
        <_>
          19 28 31 2 3.</_></rects>
      <tilted>0</tilted></_>
    <_>
      <rects>
        <_>
          23 18 2 2 -1.</_>
        <_>
          23 19 2 1 2.</_></rects>
      <tilted>0</tilted></_>
    <_>
      <rects>
        <_>
          24 20 2 2 -1.</_>
        <_>
          25 20 1 2 2.</_></rects>
      <tilted>0</tilted></_>
    <_>
      <rects>
        <_>
          25 18 2 2 -1.</_>
        <_>
          26 18 1 2 2.</_></rects>
      <tilted>0</tilted></_>
    <_>
      <rects>
        <_>
          26 12 2 7 -1.</_>
        <_>
          27 12 1 7 2.</_></rects>
      <tilted>0</tilted></_>
    <_>
      <rects>
        <_>
          34 11 18 10 -1.</_>
        <_>
          43 11 9 10 2.</_></rects>
      <tilted>0</tilted></_>
    <_>
      <rects>
        <_>
          34 12 2 6 -1.</_>
        <_>
          34 12 1 3 2.</_>
        <_>
          35 15 1 3 2.</_></rects>
      <tilted>0</tilted></_>
    <_>
      <rects>
        <_>
          41 4 1 16 -1.</_>
        <_>
          41 12 1 8 2.</_></rects>
      <tilted>0</tilted></_>
    <_>
      <rects>
        <_>
          43 6 1 22 -1.</_>
        <_>
          43 17 1 11 2.</_></rects>
      <tilted>0</tilted></_></features></cascade>
</opencv_storage>
