<?xml version="1.0"?>
<opencv_storage>
<cascade>
  <stageType>BOOST</stageType>
  <featureType>HAAR</featureType>
  <height>88</height>
  <width>56</width>
  <stageParams>
    <boostType>GAB</boostType>
    <minHitRate>9.9900001287460327e-01</minHitRate>
    <maxFalseAlarm>5.0000000000000000e-01</maxFalseAlarm>
    <weightTrimRate>9.4999999999999996e-01</weightTrimRate>
    <maxDepth>1</maxDepth>
    <maxWeakCount>100</maxWeakCount></stageParams>
  <featureParams>
    <maxCatCount>0</maxCatCount>
    <featSize>1</featSize>
    <mode>BASIC</mode></featureParams>
  <stageNum>6</stageNum>
  <stages>
    <!-- stage 0 -->
    <_>
      <maxWeakCount>1</maxWeakCount>
      <stageThreshold>1.</stageThreshold>
      <weakClassifiers>
        <_>
          <internalNodes>
            0 -1 6 -2.2466597147285938e-03</internalNodes>
          <leafValues>
            1. -1.</leafValues></_></weakClassifiers></_>
    <!-- stage 1 -->
    <_>
      <maxWeakCount>2</maxWeakCount>
      <stageThreshold>-4.5470207929611206e-02</stageThreshold>
      <weakClassifiers>
        <_>
          <internalNodes>
            0 -1 2 2.0508084446191788e-02</internalNodes>
          <leafValues>
            -9.9004977941513062e-01 1.</leafValues></_>
        <_>
          <internalNodes>
            0 -1 3 2.8369692154228687e-03</internalNodes>
          <leafValues>
            -1. 9.4457954168319702e-01</leafValues></_></weakClassifiers></_>
    <!-- stage 2 -->
    <_>
      <maxWeakCount>2</maxWeakCount>
      <stageThreshold>-5.8179538697004318e-02</stageThreshold>
      <weakClassifiers>
        <_>
          <internalNodes>
            0 -1 0 7.6226037926971912e-03</internalNodes>
          <leafValues>
            -9.8979592323303223e-01 9.0384614467620850e-01</leafValues></_>
        <_>
          <internalNodes>
            0 -1 4 4.9848379567265511e-03</internalNodes>
          <leafValues>
            -9.6202570199966431e-01 9.4726026058197021e-01</leafValues></_></weakClassifiers></_>
    <!-- stage 3 -->
    <_>
      <maxWeakCount>2</maxWeakCount>
      <stageThreshold>-1.8635390698909760e-01</stageThreshold>
      <weakClassifiers>
        <_>
          <internalNodes>
            0 -1 7 -1.1947134509682655e-02</internalNodes>
          <leafValues>
            8.8571429252624512e-01 -9.8974359035491943e-01</leafValues></_>
        <_>
          <internalNodes>
            0 -1 9 3.6874681245535612e-04</internalNodes>
          <leafValues>
            -9.8008179664611816e-01 8.0338966846466064e-01</leafValues></_></weakClassifiers></_>
    <!-- stage 4 -->
    <_>
      <maxWeakCount>2</maxWeakCount>
      <stageThreshold>-2.1807646751403809e-01</stageThreshold>
      <weakClassifiers>
        <_>
          <internalNodes>
            0 -1 10 -4.1527295252308249e-05</internalNodes>
          <leafValues>
            8.7628865242004395e-01 -9.1133004426956177e-01</leafValues></_>
        <_>
          <internalNodes>
            0 -1 8 -1.5268819406628609e-03</internalNodes>
          <leafValues>
            6.9325357675552368e-01 -9.8984205722808838e-01</leafValues></_></weakClassifiers></_>
    <!-- stage 5 -->
    <_>
      <maxWeakCount>2</maxWeakCount>
      <stageThreshold>-1.3937403261661530e-01</stageThreshold>
      <weakClassifiers>
        <_>
          <internalNodes>
            0 -1 1 -4.4525135308504105e-03</internalNodes>
          <leafValues>
            9.5698922872543335e-01 -9.1304349899291992e-01</leafValues></_>
        <_>
          <internalNodes>
            0 -1 5 -9.3610314652323723e-03</internalNodes>
          <leafValues>
            7.7366942167282104e-01 -9.8035812377929688e-01</leafValues></_></weakClassifiers></_></stages>
  <features>
    <_>
      <rects>
        <_>
          3 30 14 22 -1.</_>
        <_>
          3 30 7 11 2.</_>
        <_>
          10 41 7 11 2.</_></rects>
      <tilted>0</tilted></_>
    <_>
      <rects>
        <_>
          6 30 1 50 -1.</_>
        <_>
          6 55 1 25 2.</_></rects>
      <tilted>0</tilted></_>
    <_>
      <rects>
        <_>
          18 57 32 5 -1.</_>
        <_>
          34 57 16 5 2.</_></rects>
      <tilted>0</tilted></_>
    <_>
      <rects>
        <_>
          18 60 28 1 -1.</_>
        <_>
          32 60 14 1 2.</_></rects>
      <tilted>0</tilted></_>
    <_>
      <rects>
        <_>
          19 34 20 8 -1.</_>
        <_>
          19 34 10 4 2.</_>
        <_>
          29 38 10 4 2.</_></rects>
      <tilted>0</tilted></_>
    <_>
      <rects>
        <_>
          19 52 37 15 -1.</_>
        <_>
          19 57 37 5 3.</_></rects>
      <tilted>0</tilted></_>
    <_>
      <rects>
        <_>
          21 45 13 6 -1.</_>
        <_>
          21 47 13 2 3.</_></rects>
      <tilted>0</tilted></_>
    <_>
      <rects>
        <_>
          24 27 7 21 -1.</_>
        <_>
          24 34 7 7 3.</_></rects>
      <tilted>0</tilted></_>
    <_>
      <rects>
        <_>
          25 40 6 14 -1.</_>
        <_>
          25 40 3 7 2.</_>
        <_>
          28 47 3 7 2.</_></rects>
      <tilted>0</tilted></_>
    <_>
      <rects>
        <_>
          26 40 1 4 -1.</_>
        <_>
          26 42 1 2 2.</_></rects>
      <tilted>0</tilted></_>
    <_>
      <rects>
        <_>
          29 40 1 4 -1.</_>
        <_>
          29 42 1 2 2.</_></rects>
      <tilted>0</tilted></_></features></cascade>
</opencv_storage>
