<?xml version="1.0"?>
<opencv_storage>
<cascade>
  <stageType>BOOST</stageType>
  <featureType>HAAR</featureType>
  <height>83</height>
  <width>45</width>
  <stageParams>
    <boostType>GAB</boostType>
    <minHitRate>9.9900001287460327e-01</minHitRate>
    <maxFalseAlarm>5.0000000000000000e-01</maxFalseAlarm>
    <weightTrimRate>9.4999999999999996e-01</weightTrimRate>
    <maxDepth>1</maxDepth>
    <maxWeakCount>100</maxWeakCount></stageParams>
  <featureParams>
    <maxCatCount>0</maxCatCount>
    <featSize>1</featSize>
    <mode>BASIC</mode></featureParams>
  <stageNum>9</stageNum>
  <stages>
    <!-- stage 0 -->
    <_>
      <maxWeakCount>1</maxWeakCount>
      <stageThreshold>9.8019802570343018e-01</stageThreshold>
      <weakClassifiers>
        <_>
          <internalNodes>
            0 -1 9 5.8406582102179527e-03</internalNodes>
          <leafValues>
            -1. 9.8019802570343018e-01</leafValues></_></weakClassifiers></_>
    <!-- stage 1 -->
    <_>
      <maxWeakCount>2</maxWeakCount>
      <stageThreshold>-2.2038346529006958e-01</stageThreshold>
      <weakClassifiers>
        <_>
          <internalNodes>
            0 -1 2 -8.9927436783909798e-03</internalNodes>
          <leafValues>
            9.2156863212585449e-01 -9.7979795932769775e-01</leafValues></_>
        <_>
          <internalNodes>
            0 -1 7 -4.8299532383680344e-02</internalNodes>
          <leafValues>
            7.5941449403762817e-01 -9.8980027437210083e-01</leafValues></_></weakClassifiers></_>
    <!-- stage 2 -->
    <_>
      <maxWeakCount>2</maxWeakCount>
      <stageThreshold>-1.0443238168954849e-01</stageThreshold>
      <weakClassifiers>
        <_>
          <internalNodes>
            0 -1 1 -1.6976710408926010e-02</internalNodes>
          <leafValues>
            9.0384614467620850e-01 -9.8979592323303223e-01</leafValues></_>
        <_>
          <internalNodes>
            0 -1 13 5.4709671530872583e-04</internalNodes>
          <leafValues>
            -1. 8.8536351919174194e-01</leafValues></_></weakClassifiers></_>
    <!-- stage 3 -->
    <_>
      <maxWeakCount>2</maxWeakCount>
      <stageThreshold>-2.4121908843517303e-01</stageThreshold>
      <weakClassifiers>
        <_>
          <internalNodes>
            0 -1 11 -6.6282562329433858e-05</internalNodes>
          <leafValues>
            7.1929824352264404e-01 -9.7849464416503906e-01</leafValues></_>
        <_>
          <internalNodes>
            0 -1 4 8.8953378144651651e-04</internalNodes>
          <leafValues>
            -9.6051734685897827e-01 8.1329530477523804e-01</leafValues></_></weakClassifiers></_>
    <!-- stage 4 -->
    <_>
      <maxWeakCount>2</maxWeakCount>
      <stageThreshold>-2.9197052121162415e-01</stageThreshold>
      <weakClassifiers>
        <_>
          <internalNodes>
            0 -1 14 -5.0860675401054323e-05</internalNodes>
          <leafValues>
            6.4705884456634521e-01 -9.7790056467056274e-01</leafValues></_>
        <_>
          <internalNodes>
            0 -1 10 -3.6239619366824627e-03</internalNodes>
          <leafValues>
            7.5341516733169556e-01 -9.3902933597564697e-01</leafValues></_></weakClassifiers></_>
    <!-- stage 5 -->
    <_>
      <maxWeakCount>1</maxWeakCount>
      <stageThreshold>5.2671754360198975e-01</stageThreshold>
      <weakClassifiers>
        <_>
          <internalNodes>
            0 -1 8 -5.5384699953719974e-04</internalNodes>
          <leafValues>
            5.2671754360198975e-01 -1.</leafValues></_></weakClassifiers></_>
    <!-- stage 6 -->
    <_>
      <maxWeakCount>1</maxWeakCount>
      <stageThreshold>7.0940172672271729e-01</stageThreshold>
      <weakClassifiers>
        <_>
          <internalNodes>
            0 -1 5 -2.5339694693684578e-03</internalNodes>
          <leafValues>
            7.0940172672271729e-01 -1.</leafValues></_></weakClassifiers></_>
    <!-- stage 7 -->
    <_>
      <maxWeakCount>2</maxWeakCount>
      <stageThreshold>-2.2890879213809967e-01</stageThreshold>
      <weakClassifiers>
        <_>
          <internalNodes>
            0 -1 12 6.8560629151761532e-03</internalNodes>
          <leafValues>
            -9.5767194032669067e-01 7.2972971200942993e-01</leafValues></_>
        <_>
          <internalNodes>
            0 -1 0 1.4047388685867190e-03</internalNodes>
          <leafValues>
            -9.1167968511581421e-01 7.2876316308975220e-01</leafValues></_></weakClassifiers></_>
    <!-- stage 8 -->
    <_>
      <maxWeakCount>2</maxWeakCount>
      <stageThreshold>-3.3983710408210754e-01</stageThreshold>
      <weakClassifiers>
        <_>
          <internalNodes>
            0 -1 3 4.5222481712698936e-03</internalNodes>
          <leafValues>
            -9.2432433366775513e-01 6.1739128828048706e-01</leafValues></_>
        <_>
          <internalNodes>
            0 -1 6 -3.8982607657089829e-04</internalNodes>
          <leafValues>
            6.7583751678466797e-01 -9.5722842216491699e-01</leafValues></_></weakClassifiers></_></stages>
  <features>
    <_>
      <rects>
        <_>
          1 39 9 2 -1.</_>
        <_>
          4 39 3 2 3.</_></rects>
      <tilted>0</tilted></_>
    <_>
      <rects>
        <_>
          3 39 18 9 -1.</_>
        <_>
          9 39 6 9 3.</_></rects>
      <tilted>0</tilted></_>
    <_>
      <rects>
        <_>
          4 37 8 11 -1.</_>
        <_>
          8 37 4 11 2.</_></rects>
      <tilted>0</tilted></_>
    <_>
      <rects>
        <_>
          13 38 6 19 -1.</_>
        <_>
          16 38 3 19 2.</_></rects>
      <tilted>0</tilted></_>
    <_>
      <rects>
        <_>
          14 25 2 37 -1.</_>
        <_>
          15 25 1 37 2.</_></rects>
      <tilted>0</tilted></_>
    <_>
      <rects>
        <_>
          14 40 17 4 -1.</_>
        <_>
          14 42 17 2 2.</_></rects>
      <tilted>0</tilted></_>
    <_>
      <rects>
        <_>
          15 35 1 6 -1.</_>
        <_>
          15 38 1 3 2.</_></rects>
      <tilted>0</tilted></_>
    <_>
      <rects>
        <_>
          19 25 14 39 -1.</_>
        <_>
          19 38 14 13 3.</_></rects>
      <tilted>0</tilted></_>
    <_>
      <rects>
        <_>
          19 35 3 4 -1.</_>
        <_>
          19 37 3 2 2.</_></rects>
      <tilted>0</tilted></_>
    <_>
      <rects>
        <_>
          20 36 6 12 -1.</_>
        <_>
          20 40 6 4 3.</_></rects>
      <tilted>0</tilted></_>
    <_>
      <rects>
        <_>
          20 52 21 3 -1.</_>
        <_>
          27 52 7 3 3.</_></rects>
      <tilted>0</tilted></_>
    <_>
      <rects>
        <_>
          22 39 3 1 -1.</_>
        <_>
          23 39 1 1 3.</_></rects>
      <tilted>0</tilted></_>
    <_>
      <rects>
        <_>
          23 28 20 15 -1.</_>
        <_>
          33 28 10 15 2.</_></rects>
      <tilted>0</tilted></_>
    <_>
      <rects>
        <_>
          23 39 6 4 -1.</_>
        <_>
          25 39 2 4 3.</_></rects>
      <tilted>0</tilted></_>
    <_>
      <rects>
        <_>
          23 41 3 1 -1.</_>
        <_>
          24 41 1 1 3.</_></rects>
      <tilted>0</tilted></_></features></cascade>
</opencv_storage>
