<?xml version="1.0"?>
<opencv_storage>
<cascade>
  <stageType>BOOST</stageType>
  <featureType>HAAR</featureType>
  <height>91</height>
  <width>49</width>
  <stageParams>
    <boostType>GAB</boostType>
    <minHitRate>9.9900001287460327e-01</minHitRate>
    <maxFalseAlarm>5.0000000000000000e-01</maxFalseAlarm>
    <weightTrimRate>9.4999999999999996e-01</weightTrimRate>
    <maxDepth>1</maxDepth>
    <maxWeakCount>100</maxWeakCount></stageParams>
  <featureParams>
    <maxCatCount>0</maxCatCount>
    <featSize>1</featSize>
    <mode>BASIC</mode></featureParams>
  <stageNum>7</stageNum>
  <stages>
    <!-- stage 0 -->
    <_>
      <maxWeakCount>1</maxWeakCount>
      <stageThreshold>9.6078431606292725e-01</stageThreshold>
      <weakClassifiers>
        <_>
          <internalNodes>
            0 -1 5 7.5273553375154734e-04</internalNodes>
          <leafValues>
            -1. 9.6078431606292725e-01</leafValues></_></weakClassifiers></_>
    <!-- stage 1 -->
    <_>
      <maxWeakCount>2</maxWeakCount>
      <stageThreshold>-1.3287596404552460e-01</stageThreshold>
      <weakClassifiers>
        <_>
          <internalNodes>
            0 -1 10 9.2942714691162109e-03</internalNodes>
          <leafValues>
            -9.7044336795806885e-01 1.</leafValues></_>
        <_>
          <internalNodes>
            0 -1 11 3.2101902179419994e-03</internalNodes>
          <leafValues>
            -9.7976726293563843e-01 8.3756738901138306e-01</leafValues></_></weakClassifiers></_>
    <!-- stage 2 -->
    <_>
      <maxWeakCount>2</maxWeakCount>
      <stageThreshold>-2.3603235185146332e-01</stageThreshold>
      <weakClassifiers>
        <_>
          <internalNodes>
            0 -1 4 -1.7733080312609673e-03</internalNodes>
          <leafValues>
            8.7999999523162842e-01 -9.3999999761581421e-01</leafValues></_>
        <_>
          <internalNodes>
            0 -1 7 1.9687657186295837e-05</internalNodes>
          <leafValues>
            -1. 7.0396763086318970e-01</leafValues></_></weakClassifiers></_>
    <!-- stage 3 -->
    <_>
      <maxWeakCount>1</maxWeakCount>
      <stageThreshold>7.3913043737411499e-01</stageThreshold>
      <weakClassifiers>
        <_>
          <internalNodes>
            0 -1 1 -7.1238741278648376e-02</internalNodes>
          <leafValues>
            7.3913043737411499e-01 -1.</leafValues></_></weakClassifiers></_>
    <!-- stage 4 -->
    <_>
      <maxWeakCount>2</maxWeakCount>
      <stageThreshold>-1.7350396513938904e-01</stageThreshold>
      <weakClassifiers>
        <_>
          <internalNodes>
            0 -1 2 -7.5868102721869946e-03</internalNodes>
          <leafValues>
            9.4059407711029053e-01 -9.7989952564239502e-01</leafValues></_>
        <_>
          <internalNodes>
            0 -1 3 -2.4060062132775784e-03</internalNodes>
          <leafValues>
            8.0639553070068359e-01 -9.6030831336975098e-01</leafValues></_></weakClassifiers></_>
    <!-- stage 5 -->
    <_>
      <maxWeakCount>2</maxWeakCount>
      <stageThreshold>-2.1235218644142151e-01</stageThreshold>
      <weakClassifiers>
        <_>
          <internalNodes>
            0 -1 0 -1.4872877858579159e-02</internalNodes>
          <leafValues>
            7.5925928354263306e-01 -9.4791668653488159e-01</leafValues></_>
        <_>
          <internalNodes>
            0 -1 9 -2.0601795986294746e-03</internalNodes>
          <leafValues>
            7.3556447029113770e-01 -9.6984660625457764e-01</leafValues></_></weakClassifiers></_>
    <!-- stage 6 -->
    <_>
      <maxWeakCount>2</maxWeakCount>
      <stageThreshold>-4.1298589110374451e-01</stageThreshold>
      <weakClassifiers>
        <_>
          <internalNodes>
            0 -1 8 1.8372795602772385e-04</internalNodes>
          <leafValues>
            -9.8863637447357178e-01 5.9677422046661377e-01</leafValues></_>
        <_>
          <internalNodes>
            0 -1 6 1.6463488282170147e-04</internalNodes>
          <leafValues>
            -9.8850744962692261e-01 5.7565045356750488e-01</leafValues></_></weakClassifiers></_></stages>
  <features>
    <_>
      <rects>
        <_>
          2 33 36 5 -1.</_>
        <_>
          14 33 12 5 3.</_></rects>
      <tilted>0</tilted></_>
    <_>
      <rects>
        <_>
          2 37 34 28 -1.</_>
        <_>
          2 51 34 14 2.</_></rects>
      <tilted>0</tilted></_>
    <_>
      <rects>
        <_>
          3 47 15 9 -1.</_>
        <_>
          8 47 5 9 3.</_></rects>
      <tilted>0</tilted></_>
    <_>
      <rects>
        <_>
          4 48 12 4 -1.</_>
        <_>
          8 48 4 4 3.</_></rects>
      <tilted>0</tilted></_>
    <_>
      <rects>
        <_>
          17 34 9 4 -1.</_>
        <_>
          20 34 3 4 3.</_></rects>
      <tilted>0</tilted></_>
    <_>
      <rects>
        <_>
          20 45 5 6 -1.</_>
        <_>
          20 47 5 2 3.</_></rects>
      <tilted>0</tilted></_>
    <_>
      <rects>
        <_>
          20 48 3 6 -1.</_>
        <_>
          20 50 3 2 3.</_></rects>
      <tilted>0</tilted></_>
    <_>
      <rects>
        <_>
          24 46 2 1 -1.</_>
        <_>
          25 46 1 1 2.</_></rects>
      <tilted>0</tilted></_>
    <_>
      <rects>
        <_>
          29 47 4 3 -1.</_>
        <_>
          31 47 2 3 2.</_></rects>
      <tilted>0</tilted></_>
    <_>
      <rects>
        <_>
          36 16 3 42 -1.</_>
        <_>
          36 30 3 14 3.</_></rects>
      <tilted>0</tilted></_>
    <_>
      <rects>
        <_>
          37 41 8 17 -1.</_>
        <_>
          41 41 4 17 2.</_></rects>
      <tilted>0</tilted></_>
    <_>
      <rects>
        <_>
          38 43 9 7 -1.</_>
        <_>
          41 43 3 7 3.</_></rects>
      <tilted>0</tilted></_></features></cascade>
</opencv_storage>
