<?xml version="1.0"?>
<opencv_storage>
<cascade>
  <stageType>BOOST</stageType>
  <featureType>HAAR</featureType>
  <height>76</height>
  <width>94</width>
  <stageParams>
    <boostType>GAB</boostType>
    <minHitRate>9.9900001287460327e-01</minHitRate>
    <maxFalseAlarm>5.0000000000000000e-01</maxFalseAlarm>
    <weightTrimRate>9.4999999999999996e-01</weightTrimRate>
    <maxDepth>1</maxDepth>
    <maxWeakCount>100</maxWeakCount></stageParams>
  <featureParams>
    <maxCatCount>0</maxCatCount>
    <featSize>1</featSize>
    <mode>BASIC</mode></featureParams>
  <stageNum>6</stageNum>
  <stages>
    <!-- stage 0 -->
    <_>
      <maxWeakCount>1</maxWeakCount>
      <stageThreshold>1.</stageThreshold>
      <weakClassifiers>
        <_>
          <internalNodes>
            0 -1 6 1.0685990564525127e-03</internalNodes>
          <leafValues>
            -1. 1.</leafValues></_></weakClassifiers></_>
    <!-- stage 1 -->
    <_>
      <maxWeakCount>1</maxWeakCount>
      <stageThreshold>9.0476191043853760e-01</stageThreshold>
      <weakClassifiers>
        <_>
          <internalNodes>
            0 -1 2 -4.7056181356310844e-03</internalNodes>
          <leafValues>
            9.0476191043853760e-01 -1.</leafValues></_></weakClassifiers></_>
    <!-- stage 2 -->
    <_>
      <maxWeakCount>2</maxWeakCount>
      <stageThreshold>-1.5906140208244324e-01</stageThreshold>
      <weakClassifiers>
        <_>
          <internalNodes>
            0 -1 3 -6.1391234397888184e-02</internalNodes>
          <leafValues>
            8.6666667461395264e-01 -9.7948718070983887e-01</leafValues></_>
        <_>
          <internalNodes>
            0 -1 0 3.6281596869230270e-02</internalNodes>
          <leafValues>
            -9.8032522201538086e-01 8.2042580842971802e-01</leafValues></_></weakClassifiers></_>
    <!-- stage 3 -->
    <_>
      <maxWeakCount>2</maxWeakCount>
      <stageThreshold>-6.1753477901220322e-02</stageThreshold>
      <weakClassifiers>
        <_>
          <internalNodes>
            0 -1 4 -1.6008832608349621e-04</internalNodes>
          <leafValues>
            8.3018869161605835e-01 -9.6907216310501099e-01</leafValues></_>
        <_>
          <internalNodes>
            0 -1 1 -7.5870743021368980e-03</internalNodes>
          <leafValues>
            9.3469476699829102e-01 -8.9194214344024658e-01</leafValues></_></weakClassifiers></_>
    <!-- stage 4 -->
    <_>
      <maxWeakCount>2</maxWeakCount>
      <stageThreshold>-2.2721323370933533e-01</stageThreshold>
      <weakClassifiers>
        <_>
          <internalNodes>
            0 -1 9 5.9655890800058842e-03</internalNodes>
          <leafValues>
            -9.3939393758773804e-01 8.4313726425170898e-01</leafValues></_>
        <_>
          <internalNodes>
            0 -1 7 -2.9376900783972815e-05</internalNodes>
          <leafValues>
            7.1218073368072510e-01 -1.</leafValues></_></weakClassifiers></_>
    <!-- stage 5 -->
    <_>
      <maxWeakCount>2</maxWeakCount>
      <stageThreshold>-1.6731877624988556e-01</stageThreshold>
      <weakClassifiers>
        <_>
          <internalNodes>
            0 -1 5 -4.0534310974180698e-03</internalNodes>
          <leafValues>
            7.9629629850387573e-01 -9.6875000000000000e-01</leafValues></_>
        <_>
          <internalNodes>
            0 -1 8 -1.2273327447474003e-03</internalNodes>
          <leafValues>
            8.0143123865127563e-01 -1.</leafValues></_></weakClassifiers></_></stages>
  <features>
    <_>
      <rects>
        <_>
          0 48 72 22 -1.</_>
        <_>
          24 48 24 22 3.</_></rects>
      <tilted>0</tilted></_>
    <_>
      <rects>
        <_>
          1 19 40 8 -1.</_>
        <_>
          1 19 20 4 2.</_>
        <_>
          21 23 20 4 2.</_></rects>
      <tilted>0</tilted></_>
    <_>
      <rects>
        <_>
          26 47 39 2 -1.</_>
        <_>
          39 47 13 2 3.</_></rects>
      <tilted>0</tilted></_>
    <_>
      <rects>
        <_>
          31 9 46 64 -1.</_>
        <_>
          31 9 23 32 2.</_>
        <_>
          54 41 23 32 2.</_></rects>
      <tilted>0</tilted></_>
    <_>
      <rects>
        <_>
          38 32 9 2 -1.</_>
        <_>
          38 33 9 1 2.</_></rects>
      <tilted>0</tilted></_>
    <_>
      <rects>
        <_>
          43 7 10 15 -1.</_>
        <_>
          43 12 10 5 3.</_></rects>
      <tilted>0</tilted></_>
    <_>
      <rects>
        <_>
          44 32 6 4 -1.</_>
        <_>
          44 34 6 2 2.</_></rects>
      <tilted>0</tilted></_>
    <_>
      <rects>
        <_>
          45 34 2 4 -1.</_>
        <_>
          45 34 1 2 2.</_>
        <_>
          46 36 1 2 2.</_></rects>
      <tilted>0</tilted></_>
    <_>
      <rects>
        <_>
          69 28 8 13 -1.</_>
        <_>
          73 28 4 13 2.</_></rects>
      <tilted>0</tilted></_>
    <_>
      <rects>
        <_>
          77 16 12 21 -1.</_>
        <_>
          83 16 6 21 2.</_></rects>
      <tilted>0</tilted></_></features></cascade>
</opencv_storage>
