<?xml version="1.0"?>
<opencv_storage>
<cascade>
  <stageType>BOOST</stageType>
  <featureType>HAAR</featureType>
  <height>12</height>
  <width>12</width>
  <stageParams>
    <boostType>GAB</boostType>
    <minHitRate>9.9900001287460327e-01</minHitRate>
    <maxFalseAlarm>5.0000000000000000e-01</maxFalseAlarm>
    <weightTrimRate>9.4999999999999996e-01</weightTrimRate>
    <maxDepth>1</maxDepth>
    <maxWeakCount>100</maxWeakCount></stageParams>
  <featureParams>
    <maxCatCount>0</maxCatCount>
    <featSize>1</featSize>
    <mode>BASIC</mode></featureParams>
  <stageNum>20</stageNum>
  <stages>
    <!-- stage 0 -->
    <_>
      <maxWeakCount>15</maxWeakCount>
      <stageThreshold>-9.4639176130294800e-01</stageThreshold>
      <weakClassifiers>
        <_>
          <internalNodes>
            0 -1 6 3.7825316190719604e-02</internalNodes>
          <leafValues>
            -1.2413793057203293e-01 7.7910447120666504e-01</leafValues></_>
        <_>
          <internalNodes>
            0 -1 24 -3.4333965182304382e-01</internalNodes>
          <leafValues>
            -6.4589858055114746e-01 2.6639419794082642e-01</leafValues></_>
        <_>
          <internalNodes>
            0 -1 41 1.8154154717922211e-01</internalNodes>
          <leafValues>
            1.6223390400409698e-01 -7.5021040439605713e-01</leafValues></_>
        <_>
          <internalNodes>
            0 -1 67 -4.5111489295959473e-01</internalNodes>
          <leafValues>
            -4.8520952463150024e-01 2.2256523370742798e-01</leafValues></_>
        <_>
          <internalNodes>
            0 -1 269 1.3253352604806423e-02</internalNodes>
          <leafValues>
            -3.0888879299163818e-01 3.6082884669303894e-01</leafValues></_>
        <_>
          <internalNodes>
            0 -1 276 1.0428093373775482e-02</internalNodes>
          <leafValues>
            -3.4761109948158264e-01 3.8966506719589233e-01</leafValues></_>
        <_>
          <internalNodes>
            0 -1 20 1.3835588097572327e-01</internalNodes>
          <leafValues>
            -1.0799631476402283e-01 7.9847097396850586e-01</leafValues></_>
        <_>
          <internalNodes>
            0 -1 238 -9.7823608666658401e-03</internalNodes>
          <leafValues>
            4.0155869722366333e-01 -2.4971759319305420e-01</leafValues></_>
        <_>
          <internalNodes>
            0 -1 68 -4.3436400592327118e-03</internalNodes>
          <leafValues>
            -4.3498083949089050e-01 2.1241012215614319e-01</leafValues></_>
        <_>
          <internalNodes>
            0 -1 37 -2.1716822683811188e-01</internalNodes>
          <leafValues>
            -7.0917898416519165e-01 1.3315851986408234e-01</leafValues></_>
        <_>
          <internalNodes>
            0 -1 48 -1.3313972949981689e-01</internalNodes>
          <leafValues>
            -5.9921598434448242e-01 1.6048137843608856e-01</leafValues></_>
        <_>
          <internalNodes>
            0 -1 300 1.5922086313366890e-02</internalNodes>
          <leafValues>
            -1.8985842168331146e-01 6.2485617399215698e-01</leafValues></_>
        <_>
          <internalNodes>
            0 -1 244 6.1761029064655304e-02</internalNodes>
          <leafValues>
            1.3800354301929474e-01 -8.0724781751632690e-01</leafValues></_>
        <_>
          <internalNodes>
            0 -1 215 -1.5816669911146164e-02</internalNodes>
          <leafValues>
            7.5918674468994141e-01 -1.6305460035800934e-01</leafValues></_>
        <_>
          <internalNodes>
            0 -1 328 1.1480340361595154e-01</internalNodes>
          <leafValues>
            1.3974371552467346e-01 -8.7833720445632935e-01</leafValues></_></weakClassifiers></_>
    <!-- stage 1 -->
    <_>
      <maxWeakCount>15</maxWeakCount>
      <stageThreshold>-7.7448141574859619e-01</stageThreshold>
      <weakClassifiers>
        <_>
          <internalNodes>
            0 -1 201 1.0788659006357193e-01</internalNodes>
          <leafValues>
            4.8201438784599304e-01 -6.2318837642669678e-01</leafValues></_>
        <_>
          <internalNodes>
            0 -1 86 1.5500796958804131e-02</internalNodes>
          <leafValues>
            -1.4436358213424683e-01 8.5097056627273560e-01</leafValues></_>
        <_>
          <internalNodes>
            0 -1 134 1.5245483256876469e-02</internalNodes>
          <leafValues>
            -1.2036181241273880e-01 8.9376181364059448e-01</leafValues></_>
        <_>
          <internalNodes>
            0 -1 105 2.5411229580640793e-02</internalNodes>
          <leafValues>
            -1.1967308819293976e-01 8.1987214088439941e-01</leafValues></_>
        <_>
          <internalNodes>
            0 -1 333 9.1187134385108948e-03</internalNodes>
          <leafValues>
            -1.8084906041622162e-01 6.1526352167129517e-01</leafValues></_>
        <_>
          <internalNodes>
            0 -1 299 1.1521799489855766e-02</internalNodes>
          <leafValues>
            -2.3991504311561584e-01 5.5253022909164429e-01</leafValues></_>
        <_>
          <internalNodes>
            0 -1 312 -2.1658634766936302e-02</internalNodes>
          <leafValues>
            5.8352571725845337e-01 -2.1304553747177124e-01</leafValues></_>
        <_>
          <internalNodes>
            0 -1 358 1.4461908489465714e-02</internalNodes>
          <leafValues>
            -2.2420446574687958e-01 5.5887120962142944e-01</leafValues></_>
        <_>
          <internalNodes>
            0 -1 110 -2.0847052335739136e-02</internalNodes>
          <leafValues>
            8.9896476268768311e-01 -9.7508661448955536e-02</leafValues></_>
        <_>
          <internalNodes>
            0 -1 73 6.8257613747846335e-05</internalNodes>
          <leafValues>
            -2.9809609055519104e-01 3.7249580025672913e-01</leafValues></_>
        <_>
          <internalNodes>
            0 -1 318 2.3391250520944595e-02</internalNodes>
          <leafValues>
            -2.2586016356945038e-01 4.9612519145011902e-01</leafValues></_>
        <_>
          <internalNodes>
            0 -1 222 1.6167316585779190e-02</internalNodes>
          <leafValues>
            -1.4845618605613708e-01 7.6085799932479858e-01</leafValues></_>
        <_>
          <internalNodes>
            0 -1 147 7.3731648735702038e-03</internalNodes>
          <leafValues>
            -1.4639998972415924e-01 6.6228383779525757e-01</leafValues></_>
        <_>
          <internalNodes>
            0 -1 55 5.2870473155053332e-05</internalNodes>
          <leafValues>
            -2.6141318678855896e-01 4.0223270654678345e-01</leafValues></_>
        <_>
          <internalNodes>
            0 -1 310 -9.6392622217535973e-03</internalNodes>
          <leafValues>
            7.8933668136596680e-01 -1.3090841472148895e-01</leafValues></_></weakClassifiers></_>
    <!-- stage 2 -->
    <_>
      <maxWeakCount>16</maxWeakCount>
      <stageThreshold>-1.0457279682159424e+00</stageThreshold>
      <weakClassifiers>
        <_>
          <internalNodes>
            0 -1 137 1.8387806415557861e-01</internalNodes>
          <leafValues>
            4.6902653574943542e-01 -6.6666668653488159e-01</leafValues></_>
        <_>
          <internalNodes>
            0 -1 43 -3.6350184679031372e-01</internalNodes>
          <leafValues>
            -8.3134829998016357e-01 2.6370796561241150e-01</leafValues></_>
        <_>
          <internalNodes>
            0 -1 231 1.3382757082581520e-02</internalNodes>
          <leafValues>
            -2.4527427554130554e-01 9.7694528102874756e-01</leafValues></_>
        <_>
          <internalNodes>
            0 -1 237 -6.8092225119471550e-03</internalNodes>
          <leafValues>
            8.7796062231063843e-01 -1.7706815898418427e-01</leafValues></_>
        <_>
          <internalNodes>
            0 -1 274 1.4116726815700531e-02</internalNodes>
          <leafValues>
            -1.3551066815853119e-01 6.9807732105255127e-01</leafValues></_>
        <_>
          <internalNodes>
            0 -1 94 2.5112651288509369e-02</internalNodes>
          <leafValues>
            -2.1110361814498901e-01 6.3334608078002930e-01</leafValues></_>
        <_>
          <internalNodes>
            0 -1 297 2.7475759387016296e-02</internalNodes>
          <leafValues>
            -2.5231122970581055e-01 5.8724135160446167e-01</leafValues></_>
        <_>
          <internalNodes>
            0 -1 301 7.2447033599019051e-03</internalNodes>
          <leafValues>
            -1.2040582299232483e-01 9.2369592189788818e-01</leafValues></_>
        <_>
          <internalNodes>
            0 -1 324 7.7116396278142929e-03</internalNodes>
          <leafValues>
            -1.4955161511898041e-01 8.6904191970825195e-01</leafValues></_>
        <_>
          <internalNodes>
            0 -1 128 -7.8799240291118622e-03</internalNodes>
          <leafValues>
            8.9223569631576538e-01 -9.7897902131080627e-02</leafValues></_>
        <_>
          <internalNodes>
            0 -1 357 8.2542710006237030e-03</internalNodes>
          <leafValues>
            -1.3771137595176697e-01 8.7857270240783691e-01</leafValues></_>
        <_>
          <internalNodes>
            0 -1 210 -8.3870161324739456e-03</internalNodes>
          <leafValues>
            9.2468911409378052e-01 -9.3790270388126373e-02</leafValues></_>
        <_>
          <internalNodes>
            0 -1 256 -1.8566492944955826e-02</internalNodes>
          <leafValues>
            7.9500746726989746e-01 -1.2561540305614471e-01</leafValues></_>
        <_>
          <internalNodes>
            0 -1 22 1.6495708376169205e-02</internalNodes>
          <leafValues>
            -3.6347538232803345e-01 3.6198225617408752e-01</leafValues></_>
        <_>
          <internalNodes>
            0 -1 247 8.4483800455927849e-03</internalNodes>
          <leafValues>
            -1.4531865715980530e-01 8.7038862705230713e-01</leafValues></_>
        <_>
          <internalNodes>
            0 -1 365 7.0677660405635834e-03</internalNodes>
          <leafValues>
            -1.4396306872367859e-01 7.9159557819366455e-01</leafValues></_></weakClassifiers></_>
    <!-- stage 3 -->
    <_>
      <maxWeakCount>14</maxWeakCount>
      <stageThreshold>-8.1326460838317871e-01</stageThreshold>
      <weakClassifiers>
        <_>
          <internalNodes>
            0 -1 23 5.3223192691802979e-01</internalNodes>
          <leafValues>
            4.4709897041320801e-01 -9.4871795177459717e-01</leafValues></_>
        <_>
          <internalNodes>
            0 -1 181 1.8413778394460678e-02</internalNodes>
          <leafValues>
            -2.1936683356761932e-01 6.5729838609695435e-01</leafValues></_>
        <_>
          <internalNodes>
            0 -1 90 1.1274505406618118e-02</internalNodes>
          <leafValues>
            -1.9349935650825500e-01 6.8538075685501099e-01</leafValues></_>
        <_>
          <internalNodes>
            0 -1 135 2.0152976736426353e-02</internalNodes>
          <leafValues>
            -1.9046051800251007e-01 8.2105278968811035e-01</leafValues></_>
        <_>
          <internalNodes>
            0 -1 196 -7.6276455074548721e-03</internalNodes>
          <leafValues>
            1. -1.2017431110143661e-01</leafValues></_>
        <_>
          <internalNodes>
            0 -1 350 -1.0984857566654682e-02</internalNodes>
          <leafValues>
            8.1804269552230835e-01 -1.1404334753751755e-01</leafValues></_>
        <_>
          <internalNodes>
            0 -1 239 1.3463661074638367e-02</internalNodes>
          <leafValues>
            -2.5349995493888855e-01 4.8509564995765686e-01</leafValues></_>
        <_>
          <internalNodes>
            0 -1 38 4.3316133320331573e-02</internalNodes>
          <leafValues>
            -1.7405712604522705e-01 7.2766482830047607e-01</leafValues></_>
        <_>
          <internalNodes>
            0 -1 107 7.2891535237431526e-03</internalNodes>
          <leafValues>
            -2.5752472877502441e-01 4.8855522274971008e-01</leafValues></_>
        <_>
          <internalNodes>
            0 -1 129 1.5886705368757248e-02</internalNodes>
          <leafValues>
            -1.4716786146163940e-01 7.5202095508575439e-01</leafValues></_>
        <_>
          <internalNodes>
            0 -1 122 1.7534935474395752e-01</internalNodes>
          <leafValues>
            2.0533566176891327e-01 -5.8890682458877563e-01</leafValues></_>
        <_>
          <internalNodes>
            0 -1 176 -1.0172367095947266e-02</internalNodes>
          <leafValues>
            7.5998014211654663e-01 -1.7022700607776642e-01</leafValues></_>
        <_>
          <internalNodes>
            0 -1 292 -1.4414910227060318e-02</internalNodes>
          <leafValues>
            8.8386160135269165e-01 -1.0381677001714706e-01</leafValues></_>
        <_>
          <internalNodes>
            0 -1 158 -1.6959603875875473e-02</internalNodes>
          <leafValues>
            5.2630108594894409e-01 -1.8553902208805084e-01</leafValues></_></weakClassifiers></_>
    <!-- stage 4 -->
    <_>
      <maxWeakCount>17</maxWeakCount>
      <stageThreshold>-6.7524987459182739e-01</stageThreshold>
      <weakClassifiers>
        <_>
          <internalNodes>
            0 -1 119 1.6632774472236633e-01</internalNodes>
          <leafValues>
            4.5263159275054932e-01 -6.0000002384185791e-01</leafValues></_>
        <_>
          <internalNodes>
            0 -1 240 1.3318970799446106e-02</internalNodes>
          <leafValues>
            -6.6359788179397583e-02 8.4344679117202759e-01</leafValues></_>
        <_>
          <internalNodes>
            0 -1 324 1.2234397232532501e-02</internalNodes>
          <leafValues>
            -1.3351783156394958e-01 8.1789755821228027e-01</leafValues></_>
        <_>
          <internalNodes>
            0 -1 302 2.0056108012795448e-02</internalNodes>
          <leafValues>
            -2.0729869604110718e-01 6.2370961904525757e-01</leafValues></_>
        <_>
          <internalNodes>
            0 -1 202 9.2371650040149689e-02</internalNodes>
          <leafValues>
            2.3176300525665283e-01 -6.3777405023574829e-01</leafValues></_>
        <_>
          <internalNodes>
            0 -1 254 1.2115577235817909e-02</internalNodes>
          <leafValues>
            -1.7258313298225403e-01 7.5556308031082153e-01</leafValues></_>
        <_>
          <internalNodes>
            0 -1 93 2.3100093007087708e-02</internalNodes>
          <leafValues>
            -1.7301438748836517e-01 5.3849583864212036e-01</leafValues></_>
        <_>
          <internalNodes>
            0 -1 109 2.4135988205671310e-02</internalNodes>
          <leafValues>
            -1.8297125399112701e-01 5.5533850193023682e-01</leafValues></_>
        <_>
          <internalNodes>
            0 -1 272 -7.9450504854321480e-03</internalNodes>
          <leafValues>
            8.3275777101516724e-01 -1.1489839106798172e-01</leafValues></_>
        <_>
          <internalNodes>
            0 -1 317 1.6742728650569916e-02</internalNodes>
          <leafValues>
            -2.3689262568950653e-01 4.2167875170707703e-01</leafValues></_>
        <_>
          <internalNodes>
            0 -1 229 -8.4179854020476341e-03</internalNodes>
          <leafValues>
            4.7728118300437927e-01 -1.8868871033191681e-01</leafValues></_>
        <_>
          <internalNodes>
            0 -1 81 1.1079206317663193e-01</internalNodes>
          <leafValues>
            1.9644355773925781e-01 -5.5866974592208862e-01</leafValues></_>
        <_>
          <internalNodes>
            0 -1 242 1.9831582903862000e-02</internalNodes>
          <leafValues>
            -2.3730376362800598e-01 4.1825413703918457e-01</leafValues></_>
        <_>
          <internalNodes>
            0 -1 14 -4.8611354827880859e-01</internalNodes>
          <leafValues>
            -8.9534538984298706e-01 1.2507335841655731e-01</leafValues></_>
        <_>
          <internalNodes>
            0 -1 309 1.3890433125197887e-02</internalNodes>
          <leafValues>
            -1.5902908146381378e-01 7.2384214401245117e-01</leafValues></_>
        <_>
          <internalNodes>
            0 -1 178 -1.3059145770967007e-02</internalNodes>
          <leafValues>
            3.8910493254661560e-01 -2.1210272610187531e-01</leafValues></_>
        <_>
          <internalNodes>
            0 -1 185 1.8719401210546494e-02</internalNodes>
          <leafValues>
            -1.3124357163906097e-01 5.8467829227447510e-01</leafValues></_></weakClassifiers></_>
    <!-- stage 5 -->
    <_>
      <maxWeakCount>21</maxWeakCount>
      <stageThreshold>-9.7355282306671143e-01</stageThreshold>
      <weakClassifiers>
        <_>
          <internalNodes>
            0 -1 253 2.4181026965379715e-03</internalNodes>
          <leafValues>
            1.4285714924335480e-01 6.9230771064758301e-01</leafValues></_>
        <_>
          <internalNodes>
            0 -1 175 8.9898966252803802e-03</internalNodes>
          <leafValues>
            -1.0654167085886002e-01 8.3417302370071411e-01</leafValues></_>
        <_>
          <internalNodes>
            0 -1 203 1.2366544455289841e-02</internalNodes>
          <leafValues>
            -9.6496671438217163e-02 9.0429085493087769e-01</leafValues></_>
        <_>
          <internalNodes>
            0 -1 19 5.7577122002840042e-02</internalNodes>
          <leafValues>
            -2.4746705591678619e-01 4.0038266777992249e-01</leafValues></_>
        <_>
          <internalNodes>
            0 -1 168 -1.3854866847395897e-02</internalNodes>
          <leafValues>
            9.3776893615722656e-01 -9.7729921340942383e-02</leafValues></_>
        <_>
          <internalNodes>
            0 -1 237 -8.8888686150312424e-03</internalNodes>
          <leafValues>
            7.9701232910156250e-01 -8.9889653027057648e-02</leafValues></_>
        <_>
          <internalNodes>
            0 -1 331 7.1413386613130569e-03</internalNodes>
          <leafValues>
            -1.2891831994056702e-01 6.5067195892333984e-01</leafValues></_>
        <_>
          <internalNodes>
            0 -1 202 7.5334310531616211e-03</internalNodes>
          <leafValues>
            2.1837922930717468e-01 -4.4137284159660339e-01</leafValues></_>
        <_>
          <internalNodes>
            0 -1 356 1.3900648802518845e-02</internalNodes>
          <leafValues>
            -1.1981084197759628e-01 7.7207994461059570e-01</leafValues></_>
        <_>
          <internalNodes>
            0 -1 292 1.3060552068054676e-02</internalNodes>
          <leafValues>
            -1.1110660433769226e-01 6.7609792947769165e-01</leafValues></_>
        <_>
          <internalNodes>
            0 -1 207 -1.3018599711358547e-02</internalNodes>
          <leafValues>
            5.2179843187332153e-01 -1.3589751720428467e-01</leafValues></_>
        <_>
          <internalNodes>
            0 -1 191 1.6093254089355469e-02</internalNodes>
          <leafValues>
            -1.0539605468511581e-01 7.1128100156784058e-01</leafValues></_>
        <_>
          <internalNodes>
            0 -1 49 -9.5557458698749542e-03</internalNodes>
          <leafValues>
            5.8834505081176758e-01 -1.0857964307069778e-01</leafValues></_>
        <_>
          <internalNodes>
            0 -1 357 9.8704453557729721e-03</internalNodes>
          <leafValues>
            -1.1470968276262283e-01 6.4891135692596436e-01</leafValues></_>
        <_>
          <internalNodes>
            0 -1 211 -6.1981882026884705e-05</internalNodes>
          <leafValues>
            3.8635411858558655e-01 -2.3096182942390442e-01</leafValues></_>
        <_>
          <internalNodes>
            0 -1 306 2.0943932235240936e-02</internalNodes>
          <leafValues>
            -1.0878424346446991e-01 7.1583211421966553e-01</leafValues></_>
        <_>
          <internalNodes>
            0 -1 351 -1.3285255059599876e-02</internalNodes>
          <leafValues>
            7.0996564626693726e-01 -1.0661976039409637e-01</leafValues></_>
        <_>
          <internalNodes>
            0 -1 223 -6.4292877912521362e-02</internalNodes>
          <leafValues>
            -8.9957123994827271e-01 1.2411377578973770e-01</leafValues></_>
        <_>
          <internalNodes>
            0 -1 177 -1.1942256242036819e-02</internalNodes>
          <leafValues>
            8.6651426553726196e-01 -1.3879320025444031e-01</leafValues></_>
        <_>
          <internalNodes>
            0 -1 336 -1.0267351754009724e-03</internalNodes>
          <leafValues>
            3.3270272612571716e-01 -2.3921637237071991e-01</leafValues></_>
        <_>
          <internalNodes>
            0 -1 227 -1.0710189118981361e-02</internalNodes>
          <leafValues>
            4.0535041689872742e-01 -2.4465535581111908e-01</leafValues></_></weakClassifiers></_>
    <!-- stage 6 -->
    <_>
      <maxWeakCount>18</maxWeakCount>
      <stageThreshold>-4.9354466795921326e-01</stageThreshold>
      <weakClassifiers>
        <_>
          <internalNodes>
            0 -1 206 -8.6585238575935364e-02</internalNodes>
          <leafValues>
            -2.4271844327449799e-01 4.7892719507217407e-01</leafValues></_>
        <_>
          <internalNodes>
            0 -1 232 1.6165133565664291e-02</internalNodes>
          <leafValues>
            -1.2989550828933716e-01 6.8669068813323975e-01</leafValues></_>
        <_>
          <internalNodes>
            0 -1 263 1.6861600801348686e-02</internalNodes>
          <leafValues>
            -1.2787000834941864e-01 7.6306539773941040e-01</leafValues></_>
        <_>
          <internalNodes>
            0 -1 323 1.3198515400290489e-02</internalNodes>
          <leafValues>
            -1.1643804609775543e-01 7.4504232406616211e-01</leafValues></_>
        <_>
          <internalNodes>
            0 -1 139 1.3103040866553783e-02</internalNodes>
          <leafValues>
            -1.1178685724735260e-01 9.1195464134216309e-01</leafValues></_>
        <_>
          <internalNodes>
            0 -1 323 -1.9270956516265869e-02</internalNodes>
          <leafValues>
            8.1465309858322144e-01 -1.1057020723819733e-01</leafValues></_>
        <_>
          <internalNodes>
            0 -1 17 -1.1418171972036362e-01</internalNodes>
          <leafValues>
            -7.5661998987197876e-01 1.4776617288589478e-01</leafValues></_>
        <_>
          <internalNodes>
            0 -1 90 -1.9263207912445068e-02</internalNodes>
          <leafValues>
            8.4739691019058228e-01 -1.3049840927124023e-01</leafValues></_>
        <_>
          <internalNodes>
            0 -1 97 2.2037830203771591e-02</internalNodes>
          <leafValues>
            -7.6373204588890076e-02 7.3079067468643188e-01</leafValues></_>
        <_>
          <internalNodes>
            0 -1 360 -6.7783743143081665e-03</internalNodes>
          <leafValues>
            5.6132024526596069e-01 -1.4324051141738892e-01</leafValues></_>
        <_>
          <internalNodes>
            0 -1 205 -1.1419176124036312e-02</internalNodes>
          <leafValues>
            4.8166015744209290e-01 -1.5181924402713776e-01</leafValues></_>
        <_>
          <internalNodes>
            0 -1 149 6.4504727721214294e-02</internalNodes>
          <leafValues>
            1.8642842769622803e-01 -4.5450529456138611e-01</leafValues></_>
        <_>
          <internalNodes>
            0 -1 366 -1.3403099030256271e-02</internalNodes>
          <leafValues>
            6.2477421760559082e-01 -1.3764335215091705e-01</leafValues></_>
        <_>
          <internalNodes>
            0 -1 305 -1.4663407579064369e-02</internalNodes>
          <leafValues>
            5.8546262979507446e-01 -1.2531203031539917e-01</leafValues></_>
        <_>
          <internalNodes>
            0 -1 306 -9.9773686379194260e-03</internalNodes>
          <leafValues>
            4.7119733691215515e-01 -1.5962171554565430e-01</leafValues></_>
        <_>
          <internalNodes>
            0 -1 260 -1.2222371995449066e-02</internalNodes>
          <leafValues>
            8.5779523849487305e-01 -7.9499430954456329e-02</leafValues></_>
        <_>
          <internalNodes>
            0 -1 198 1.2459809891879559e-02</internalNodes>
          <leafValues>
            -1.8879999220371246e-01 4.0681234002113342e-01</leafValues></_>
        <_>
          <internalNodes>
            0 -1 265 1.3473477214574814e-02</internalNodes>
          <leafValues>
            -1.0545598715543747e-01 7.8192275762557983e-01</leafValues></_></weakClassifiers></_>
    <!-- stage 7 -->
    <_>
      <maxWeakCount>19</maxWeakCount>
      <stageThreshold>-7.7880132198333740e-01</stageThreshold>
      <weakClassifiers>
        <_>
          <internalNodes>
            0 -1 8 9.2602163553237915e-02</internalNodes>
          <leafValues>
            4.2622949928045273e-02 6.6250002384185791e-01</leafValues></_>
        <_>
          <internalNodes>
            0 -1 217 -3.7804342806339264e-02</internalNodes>
          <leafValues>
            -6.3504678010940552e-01 1.8748278915882111e-01</leafValues></_>
        <_>
          <internalNodes>
            0 -1 213 -8.1589251756668091e-02</internalNodes>
          <leafValues>
            -8.2957077026367188e-01 9.2505373060703278e-02</leafValues></_>
        <_>
          <internalNodes>
            0 -1 160 -1.4997297525405884e-01</internalNodes>
          <leafValues>
            -7.2264933586120605e-01 1.0729856789112091e-01</leafValues></_>
        <_>
          <internalNodes>
            0 -1 253 1.8335033208131790e-02</internalNodes>
          <leafValues>
            -9.8408266901969910e-02 9.6634858846664429e-01</leafValues></_>
        <_>
          <internalNodes>
            0 -1 330 1.1733450926840305e-02</internalNodes>
          <leafValues>
            -1.4843691885471344e-01 5.0174945592880249e-01</leafValues></_>
        <_>
          <internalNodes>
            0 -1 146 -9.3891158699989319e-02</internalNodes>
          <leafValues>
            -8.0713278055191040e-01 1.1660122126340866e-01</leafValues></_>
        <_>
          <internalNodes>
            0 -1 249 -6.0018948715878651e-05</internalNodes>
          <leafValues>
            2.0855607092380524e-01 -3.9665171504020691e-01</leafValues></_>
        <_>
          <internalNodes>
            0 -1 193 -9.3068778514862061e-02</internalNodes>
          <leafValues>
            -1. 1.0069460421800613e-01</leafValues></_>
        <_>
          <internalNodes>
            0 -1 236 1.5293573960661888e-02</internalNodes>
          <leafValues>
            -1.2362881004810333e-01 7.4912297725677490e-01</leafValues></_>
        <_>
          <internalNodes>
            0 -1 11 -3.1291541457176208e-01</internalNodes>
          <leafValues>
            6.2383997440338135e-01 -1.0519497096538544e-01</leafValues></_>
        <_>
          <internalNodes>
            0 -1 228 8.4093753248453140e-03</internalNodes>
          <leafValues>
            -2.9921013116836548e-01 3.4418341517448425e-01</leafValues></_>
        <_>
          <internalNodes>
            0 -1 112 6.8702465796377510e-05</internalNodes>
          <leafValues>
            -2.6075792312622070e-01 2.7695018053054810e-01</leafValues></_>
        <_>
          <internalNodes>
            0 -1 316 -1.5606923028826714e-02</internalNodes>
          <leafValues>
            7.9710471630096436e-01 -8.0690041184425354e-02</leafValues></_>
        <_>
          <internalNodes>
            0 -1 106 8.5228518582880497e-04</internalNodes>
          <leafValues>
            -2.0344926416873932e-01 3.1480956077575684e-01</leafValues></_>
        <_>
          <internalNodes>
            0 -1 143 1.8075574189424515e-02</internalNodes>
          <leafValues>
            -9.6556417644023895e-02 6.5879756212234497e-01</leafValues></_>
        <_>
          <internalNodes>
            0 -1 184 -1.2567365542054176e-02</internalNodes>
          <leafValues>
            8.2845938205718994e-01 -6.0589052736759186e-02</leafValues></_>
        <_>
          <internalNodes>
            0 -1 114 5.5468946811743081e-05</internalNodes>
          <leafValues>
            -2.3606747388839722e-01 2.7857738733291626e-01</leafValues></_>
        <_>
          <internalNodes>
            0 -1 294 1.8167324014939368e-04</internalNodes>
          <leafValues>
            -2.3356598615646362e-01 3.0114197731018066e-01</leafValues></_></weakClassifiers></_>
    <!-- stage 8 -->
    <_>
      <maxWeakCount>26</maxWeakCount>
      <stageThreshold>-8.7998187541961670e-01</stageThreshold>
      <weakClassifiers>
        <_>
          <internalNodes>
            0 -1 32 5.2091747522354126e-02</internalNodes>
          <leafValues>
            1.3186813890933990e-01 6.7816090583801270e-01</leafValues></_>
        <_>
          <internalNodes>
            0 -1 91 -1.1557753197848797e-02</internalNodes>
          <leafValues>
            7.8204822540283203e-01 -4.9595106393098831e-02</leafValues></_>
        <_>
          <internalNodes>
            0 -1 211 1.0305166244506836e-02</internalNodes>
          <leafValues>
            -1.0587963461875916e-01 7.5205969810485840e-01</leafValues></_>
        <_>
          <internalNodes>
            0 -1 253 1.0892969556152821e-02</internalNodes>
          <leafValues>
            -1.1745055764913559e-01 6.6229367256164551e-01</leafValues></_>
        <_>
          <internalNodes>
            0 -1 171 -1.7797806859016418e-01</internalNodes>
          <leafValues>
            -9.8113441467285156e-01 8.3195000886917114e-02</leafValues></_>
        <_>
          <internalNodes>
            0 -1 243 -6.3187941908836365e-02</internalNodes>
          <leafValues>
            -6.1557167768478394e-01 1.0796406120061874e-01</leafValues></_>
        <_>
          <internalNodes>
            0 -1 46 1.9965291023254395e-01</internalNodes>
          <leafValues>
            -1.9773142039775848e-01 3.9570921659469604e-01</leafValues></_>
        <_>
          <internalNodes>
            0 -1 174 -7.5598080002237111e-05</internalNodes>
          <leafValues>
            2.8151071071624756e-01 -3.2016649842262268e-01</leafValues></_>
        <_>
          <internalNodes>
            0 -1 275 -9.1122472658753395e-03</internalNodes>
          <leafValues>
            7.2802078723907471e-01 -1.0443069040775299e-01</leafValues></_>
        <_>
          <internalNodes>
            0 -1 163 -9.2668101191520691e-02</internalNodes>
          <leafValues>
            -6.2493109703063965e-01 1.3557496666908264e-01</leafValues></_>
        <_>
          <internalNodes>
            0 -1 273 1.9804306328296661e-02</internalNodes>
          <leafValues>
            -1.2037988752126694e-01 7.6195216178894043e-01</leafValues></_>
        <_>
          <internalNodes>
            0 -1 36 5.1871314644813538e-02</internalNodes>
          <leafValues>
            1.3969780504703522e-01 -5.5198514461517334e-01</leafValues></_>
        <_>
          <internalNodes>
            0 -1 164 1.5367468819022179e-02</internalNodes>
          <leafValues>
            -9.4848722219467163e-02 8.6214154958724976e-01</leafValues></_>
        <_>
          <internalNodes>
            0 -1 57 3.7135988473892212e-02</internalNodes>
          <leafValues>
            9.1834977269172668e-02 -9.5190894603729248e-01</leafValues></_>
        <_>
          <internalNodes>
            0 -1 134 1.1023458093404770e-02</internalNodes>
          <leafValues>
            -1.5899376571178436e-01 4.8266446590423584e-01</leafValues></_>
        <_>
          <internalNodes>
            0 -1 295 -1.1839665472507477e-02</internalNodes>
          <leafValues>
            7.2058957815170288e-01 -8.7563112378120422e-02</leafValues></_>
        <_>
          <internalNodes>
            0 -1 136 -9.0222172439098358e-03</internalNodes>
          <leafValues>
            4.0312719345092773e-01 -1.6346412897109985e-01</leafValues></_>
        <_>
          <internalNodes>
            0 -1 287 5.0648027099668980e-03</internalNodes>
          <leafValues>
            1.7342501878738403e-01 -4.2799156904220581e-01</leafValues></_>
        <_>
          <internalNodes>
            0 -1 100 -6.1481306329369545e-03</internalNodes>
          <leafValues>
            4.1672119498252869e-01 -1.9561550021171570e-01</leafValues></_>
        <_>
          <internalNodes>
            0 -1 25 5.3240945562720299e-03</internalNodes>
          <leafValues>
            1.7491082847118378e-01 -4.6551012992858887e-01</leafValues></_>
        <_>
          <internalNodes>
            0 -1 116 -1.3337003067135811e-02</internalNodes>
          <leafValues>
            -6.8700450658798218e-01 1.0142461955547333e-01</leafValues></_>
        <_>
          <internalNodes>
            0 -1 95 -1.8655411899089813e-02</internalNodes>
          <leafValues>
            4.2460504174232483e-01 -2.1707634627819061e-01</leafValues></_>
        <_>
          <internalNodes>
            0 -1 301 1.2797446921467781e-02</internalNodes>
          <leafValues>
            -7.9203955829143524e-02 8.6478936672210693e-01</leafValues></_>
        <_>
          <internalNodes>
            0 -1 266 1.7474517226219177e-02</internalNodes>
          <leafValues>
            -4.1941218078136444e-02 1.</leafValues></_>
        <_>
          <internalNodes>
            0 -1 291 -8.1584770232439041e-03</internalNodes>
          <leafValues>
            -3.5469537973403931e-01 2.1143569052219391e-01</leafValues></_>
        <_>
          <internalNodes>
            0 -1 77 1.4895152300596237e-02</internalNodes>
          <leafValues>
            -1.5217424929141998e-01 5.5299401283264160e-01</leafValues></_></weakClassifiers></_>
    <!-- stage 9 -->
    <_>
      <maxWeakCount>18</maxWeakCount>
      <stageThreshold>-6.8214845657348633e-01</stageThreshold>
      <weakClassifiers>
        <_>
          <internalNodes>
            0 -1 279 2.4800378829240799e-02</internalNodes>
          <leafValues>
            5.2016127109527588e-01 -2.5581395626068115e-01</leafValues></_>
        <_>
          <internalNodes>
            0 -1 289 -8.4638446569442749e-02</internalNodes>
          <leafValues>
            4.4719669222831726e-01 -1.4719672501087189e-01</leafValues></_>
        <_>
          <internalNodes>
            0 -1 172 6.6806763410568237e-02</internalNodes>
          <leafValues>
            1.5524823963642120e-01 -5.8044356107711792e-01</leafValues></_>
        <_>
          <internalNodes>
            0 -1 116 -5.5424254387617111e-03</internalNodes>
          <leafValues>
            -4.2267888784408569e-01 1.6537384688854218e-01</leafValues></_>
        <_>
          <internalNodes>
            0 -1 169 -1.5886455774307251e-02</internalNodes>
          <leafValues>
            3.8827434182167053e-01 -1.7983002960681915e-01</leafValues></_>
        <_>
          <internalNodes>
            0 -1 364 5.6228293105959892e-03</internalNodes>
          <leafValues>
            1.7559258639812469e-01 -3.7702760100364685e-01</leafValues></_>
        <_>
          <internalNodes>
            0 -1 214 6.6682026954367757e-04</internalNodes>
          <leafValues>
            2.0864890515804291e-01 -3.5191753506660461e-01</leafValues></_>
        <_>
          <internalNodes>
            0 -1 0 9.3955043703317642e-03</internalNodes>
          <leafValues>
            8.5501991212368011e-02 -6.5791207551956177e-01</leafValues></_>
        <_>
          <internalNodes>
            0 -1 203 1.3699470087885857e-02</internalNodes>
          <leafValues>
            -1.2180328369140625e-01 6.2300449609756470e-01</leafValues></_>
        <_>
          <internalNodes>
            0 -1 30 -7.2410494089126587e-02</internalNodes>
          <leafValues>
            3.3417898416519165e-01 -2.5627940893173218e-01</leafValues></_>
        <_>
          <internalNodes>
            0 -1 349 -5.4827127605676651e-03</internalNodes>
          <leafValues>
            -5.0041407346725464e-01 1.5143555402755737e-01</leafValues></_>
        <_>
          <internalNodes>
            0 -1 18 3.3966705203056335e-02</internalNodes>
          <leafValues>
            -2.1000470221042633e-01 3.7722846865653992e-01</leafValues></_>
        <_>
          <internalNodes>
            0 -1 190 2.3341686464846134e-03</internalNodes>
          <leafValues>
            2.0368842780590057e-01 -3.3640319108963013e-01</leafValues></_>
        <_>
          <internalNodes>
            0 -1 153 -5.0983983092010021e-03</internalNodes>
          <leafValues>
            -3.2267272472381592e-01 2.2593702375888824e-01</leafValues></_>
        <_>
          <internalNodes>
            0 -1 281 -2.5542940944433212e-02</internalNodes>
          <leafValues>
            -5.9098953008651733e-01 1.3774375617504120e-01</leafValues></_>
        <_>
          <internalNodes>
            0 -1 62 -5.9496847825357690e-05</internalNodes>
          <leafValues>
            3.1434938311576843e-01 -2.7272945642471313e-01</leafValues></_>
        <_>
          <internalNodes>
            0 -1 195 1.1230227537453175e-03</internalNodes>
          <leafValues>
            2.1157938241958618e-01 -3.8904958963394165e-01</leafValues></_>
        <_>
          <internalNodes>
            0 -1 65 9.5423609018325806e-02</internalNodes>
          <leafValues>
            1.4280889928340912e-01 -4.9030944705009460e-01</leafValues></_></weakClassifiers></_>
    <!-- stage 10 -->
    <_>
      <maxWeakCount>24</maxWeakCount>
      <stageThreshold>-7.5860708951950073e-01</stageThreshold>
      <weakClassifiers>
        <_>
          <internalNodes>
            0 -1 117 -1.6795885562896729e-01</internalNodes>
          <leafValues>
            -6.0000002384185791e-01 4.5263159275054932e-01</leafValues></_>
        <_>
          <internalNodes>
            0 -1 212 -6.7850038409233093e-02</internalNodes>
          <leafValues>
            -6.3307118415832520e-01 2.1016672253608704e-01</leafValues></_>
        <_>
          <internalNodes>
            0 -1 168 7.0722913369536400e-03</internalNodes>
          <leafValues>
            -1.9962705671787262e-01 5.2820634841918945e-01</leafValues></_>
        <_>
          <internalNodes>
            0 -1 237 1.5991492196917534e-02</internalNodes>
          <leafValues>
            -7.1935236454010010e-02 8.9535892009735107e-01</leafValues></_>
        <_>
          <internalNodes>
            0 -1 372 5.9724543243646622e-03</internalNodes>
          <leafValues>
            1.5061934292316437e-01 -4.1456797719001770e-01</leafValues></_>
        <_>
          <internalNodes>
            0 -1 337 -1.0340299457311630e-02</internalNodes>
          <leafValues>
            6.8352413177490234e-01 -1.0533902794122696e-01</leafValues></_>
        <_>
          <internalNodes>
            0 -1 98 -1.6020929440855980e-02</internalNodes>
          <leafValues>
            7.7908164262771606e-01 -8.7103724479675293e-02</leafValues></_>
        <_>
          <internalNodes>
            0 -1 144 -7.9663647338747978e-03</internalNodes>
          <leafValues>
            4.6090069413185120e-01 -1.3322684168815613e-01</leafValues></_>
        <_>
          <internalNodes>
            0 -1 326 -3.3071417361497879e-02</internalNodes>
          <leafValues>
            7.4468189477920532e-01 -8.3235517144203186e-02</leafValues></_>
        <_>
          <internalNodes>
            0 -1 251 2.4903703015297651e-03</internalNodes>
          <leafValues>
            1.4114382863044739e-01 -4.9013847112655640e-01</leafValues></_>
        <_>
          <internalNodes>
            0 -1 132 8.4810279076918960e-04</internalNodes>
          <leafValues>
            2.2202582657337189e-01 -3.1879451870918274e-01</leafValues></_>
        <_>
          <internalNodes>
            0 -1 167 2.2440809756517410e-02</internalNodes>
          <leafValues>
            -2.0143295824527740e-01 3.9832243323326111e-01</leafValues></_>
        <_>
          <internalNodes>
            0 -1 28 3.0842724442481995e-01</internalNodes>
          <leafValues>
            -1.3797511160373688e-01 5.0894647836685181e-01</leafValues></_>
        <_>
          <internalNodes>
            0 -1 89 -5.2445908077061176e-03</internalNodes>
          <leafValues>
            -4.2880845069885254e-01 1.5959690511226654e-01</leafValues></_>
        <_>
          <internalNodes>
            0 -1 58 3.0813086777925491e-03</internalNodes>
          <leafValues>
            1.9013662636280060e-01 -3.6711472272872925e-01</leafValues></_>
        <_>
          <internalNodes>
            0 -1 88 -4.9224637448787689e-02</internalNodes>
          <leafValues>
            -5.2868986129760742e-01 1.3012698292732239e-01</leafValues></_>
        <_>
          <internalNodes>
            0 -1 0 5.8463383466005325e-03</internalNodes>
          <leafValues>
            1.1802326887845993e-01 -5.3306794166564941e-01</leafValues></_>
        <_>
          <internalNodes>
            0 -1 151 -1.2703626416623592e-02</internalNodes>
          <leafValues>
            -4.7403326630592346e-01 1.3511596620082855e-01</leafValues></_>
        <_>
          <internalNodes>
            0 -1 126 -1.4644446969032288e-01</internalNodes>
          <leafValues>
            2.9021286964416504e-01 -2.2940257191658020e-01</leafValues></_>
        <_>
          <internalNodes>
            0 -1 224 -7.2795554297044873e-04</internalNodes>
          <leafValues>
            -3.3596715331077576e-01 2.1894118189811707e-01</leafValues></_>
        <_>
          <internalNodes>
            0 -1 35 -9.5127120614051819e-02</internalNodes>
          <leafValues>
            -8.0006271600723267e-01 9.7568079829216003e-02</leafValues></_>
        <_>
          <internalNodes>
            0 -1 348 6.0450742021203041e-03</internalNodes>
          <leafValues>
            1.2419248372316360e-01 -5.0841379165649414e-01</leafValues></_>
        <_>
          <internalNodes>
            0 -1 241 1.1224721558392048e-02</internalNodes>
          <leafValues>
            -1.0659773647785187e-01 7.5980025529861450e-01</leafValues></_>
        <_>
          <internalNodes>
            0 -1 352 1.6347303986549377e-02</internalNodes>
          <leafValues>
            -1.1198316514492035e-01 5.3372538089752197e-01</leafValues></_></weakClassifiers></_>
    <!-- stage 11 -->
    <_>
      <maxWeakCount>30</maxWeakCount>
      <stageThreshold>-6.4314866065979004e-01</stageThreshold>
      <weakClassifiers>
        <_>
          <internalNodes>
            0 -1 30 -5.0528419017791748e-01</internalNodes>
          <leafValues>
            -8.2352942228317261e-01 4.2808797955513000e-01</leafValues></_>
        <_>
          <internalNodes>
            0 -1 104 2.1686142310500145e-02</internalNodes>
          <leafValues>
            -6.7805580794811249e-02 7.4691379070281982e-01</leafValues></_>
        <_>
          <internalNodes>
            0 -1 310 1.5381706878542900e-02</internalNodes>
          <leafValues>
            -1.0719315707683563e-01 7.0715910196304321e-01</leafValues></_>
        <_>
          <internalNodes>
            0 -1 315 2.0539939403533936e-02</internalNodes>
          <leafValues>
            -8.3834528923034668e-02 7.5620818138122559e-01</leafValues></_>
        <_>
          <internalNodes>
            0 -1 97 -1.0584821924567223e-02</internalNodes>
          <leafValues>
            5.7178157567977905e-01 -1.1663067340850830e-01</leafValues></_>
        <_>
          <internalNodes>
            0 -1 280 1.3994628563523293e-02</internalNodes>
          <leafValues>
            -9.1973729431629181e-02 8.0441200733184814e-01</leafValues></_>
        <_>
          <internalNodes>
            0 -1 231 1.4704766683280468e-02</internalNodes>
          <leafValues>
            -1.2890543043613434e-01 5.7233017683029175e-01</leafValues></_>
        <_>
          <internalNodes>
            0 -1 315 -1.9255790859460831e-02</internalNodes>
          <leafValues>
            7.7114993333816528e-01 -7.1727968752384186e-02</leafValues></_>
        <_>
          <internalNodes>
            0 -1 162 -1.2440409511327744e-02</internalNodes>
          <leafValues>
            4.1062125563621521e-01 -1.4255420863628387e-01</leafValues></_>
        <_>
          <internalNodes>
            0 -1 313 -1.2117206351831555e-03</internalNodes>
          <leafValues>
            -3.9319229125976562e-01 1.6619299352169037e-01</leafValues></_>
        <_>
          <internalNodes>
            0 -1 182 7.0960563607513905e-03</internalNodes>
          <leafValues>
            -1.5979631245136261e-01 3.8768485188484192e-01</leafValues></_>
        <_>
          <internalNodes>
            0 -1 128 -1.2946322560310364e-02</internalNodes>
          <leafValues>
            6.7292970418930054e-01 -9.2401295900344849e-02</leafValues></_>
        <_>
          <internalNodes>
            0 -1 155 -1.9098816439509392e-02</internalNodes>
          <leafValues>
            3.6399608850479126e-01 -1.6470907628536224e-01</leafValues></_>
        <_>
          <internalNodes>
            0 -1 127 1.2168399989604950e-03</internalNodes>
          <leafValues>
            2.0274338126182556e-01 -3.7783429026603699e-01</leafValues></_>
        <_>
          <internalNodes>
            0 -1 304 -1.4613881707191467e-02</internalNodes>
          <leafValues>
            7.7326530218124390e-01 -7.3701962828636169e-02</leafValues></_>
        <_>
          <internalNodes>
            0 -1 170 -1.2245987355709076e-01</internalNodes>
          <leafValues>
            -8.1274801492691040e-01 8.8567994534969330e-02</leafValues></_>
        <_>
          <internalNodes>
            0 -1 296 1.0433616116642952e-02</internalNodes>
          <leafValues>
            -1.3045066595077515e-01 6.0186600685119629e-01</leafValues></_>
        <_>
          <internalNodes>
            0 -1 130 -1.4776969328522682e-02</internalNodes>
          <leafValues>
            5.2918469905853271e-01 -1.1304113268852234e-01</leafValues></_>
        <_>
          <internalNodes>
            0 -1 271 1.4667147770524025e-02</internalNodes>
          <leafValues>
            -9.7042322158813477e-02 6.3823062181472778e-01</leafValues></_>
        <_>
          <internalNodes>
            0 -1 54 1.4088641852140427e-02</internalNodes>
          <leafValues>
            -1.7930017411708832e-01 4.1738897562026978e-01</leafValues></_>
        <_>
          <internalNodes>
            0 -1 101 -1.0889391414821148e-02</internalNodes>
          <leafValues>
            3.5173398256301880e-01 -1.6184572875499725e-01</leafValues></_>
        <_>
          <internalNodes>
            0 -1 4 1.0794119536876678e-01</internalNodes>
          <leafValues>
            6.8777844309806824e-02 -9.7665351629257202e-01</leafValues></_>
        <_>
          <internalNodes>
            0 -1 53 -9.7919814288616180e-03</internalNodes>
          <leafValues>
            4.0528532862663269e-01 -1.8494626879692078e-01</leafValues></_>
        <_>
          <internalNodes>
            0 -1 334 -3.0576515942811966e-02</internalNodes>
          <leafValues>
            9.0854847431182861e-01 -7.5327724218368530e-02</leafValues></_>
        <_>
          <internalNodes>
            0 -1 59 -3.6974810063838959e-03</internalNodes>
          <leafValues>
            -3.6546233296394348e-01 1.9027467072010040e-01</leafValues></_>
        <_>
          <internalNodes>
            0 -1 2 -5.5542375775985420e-05</internalNodes>
          <leafValues>
            2.9463940858840942e-01 -2.2203315794467926e-01</leafValues></_>
        <_>
          <internalNodes>
            0 -1 150 1.2213679961860180e-02</internalNodes>
          <leafValues>
            -1.6613925993442535e-01 4.2090520262718201e-01</leafValues></_>
        <_>
          <internalNodes>
            0 -1 322 -8.2743848906829953e-04</internalNodes>
          <leafValues>
            -2.6474696397781372e-01 2.5399911403656006e-01</leafValues></_>
        <_>
          <internalNodes>
            0 -1 335 -4.7872234135866165e-03</internalNodes>
          <leafValues>
            3.7397959828376770e-01 -1.6277189552783966e-01</leafValues></_>
        <_>
          <internalNodes>
            0 -1 314 2.9923103749752045e-02</internalNodes>
          <leafValues>
            -8.2282505929470062e-02 7.9346519708633423e-01</leafValues></_></weakClassifiers></_>
    <!-- stage 12 -->
    <_>
      <maxWeakCount>29</maxWeakCount>
      <stageThreshold>-5.1838546991348267e-01</stageThreshold>
      <weakClassifiers>
        <_>
          <internalNodes>
            0 -1 16 1.0753748210845515e-04</internalNodes>
          <leafValues>
            4.1841003112494946e-03 5.8031088113784790e-01</leafValues></_>
        <_>
          <internalNodes>
            0 -1 5 7.1798218414187431e-05</internalNodes>
          <leafValues>
            -3.0167737603187561e-01 2.5404790043830872e-01</leafValues></_>
        <_>
          <internalNodes>
            0 -1 362 6.3977744430303574e-03</internalNodes>
          <leafValues>
            1.8375077843666077e-01 -4.1813033819198608e-01</leafValues></_>
        <_>
          <internalNodes>
            0 -1 203 1.1674256995320320e-02</internalNodes>
          <leafValues>
            -1.2284975498914719e-01 6.4454108476638794e-01</leafValues></_>
        <_>
          <internalNodes>
            0 -1 232 -3.0756644904613495e-02</internalNodes>
          <leafValues>
            6.6451311111450195e-01 -1.2489105761051178e-01</leafValues></_>
        <_>
          <internalNodes>
            0 -1 173 -2.5266118347644806e-02</internalNodes>
          <leafValues>
            4.1821593046188354e-01 -1.2427254021167755e-01</leafValues></_>
        <_>
          <internalNodes>
            0 -1 144 -1.1520719155669212e-02</internalNodes>
          <leafValues>
            5.6115490198135376e-01 -8.5196696221828461e-02</leafValues></_>
        <_>
          <internalNodes>
            0 -1 311 -1.5986002981662750e-02</internalNodes>
          <leafValues>
            8.2945430278778076e-01 -6.4809165894985199e-02</leafValues></_>
        <_>
          <internalNodes>
            0 -1 374 7.4301911517977715e-03</internalNodes>
          <leafValues>
            1.1577290296554565e-01 -5.1856952905654907e-01</leafValues></_>
        <_>
          <internalNodes>
            0 -1 288 2.6651988737285137e-03</internalNodes>
          <leafValues>
            1.1756332218647003e-01 -4.5524245500564575e-01</leafValues></_>
        <_>
          <internalNodes>
            0 -1 247 1.7005909234285355e-02</internalNodes>
          <leafValues>
            -8.9194364845752716e-02 6.2827003002166748e-01</leafValues></_>
        <_>
          <internalNodes>
            0 -1 233 3.0332263559103012e-02</internalNodes>
          <leafValues>
            -8.8838890194892883e-02 4.7596234083175659e-01</leafValues></_>
        <_>
          <internalNodes>
            0 -1 234 7.4317030608654022e-02</internalNodes>
          <leafValues>
            6.3005141913890839e-02 -8.4055054187774658e-01</leafValues></_>
        <_>
          <internalNodes>
            0 -1 311 1.9017182290554047e-02</internalNodes>
          <leafValues>
            -6.8412430584430695e-02 9.0335112810134888e-01</leafValues></_>
        <_>
          <internalNodes>
            0 -1 250 3.0715392902493477e-02</internalNodes>
          <leafValues>
            9.3589492142200470e-02 -7.2611075639724731e-01</leafValues></_>
        <_>
          <internalNodes>
            0 -1 284 -6.9023661315441132e-02</internalNodes>
          <leafValues>
            -5.3392916917800903e-01 9.3197286128997803e-02</leafValues></_>
        <_>
          <internalNodes>
            0 -1 66 5.3922747611068189e-05</internalNodes>
          <leafValues>
            -2.4236285686492920e-01 2.2025886178016663e-01</leafValues></_>
        <_>
          <internalNodes>
            0 -1 186 3.4446585923433304e-02</internalNodes>
          <leafValues>
            8.2066386938095093e-02 -6.6683351993560791e-01</leafValues></_>
        <_>
          <internalNodes>
            0 -1 220 -2.4204465444199741e-04</internalNodes>
          <leafValues>
            2.7207565307617188e-01 -2.2254596650600433e-01</leafValues></_>
        <_>
          <internalNodes>
            0 -1 108 -4.1591543704271317e-03</internalNodes>
          <leafValues>
            3.3812606334686279e-01 -1.6001994907855988e-01</leafValues></_>
        <_>
          <internalNodes>
            0 -1 156 4.3678924441337585e-02</internalNodes>
          <leafValues>
            1.7556446790695190e-01 -3.2165849208831787e-01</leafValues></_>
        <_>
          <internalNodes>
            0 -1 237 -1.3540798798203468e-02</internalNodes>
          <leafValues>
            8.3190381526947021e-01 -6.5630480647087097e-02</leafValues></_>
        <_>
          <internalNodes>
            0 -1 286 6.4741157984826714e-05</internalNodes>
          <leafValues>
            -2.8505364060401917e-01 2.0102770626544952e-01</leafValues></_>
        <_>
          <internalNodes>
            0 -1 131 1.3699477910995483e-01</internalNodes>
          <leafValues>
            6.8499468266963959e-02 -7.1762299537658691e-01</leafValues></_>
        <_>
          <internalNodes>
            0 -1 363 -3.7491214461624622e-03</internalNodes>
          <leafValues>
            -3.6895197629928589e-01 1.2221501022577286e-01</leafValues></_>
        <_>
          <internalNodes>
            0 -1 268 -1.5220376662909985e-02</internalNodes>
          <leafValues>
            3.9132332801818848e-01 -1.2426311522722244e-01</leafValues></_>
        <_>
          <internalNodes>
            0 -1 194 -2.4264787498395890e-04</internalNodes>
          <leafValues>
            2.6735708117485046e-01 -1.9645498692989349e-01</leafValues></_>
        <_>
          <internalNodes>
            0 -1 344 1.8698476254940033e-02</internalNodes>
          <leafValues>
            -8.0326333642005920e-02 6.2675648927688599e-01</leafValues></_>
        <_>
          <internalNodes>
            0 -1 15 -1.6923727095127106e-01</internalNodes>
          <leafValues>
            -6.8528151512145996e-01 8.5546836256980896e-02</leafValues></_></weakClassifiers></_>
    <!-- stage 13 -->
    <_>
      <maxWeakCount>28</maxWeakCount>
      <stageThreshold>-6.5784376859664917e-01</stageThreshold>
      <weakClassifiers>
        <_>
          <internalNodes>
            0 -1 43 -3.8368988037109375e-01</internalNodes>
          <leafValues>
            -5.6097561120986938e-01 4.2465752363204956e-01</leafValues></_>
        <_>
          <internalNodes>
            0 -1 285 2.7702264487743378e-02</internalNodes>
          <leafValues>
            -1.9257929921150208e-01 3.5121196508407593e-01</leafValues></_>
        <_>
          <internalNodes>
            0 -1 346 3.3392988145351410e-02</internalNodes>
          <leafValues>
            -1.4433147013187408e-01 6.6896408796310425e-01</leafValues></_>
        <_>
          <internalNodes>
            0 -1 86 1.8081653863191605e-02</internalNodes>
          <leafValues>
            -1.2294746190309525e-01 5.8084666728973389e-01</leafValues></_>
        <_>
          <internalNodes>
            0 -1 45 5.7677960285218433e-05</internalNodes>
          <leafValues>
            -2.0598119497299194e-01 3.1499987840652466e-01</leafValues></_>
        <_>
          <internalNodes>
            0 -1 259 5.1325565436854959e-04</internalNodes>
          <leafValues>
            2.1963004767894745e-01 -2.8526595234870911e-01</leafValues></_>
        <_>
          <internalNodes>
            0 -1 79 2.9973519849590957e-04</internalNodes>
          <leafValues>
            -2.7952393889427185e-01 2.0492993295192719e-01</leafValues></_>
        <_>
          <internalNodes>
            0 -1 42 1.0072355717420578e-01</internalNodes>
          <leafValues>
            8.9064858853816986e-02 -7.5183629989624023e-01</leafValues></_>
        <_>
          <internalNodes>
            0 -1 82 -1.1456882208585739e-01</internalNodes>
          <leafValues>
            -5.7403743267059326e-01 9.1040119528770447e-02</leafValues></_>
        <_>
          <internalNodes>
            0 -1 103 -4.8448212444782257e-02</internalNodes>
          <leafValues>
            -4.6186700463294983e-01 1.3250209391117096e-01</leafValues></_>
        <_>
          <internalNodes>
            0 -1 307 -2.0627010613679886e-02</internalNodes>
          <leafValues>
            8.1646621227264404e-01 -7.3966048657894135e-02</leafValues></_>
        <_>
          <internalNodes>
            0 -1 51 -2.5122560560703278e-02</internalNodes>
          <leafValues>
            5.6718188524246216e-01 -1.0594062507152557e-01</leafValues></_>
        <_>
          <internalNodes>
            0 -1 345 2.4643355980515480e-02</internalNodes>
          <leafValues>
            -8.1393025815486908e-02 6.8886476755142212e-01</leafValues></_>
        <_>
          <internalNodes>
            0 -1 197 -1.6104788519442081e-03</internalNodes>
          <leafValues>
            2.6622524857521057e-01 -2.1368968486785889e-01</leafValues></_>
        <_>
          <internalNodes>
            0 -1 192 4.4968957081437111e-03</internalNodes>
          <leafValues>
            -3.1313103437423706e-01 3.1038108468055725e-01</leafValues></_>
        <_>
          <internalNodes>
            0 -1 305 1.8186977133154869e-02</internalNodes>
          <leafValues>
            -1.3087600469589233e-01 4.9961796402931213e-01</leafValues></_>
        <_>
          <internalNodes>
            0 -1 327 1.6449496150016785e-02</internalNodes>
          <leafValues>
            -1.3383714854717255e-01 4.8182263970375061e-01</leafValues></_>
        <_>
          <internalNodes>
            0 -1 92 1.8448393791913986e-02</internalNodes>
          <leafValues>
            -1.1532712727785110e-01 5.0388818979263306e-01</leafValues></_>
        <_>
          <internalNodes>
            0 -1 105 -2.4751946330070496e-02</internalNodes>
          <leafValues>
            6.8845897912979126e-01 -7.9638957977294922e-02</leafValues></_>
        <_>
          <internalNodes>
            0 -1 9 5.0846880674362183e-01</internalNodes>
          <leafValues>
            9.6827290952205658e-02 -7.8710097074508667e-01</leafValues></_>
        <_>
          <internalNodes>
            0 -1 125 1.6432244330644608e-02</internalNodes>
          <leafValues>
            -1.4668509364128113e-01 4.4988146424293518e-01</leafValues></_>
        <_>
          <internalNodes>
            0 -1 121 -4.2403996922075748e-03</internalNodes>
          <leafValues>
            3.3235320448875427e-01 -1.8617470562458038e-01</leafValues></_>
        <_>
          <internalNodes>
            0 -1 140 3.1389553099870682e-02</internalNodes>
          <leafValues>
            -1.1685170233249664e-01 5.8812725543975830e-01</leafValues></_>
        <_>
          <internalNodes>
            0 -1 332 -1.3421108946204185e-02</internalNodes>
          <leafValues>
            5.6566983461380005e-01 -9.8433084785938263e-02</leafValues></_>
        <_>
          <internalNodes>
            0 -1 339 3.1322855502367020e-03</internalNodes>
          <leafValues>
            1.4458030462265015e-01 -4.4267827272415161e-01</leafValues></_>
        <_>
          <internalNodes>
            0 -1 124 6.8881890911143273e-05</internalNodes>
          <leafValues>
            -2.3477233946323395e-01 2.2731561958789825e-01</leafValues></_>
        <_>
          <internalNodes>
            0 -1 3 1.4473522081971169e-02</internalNodes>
          <leafValues>
            1.3570708036422729e-01 -4.7478166222572327e-01</leafValues></_>
        <_>
          <internalNodes>
            0 -1 342 -5.0390653312206268e-02</internalNodes>
          <leafValues>
            4.3472999334335327e-01 -1.3486665487289429e-01</leafValues></_></weakClassifiers></_>
    <!-- stage 14 -->
    <_>
      <maxWeakCount>27</maxWeakCount>
      <stageThreshold>-6.8013775348663330e-01</stageThreshold>
      <weakClassifiers>
        <_>
          <internalNodes>
            0 -1 180 -7.1353748440742493e-02</internalNodes>
          <leafValues>
            -6.7741936445236206e-01 4.1414141654968262e-01</leafValues></_>
        <_>
          <internalNodes>
            0 -1 323 1.7213933169841766e-02</internalNodes>
          <leafValues>
            -7.2133839130401611e-02 6.5534734725952148e-01</leafValues></_>
        <_>
          <internalNodes>
            0 -1 216 -6.2189748859964311e-05</internalNodes>
          <leafValues>
            2.4444778263568878e-01 -2.5719538331031799e-01</leafValues></_>
        <_>
          <internalNodes>
            0 -1 138 -1.8130203709006310e-02</internalNodes>
          <leafValues>
            6.4502328634262085e-01 -1.2596094608306885e-01</leafValues></_>
        <_>
          <internalNodes>
            0 -1 113 -1.9979646429419518e-02</internalNodes>
          <leafValues>
            5.4105091094970703e-01 -9.4903469085693359e-02</leafValues></_>
        <_>
          <internalNodes>
            0 -1 152 -1.7473522573709488e-02</internalNodes>
          <leafValues>
            4.1829627752304077e-01 -1.6181993484497070e-01</leafValues></_>
        <_>
          <internalNodes>
            0 -1 316 -1.0021274909377098e-02</internalNodes>
          <leafValues>
            5.4878175258636475e-01 -1.0528370738029480e-01</leafValues></_>
        <_>
          <internalNodes>
            0 -1 258 -5.1152452215319499e-05</internalNodes>
          <leafValues>
            2.6784473657608032e-01 -2.4294248223304749e-01</leafValues></_>
        <_>
          <internalNodes>
            0 -1 64 7.3745162226259708e-03</internalNodes>
          <leafValues>
            -3.1765785813331604e-01 2.0061899721622467e-01</leafValues></_>
        <_>
          <internalNodes>
            0 -1 278 7.1664422750473022e-02</internalNodes>
          <leafValues>
            9.6082605421543121e-02 -5.9586274623870850e-01</leafValues></_>
        <_>
          <internalNodes>
            0 -1 31 -4.3090991675853729e-03</internalNodes>
          <leafValues>
            -4.3783766031265259e-01 1.1866459250450134e-01</leafValues></_>
        <_>
          <internalNodes>
            0 -1 21 5.5561549961566925e-03</internalNodes>
          <leafValues>
            1.6924634575843811e-01 -3.2898518443107605e-01</leafValues></_>
        <_>
          <internalNodes>
            0 -1 219 1.7212368547916412e-02</internalNodes>
          <leafValues>
            -1.2496439367532730e-01 4.7373637557029724e-01</leafValues></_>
        <_>
          <internalNodes>
            0 -1 218 -2.8512808494269848e-03</internalNodes>
          <leafValues>
            2.4594873189926147e-01 -2.4059215188026428e-01</leafValues></_>
        <_>
          <internalNodes>
            0 -1 271 1.6075983643531799e-02</internalNodes>
          <leafValues>
            -8.0238714814186096e-02 5.4944646358489990e-01</leafValues></_>
        <_>
          <internalNodes>
            0 -1 230 1.7366591840982437e-02</internalNodes>
          <leafValues>
            -6.1946533620357513e-02 7.8853565454483032e-01</leafValues></_>
        <_>
          <internalNodes>
            0 -1 166 1.3364426791667938e-01</internalNodes>
          <leafValues>
            -1.4066831767559052e-01 3.7253648042678833e-01</leafValues></_>
        <_>
          <internalNodes>
            0 -1 267 -2.2478748112916946e-02</internalNodes>
          <leafValues>
            3.8972422480583191e-01 -1.5340587496757507e-01</leafValues></_>
        <_>
          <internalNodes>
            0 -1 368 -2.1269049495458603e-02</internalNodes>
          <leafValues>
            -6.4548617601394653e-01 9.3134082853794098e-02</leafValues></_>
        <_>
          <internalNodes>
            0 -1 91 -1.0857848450541496e-02</internalNodes>
          <leafValues>
            6.2969511747360229e-01 -1.0515067726373672e-01</leafValues></_>
        <_>
          <internalNodes>
            0 -1 70 1.7812903970479965e-02</internalNodes>
          <leafValues>
            -1.4932575821876526e-01 3.6774986982345581e-01</leafValues></_>
        <_>
          <internalNodes>
            0 -1 120 -1.5720418095588684e-01</internalNodes>
          <leafValues>
            -8.7756347656250000e-01 6.8998523056507111e-02</leafValues></_>
        <_>
          <internalNodes>
            0 -1 72 -2.3510549217462540e-02</internalNodes>
          <leafValues>
            4.6370616555213928e-01 -1.2806187570095062e-01</leafValues></_>
        <_>
          <internalNodes>
            0 -1 199 4.8635080456733704e-02</internalNodes>
          <leafValues>
            9.0378314256668091e-02 -6.8687933683395386e-01</leafValues></_>
        <_>
          <internalNodes>
            0 -1 84 2.2658295929431915e-02</internalNodes>
          <leafValues>
            -1.8717767298221588e-01 2.9384243488311768e-01</leafValues></_>
        <_>
          <internalNodes>
            0 -1 98 -1.6460742801427841e-02</internalNodes>
          <leafValues>
            6.6104519367218018e-01 -9.0374715626239777e-02</leafValues></_>
        <_>
          <internalNodes>
            0 -1 83 -1.7662930488586426e-01</internalNodes>
          <leafValues>
            -8.7063497304916382e-01 7.9956606030464172e-02</leafValues></_></weakClassifiers></_>
    <!-- stage 15 -->
    <_>
      <maxWeakCount>30</maxWeakCount>
      <stageThreshold>-7.5437676906585693e-01</stageThreshold>
      <weakClassifiers>
        <_>
          <internalNodes>
            0 -1 34 2.2515743970870972e-01</internalNodes>
          <leafValues>
            1.6253443062305450e-01 6.3358777761459351e-01</leafValues></_>
        <_>
          <internalNodes>
            0 -1 161 5.1814061589539051e-04</internalNodes>
          <leafValues>
            2.5403776764869690e-01 -2.8886392712593079e-01</leafValues></_>
        <_>
          <internalNodes>
            0 -1 148 -1.2193026952445507e-02</internalNodes>
          <leafValues>
            2.6320776343345642e-01 -2.0371235907077789e-01</leafValues></_>
        <_>
          <internalNodes>
            0 -1 60 1.3099977746605873e-02</internalNodes>
          <leafValues>
            -2.8365793824195862e-01 1.8726177513599396e-01</leafValues></_>
        <_>
          <internalNodes>
            0 -1 139 1.8026329576969147e-02</internalNodes>
          <leafValues>
            -6.0183536261320114e-02 7.8350949287414551e-01</leafValues></_>
        <_>
          <internalNodes>
            0 -1 123 4.2999461293220520e-03</internalNodes>
          <leafValues>
            1.6700206696987152e-01 -3.6969235539436340e-01</leafValues></_>
        <_>
          <internalNodes>
            0 -1 179 1.9072744995355606e-02</internalNodes>
          <leafValues>
            -1.0896257311105728e-01 4.4636407494544983e-01</leafValues></_>
        <_>
          <internalNodes>
            0 -1 183 9.9132712930440903e-03</internalNodes>
          <leafValues>
            -1.6957755386829376e-01 4.2933091521263123e-01</leafValues></_>
        <_>
          <internalNodes>
            0 -1 265 2.0398162305355072e-02</internalNodes>
          <leafValues>
            -4.7863423824310303e-02 8.3637690544128418e-01</leafValues></_>
        <_>
          <internalNodes>
            0 -1 282 -1.7360714264214039e-03</internalNodes>
          <leafValues>
            -2.4369895458221436e-01 2.2078442573547363e-01</leafValues></_>
        <_>
          <internalNodes>
            0 -1 61 6.6528484225273132e-02</internalNodes>
          <leafValues>
            -2.2637823224067688e-01 2.8575089573860168e-01</leafValues></_>
        <_>
          <internalNodes>
            0 -1 164 1.8112279474735260e-02</internalNodes>
          <leafValues>
            -7.1463815867900848e-02 7.8676372766494751e-01</leafValues></_>
        <_>
          <internalNodes>
            0 -1 154 7.3306858539581299e-03</internalNodes>
          <leafValues>
            1.1755551397800446e-01 -4.8567152023315430e-01</leafValues></_>
        <_>
          <internalNodes>
            0 -1 118 -1.9672531634569168e-02</internalNodes>
          <leafValues>
            2.9550373554229736e-01 -1.8862958252429962e-01</leafValues></_>
        <_>
          <internalNodes>
            0 -1 183 -2.3871911689639091e-02</internalNodes>
          <leafValues>
            6.9758808612823486e-01 -7.4771225452423096e-02</leafValues></_>
        <_>
          <internalNodes>
            0 -1 221 1.7718041781336069e-03</internalNodes>
          <leafValues>
            1.6726166009902954e-01 -3.6826211214065552e-01</leafValues></_>
        <_>
          <internalNodes>
            0 -1 85 -1.0022446513175964e-03</internalNodes>
          <leafValues>
            -2.8118282556533813e-01 1.8732488155364990e-01</leafValues></_>
        <_>
          <internalNodes>
            0 -1 290 -7.7695323852822185e-04</internalNodes>
          <leafValues>
            -3.0513373017311096e-01 1.9583544135093689e-01</leafValues></_>
        <_>
          <internalNodes>
            0 -1 245 -8.5442625277210027e-05</internalNodes>
          <leafValues>
            2.1085925400257111e-01 -2.4198853969573975e-01</leafValues></_>
        <_>
          <internalNodes>
            0 -1 102 1.5662338584661484e-02</internalNodes>
          <leafValues>
            -8.3492442965507507e-02 6.1983203887939453e-01</leafValues></_>
        <_>
          <internalNodes>
            0 -1 338 2.7267225086688995e-02</internalNodes>
          <leafValues>
            8.0287113785743713e-02 -7.2848176956176758e-01</leafValues></_>
        <_>
          <internalNodes>
            0 -1 353 1.1314095929265022e-02</internalNodes>
          <leafValues>
            -1.6134144365787506e-01 3.4142801165580750e-01</leafValues></_>
        <_>
          <internalNodes>
            0 -1 80 -1.9684609770774841e-01</internalNodes>
          <leafValues>
            -7.2008842229843140e-01 7.6866023242473602e-02</leafValues></_>
        <_>
          <internalNodes>
            0 -1 99 -5.9612700715661049e-03</internalNodes>
          <leafValues>
            2.7353277802467346e-01 -1.9831717014312744e-01</leafValues></_>
        <_>
          <internalNodes>
            0 -1 92 -9.9939815700054169e-03</internalNodes>
          <leafValues>
            5.1729911565780640e-01 -1.1271803826093674e-01</leafValues></_>
        <_>
          <internalNodes>
            0 -1 255 6.2222201377153397e-03</internalNodes>
          <leafValues>
            -1.0207714140415192e-01 5.0121313333511353e-01</leafValues></_>
        <_>
          <internalNodes>
            0 -1 298 1.2297643348574638e-02</internalNodes>
          <leafValues>
            -1.0584625601768494e-01 5.2241897583007812e-01</leafValues></_>
        <_>
          <internalNodes>
            0 -1 261 1.0091181844472885e-02</internalNodes>
          <leafValues>
            -1.6804447770118713e-01 3.5415485501289368e-01</leafValues></_>
        <_>
          <internalNodes>
            0 -1 69 1.6437105834484100e-02</internalNodes>
          <leafValues>
            -1.3663825392723083e-01 3.7638455629348755e-01</leafValues></_>
        <_>
          <internalNodes>
            0 -1 329 2.1818466484546661e-03</internalNodes>
          <leafValues>
            1.2790669500827789e-01 -4.2073222994804382e-01</leafValues></_></weakClassifiers></_>
    <!-- stage 16 -->
    <_>
      <maxWeakCount>27</maxWeakCount>
      <stageThreshold>-5.3553241491317749e-01</stageThreshold>
      <weakClassifiers>
        <_>
          <internalNodes>
            0 -1 264 -1.4853486418724060e-01</internalNodes>
          <leafValues>
            6.6417908668518066e-01 1.3165266811847687e-01</leafValues></_>
        <_>
          <internalNodes>
            0 -1 214 2.2798879072070122e-03</internalNodes>
          <leafValues>
            2.1919652819633484e-01 -3.5132813453674316e-01</leafValues></_>
        <_>
          <internalNodes>
            0 -1 145 -3.8977325893938541e-03</internalNodes>
          <leafValues>
            2.6787012815475464e-01 -2.5481525063514709e-01</leafValues></_>
        <_>
          <internalNodes>
            0 -1 47 -9.6815300639718771e-04</internalNodes>
          <leafValues>
            -2.9489544034004211e-01 2.3556764423847198e-01</leafValues></_>
        <_>
          <internalNodes>
            0 -1 277 1.5026973560452461e-02</internalNodes>
          <leafValues>
            -1.8018919229507446e-01 3.7630254030227661e-01</leafValues></_>
        <_>
          <internalNodes>
            0 -1 209 1.2676726095378399e-02</internalNodes>
          <leafValues>
            -1.9942513108253479e-01 3.3295491337776184e-01</leafValues></_>
        <_>
          <internalNodes>
            0 -1 204 9.7093917429447174e-02</internalNodes>
          <leafValues>
            7.4935682117938995e-02 -8.0905252695083618e-01</leafValues></_>
        <_>
          <internalNodes>
            0 -1 246 -7.6323340181261301e-04</internalNodes>
          <leafValues>
            -2.7907794713973999e-01 2.5616890192031860e-01</leafValues></_>
        <_>
          <internalNodes>
            0 -1 52 6.1842254363000393e-03</internalNodes>
          <leafValues>
            -2.5126889348030090e-01 2.5593805313110352e-01</leafValues></_>
        <_>
          <internalNodes>
            0 -1 189 1.2223138473927975e-03</internalNodes>
          <leafValues>
            1.7485578358173370e-01 -3.2074332237243652e-01</leafValues></_>
        <_>
          <internalNodes>
            0 -1 74 3.4928158856928349e-04</internalNodes>
          <leafValues>
            -2.8928032517433167e-01 2.3023296892642975e-01</leafValues></_>
        <_>
          <internalNodes>
            0 -1 235 4.8053578939288855e-04</internalNodes>
          <leafValues>
            2.2997109591960907e-01 -2.8564885258674622e-01</leafValues></_>
        <_>
          <internalNodes>
            0 -1 293 -3.0296184122562408e-02</internalNodes>
          <leafValues>
            9.0398699045181274e-01 -4.9000483006238937e-02</leafValues></_>
        <_>
          <internalNodes>
            0 -1 33 -5.0860717892646790e-03</internalNodes>
          <leafValues>
            2.7157315611839294e-01 -1.9110858440399170e-01</leafValues></_>
        <_>
          <internalNodes>
            0 -1 262 1.4903807640075684e-01</internalNodes>
          <leafValues>
            5.7880233973264694e-02 -1.</leafValues></_>
        <_>
          <internalNodes>
            0 -1 320 5.8429889380931854e-02</internalNodes>
          <leafValues>
            -1.5681646764278412e-01 4.3291568756103516e-01</leafValues></_>
        <_>
          <internalNodes>
            0 -1 283 6.4041048288345337e-02</internalNodes>
          <leafValues>
            8.3107240498065948e-02 -7.7878904342651367e-01</leafValues></_>
        <_>
          <internalNodes>
            0 -1 10 -1.8425376713275909e-01</internalNodes>
          <leafValues>
            6.0353195667266846e-01 -1.2097252905368805e-01</leafValues></_>
        <_>
          <internalNodes>
            0 -1 7 1.3506609201431274e-01</internalNodes>
          <leafValues>
            -1.5864923596382141e-01 3.7284481525421143e-01</leafValues></_>
        <_>
          <internalNodes>
            0 -1 319 6.6755544394254684e-03</internalNodes>
          <leafValues>
            -1.6726671159267426e-01 3.3492136001586914e-01</leafValues></_>
        <_>
          <internalNodes>
            0 -1 371 4.4325604103505611e-03</internalNodes>
          <leafValues>
            1.5814946591854095e-01 -3.2883960008621216e-01</leafValues></_>
        <_>
          <internalNodes>
            0 -1 340 2.5064196437597275e-02</internalNodes>
          <leafValues>
            -8.7839253246784210e-02 6.2431091070175171e-01</leafValues></_>
        <_>
          <internalNodes>
            0 -1 0 -3.3054612576961517e-03</internalNodes>
          <leafValues>
            -3.9685159921646118e-01 1.5557947754859924e-01</leafValues></_>
        <_>
          <internalNodes>
            0 -1 257 -2.8912154957652092e-03</internalNodes>
          <leafValues>
            -3.4494832158088684e-01 1.5402901172637939e-01</leafValues></_>
        <_>
          <internalNodes>
            0 -1 71 2.9978007078170776e-02</internalNodes>
          <leafValues>
            -1.1834776401519775e-01 4.6438297629356384e-01</leafValues></_>
        <_>
          <internalNodes>
            0 -1 235 -1.1593422386795282e-03</internalNodes>
          <leafValues>
            -3.7339216470718384e-01 1.7226810753345490e-01</leafValues></_>
        <_>
          <internalNodes>
            0 -1 157 1.8016350222751498e-03</internalNodes>
          <leafValues>
            2.0401628315448761e-01 -3.0289068818092346e-01</leafValues></_></weakClassifiers></_>
    <!-- stage 17 -->
    <_>
      <maxWeakCount>17</maxWeakCount>
      <stageThreshold>-7.0068997144699097e-01</stageThreshold>
      <weakClassifiers>
        <_>
          <internalNodes>
            0 -1 44 6.5191619098186493e-02</internalNodes>
          <leafValues>
            4.3389829993247986e-01 -8.8571429252624512e-01</leafValues></_>
        <_>
          <internalNodes>
            0 -1 78 4.9643270671367645e-02</internalNodes>
          <leafValues>
            -1.2008796632289886e-01 7.4938702583312988e-01</leafValues></_>
        <_>
          <internalNodes>
            0 -1 133 2.1899945568293333e-03</internalNodes>
          <leafValues>
            2.1090805530548096e-01 -3.9862751960754395e-01</leafValues></_>
        <_>
          <internalNodes>
            0 -1 12 2.5952184200286865e-01</internalNodes>
          <leafValues>
            -2.4784414470195770e-01 3.3005318045616150e-01</leafValues></_>
        <_>
          <internalNodes>
            0 -1 96 -2.3220429196953773e-02</internalNodes>
          <leafValues>
            4.2613220214843750e-01 -2.3856832087039948e-01</leafValues></_>
        <_>
          <internalNodes>
            0 -1 246 6.8534718593582511e-04</internalNodes>
          <leafValues>
            2.1381968259811401e-01 -3.7415191531181335e-01</leafValues></_>
        <_>
          <internalNodes>
            0 -1 76 -1.5407179016619921e-03</internalNodes>
          <leafValues>
            -3.9266026020050049e-01 1.8316148221492767e-01</leafValues></_>
        <_>
          <internalNodes>
            0 -1 367 2.6001330465078354e-02</internalNodes>
          <leafValues>
            1.4069357514381409e-01 -5.9004533290863037e-01</leafValues></_>
        <_>
          <internalNodes>
            0 -1 187 -1.2282395362854004e-01</internalNodes>
          <leafValues>
            8.4594511985778809e-01 -1.3802987337112427e-01</leafValues></_>
        <_>
          <internalNodes>
            0 -1 329 -1.7631094669923186e-03</internalNodes>
          <leafValues>
            -2.9051485657691956e-01 2.8817912936210632e-01</leafValues></_>
        <_>
          <internalNodes>
            0 -1 359 2.9053310863673687e-03</internalNodes>
          <leafValues>
            1.9553303718566895e-01 -4.3111646175384521e-01</leafValues></_>
        <_>
          <internalNodes>
            0 -1 73 -4.3004760518670082e-03</internalNodes>
          <leafValues>
            -4.8457825183868408e-01 1.6646574437618256e-01</leafValues></_>
        <_>
          <internalNodes>
            0 -1 26 2.2971298545598984e-02</internalNodes>
          <leafValues>
            7.0291794836521149e-02 -8.8110893964767456e-01</leafValues></_>
        <_>
          <internalNodes>
            0 -1 13 1.4812850952148438e-01</internalNodes>
          <leafValues>
            -1.4539991319179535e-01 5.4498547315597534e-01</leafValues></_>
        <_>
          <internalNodes>
            0 -1 208 -1.3293260335922241e-01</internalNodes>
          <leafValues>
            4.2254382371902466e-01 -1.7449389398097992e-01</leafValues></_>
        <_>
          <internalNodes>
            0 -1 40 3.1768705230206251e-03</internalNodes>
          <leafValues>
            1.8688166141510010e-01 -3.9951440691947937e-01</leafValues></_>
        <_>
          <internalNodes>
            0 -1 347 3.9805755019187927e-02</internalNodes>
          <leafValues>
            9.9661275744438171e-02 -7.4705821275711060e-01</leafValues></_></weakClassifiers></_>
    <!-- stage 18 -->
    <_>
      <maxWeakCount>17</maxWeakCount>
      <stageThreshold>-5.5249124765396118e-01</stageThreshold>
      <weakClassifiers>
        <_>
          <internalNodes>
            0 -1 75 2.8419882059097290e-01</internalNodes>
          <leafValues>
            4.9380531907081604e-01 -8.9999997615814209e-01</leafValues></_>
        <_>
          <internalNodes>
            0 -1 370 4.4891317375004292e-03</internalNodes>
          <leafValues>
            2.3541297018527985e-01 -5.0253868103027344e-01</leafValues></_>
        <_>
          <internalNodes>
            0 -1 369 8.1240888684988022e-03</internalNodes>
          <leafValues>
            1.7047451436519623e-01 -5.3442037105560303e-01</leafValues></_>
        <_>
          <internalNodes>
            0 -1 27 1.0668198019266129e-01</internalNodes>
          <leafValues>
            -2.0995543897151947e-01 4.8105847835540771e-01</leafValues></_>
        <_>
          <internalNodes>
            0 -1 1 -3.8408129476010799e-03</internalNodes>
          <leafValues>
            -4.6236732602119446e-01 2.0454268157482147e-01</leafValues></_>
        <_>
          <internalNodes>
            0 -1 341 4.4409275054931641e-02</internalNodes>
          <leafValues>
            -2.1667580306529999e-01 4.4789034128189087e-01</leafValues></_>
        <_>
          <internalNodes>
            0 -1 252 5.4877856746315956e-04</internalNodes>
          <leafValues>
            2.1804924309253693e-01 -4.3816480040550232e-01</leafValues></_>
        <_>
          <internalNodes>
            0 -1 225 -7.7230557799339294e-03</internalNodes>
          <leafValues>
            -3.8559654355049133e-01 2.1123057603836060e-01</leafValues></_>
        <_>
          <internalNodes>
            0 -1 355 9.9668628536164761e-04</internalNodes>
          <leafValues>
            1.7938381433486938e-01 -4.3808445334434509e-01</leafValues></_>
        <_>
          <internalNodes>
            0 -1 87 6.3501186668872833e-03</internalNodes>
          <leafValues>
            2.2152297198772430e-01 -3.9468887448310852e-01</leafValues></_>
        <_>
          <internalNodes>
            0 -1 195 1.5452816151082516e-03</internalNodes>
          <leafValues>
            2.0968976616859436e-01 -4.1518568992614746e-01</leafValues></_>
        <_>
          <internalNodes>
            0 -1 141 -9.1291796416044235e-03</internalNodes>
          <leafValues>
            3.7809526920318604e-01 -2.6972788572311401e-01</leafValues></_>
        <_>
          <internalNodes>
            0 -1 361 3.6703292280435562e-03</internalNodes>
          <leafValues>
            2.2605110704898834e-01 -4.2062294483184814e-01</leafValues></_>
        <_>
          <internalNodes>
            0 -1 56 9.4796836376190186e-02</internalNodes>
          <leafValues>
            -2.1320368349552155e-01 4.6127724647521973e-01</leafValues></_>
        <_>
          <internalNodes>
            0 -1 200 -6.0199029743671417e-02</internalNodes>
          <leafValues>
            3.5077211260795593e-01 -2.6196223497390747e-01</leafValues></_>
        <_>
          <internalNodes>
            0 -1 111 -1.6678584739565849e-02</internalNodes>
          <leafValues>
            -6.3195866346359253e-01 1.4475163817405701e-01</leafValues></_>
        <_>
          <internalNodes>
            0 -1 308 1.6330287326127291e-03</internalNodes>
          <leafValues>
            1.7971448600292206e-01 -4.1306957602500916e-01</leafValues></_></weakClassifiers></_>
    <!-- stage 19 -->
    <_>
      <maxWeakCount>24</maxWeakCount>
      <stageThreshold>-6.5110427141189575e-01</stageThreshold>
      <weakClassifiers>
        <_>
          <internalNodes>
            0 -1 39 -4.1109114885330200e-01</internalNodes>
          <leafValues>
            -9.2000001668930054e-01 4.1333332657814026e-01</leafValues></_>
        <_>
          <internalNodes>
            0 -1 321 -9.1734312474727631e-02</internalNodes>
          <leafValues>
            4.2857629060745239e-01 -1.7177315056324005e-01</leafValues></_>
        <_>
          <internalNodes>
            0 -1 115 -8.8875152869150043e-04</internalNodes>
          <leafValues>
            -3.2878211140632629e-01 2.5092458724975586e-01</leafValues></_>
        <_>
          <internalNodes>
            0 -1 63 1.0226824879646301e-01</internalNodes>
          <leafValues>
            -1.2527543306350708e-01 6.7033046483993530e-01</leafValues></_>
        <_>
          <internalNodes>
            0 -1 188 -1.6210938990116119e-01</internalNodes>
          <leafValues>
            8.3375465869903564e-01 -1.1485297977924347e-01</leafValues></_>
        <_>
          <internalNodes>
            0 -1 339 9.3330191448330879e-03</internalNodes>
          <leafValues>
            1.2850499153137207e-01 -7.0615100860595703e-01</leafValues></_>
        <_>
          <internalNodes>
            0 -1 248 -2.0390814170241356e-02</internalNodes>
          <leafValues>
            9.4579631090164185e-01 -1.0081594437360764e-01</leafValues></_>
        <_>
          <internalNodes>
            0 -1 354 -1.7468199133872986e-02</internalNodes>
          <leafValues>
            8.4479987621307373e-01 -4.4256869703531265e-02</leafValues></_>
        <_>
          <internalNodes>
            0 -1 343 -3.7301760166883469e-03</internalNodes>
          <leafValues>
            -3.4444540739059448e-01 1.8987040221691132e-01</leafValues></_>
        <_>
          <internalNodes>
            0 -1 270 2.7781829237937927e-02</internalNodes>
          <leafValues>
            -2.2079414129257202e-01 3.2041758298873901e-01</leafValues></_>
        <_>
          <internalNodes>
            0 -1 159 -4.6613164246082306e-02</internalNodes>
          <leafValues>
            5.1252353191375732e-01 -1.4643931388854980e-01</leafValues></_>
        <_>
          <internalNodes>
            0 -1 29 -2.0312266424298286e-02</internalNodes>
          <leafValues>
            -3.3297273516654968e-01 2.3480452597141266e-01</leafValues></_>
        <_>
          <internalNodes>
            0 -1 257 3.0153812840580940e-03</internalNodes>
          <leafValues>
            1.7249393463134766e-01 -3.9926701784133911e-01</leafValues></_>
        <_>
          <internalNodes>
            0 -1 237 1.0847371071577072e-02</internalNodes>
          <leafValues>
            -1.1895152926445007e-01 6.1514747142791748e-01</leafValues></_>
        <_>
          <internalNodes>
            0 -1 226 -3.5844832658767700e-02</internalNodes>
          <leafValues>
            6.9235593080520630e-01 -8.5806988179683685e-02</leafValues></_>
        <_>
          <internalNodes>
            0 -1 325 1.4237721450626850e-02</internalNodes>
          <leafValues>
            -1.1272070556879044e-01 5.3010064363479614e-01</leafValues></_>
        <_>
          <internalNodes>
            0 -1 142 4.0440459270030260e-04</internalNodes>
          <leafValues>
            2.2297586500644684e-01 -2.8158438205718994e-01</leafValues></_>
        <_>
          <internalNodes>
            0 -1 303 -2.0275437273085117e-03</internalNodes>
          <leafValues>
            -3.6966234445571899e-01 1.8260973691940308e-01</leafValues></_>
        <_>
          <internalNodes>
            0 -1 165 6.1574030667543411e-02</internalNodes>
          <leafValues>
            8.8453970849514008e-02 -7.2775435447692871e-01</leafValues></_>
        <_>
          <internalNodes>
            0 -1 51 -5.5481202900409698e-02</internalNodes>
          <leafValues>
            -7.8880542516708374e-01 6.5826609730720520e-02</leafValues></_>
        <_>
          <internalNodes>
            0 -1 144 -1.7822682857513428e-02</internalNodes>
          <leafValues>
            7.1151566505432129e-01 -1.0202880948781967e-01</leafValues></_>
        <_>
          <internalNodes>
            0 -1 50 1.9781250506639481e-02</internalNodes>
          <leafValues>
            1.2876406311988831e-01 -5.3351008892059326e-01</leafValues></_>
        <_>
          <internalNodes>
            0 -1 318 -5.5743299424648285e-02</internalNodes>
          <leafValues>
            5.3049719333648682e-01 -1.2746529281139374e-01</leafValues></_>
        <_>
          <internalNodes>
            0 -1 373 -3.8939421065151691e-03</internalNodes>
          <leafValues>
            -3.4699597954750061e-01 1.7596359550952911e-01</leafValues></_></weakClassifiers></_></stages>
  <features>
    <_>
      <rects>
        <_>
          0 0 2 1 -1.</_>
        <_>
          1 0 1 1 2.</_></rects>
      <tilted>0</tilted></_>
    <_>
      <rects>
        <_>
          0 0 1 2 -1.</_>
        <_>
          0 1 1 1 2.</_></rects>
      <tilted>0</tilted></_>
    <_>
      <rects>
        <_>
          0 0 1 3 -1.</_>
        <_>
          0 1 1 1 3.</_></rects>
      <tilted>0</tilted></_>
    <_>
      <rects>
        <_>
          0 0 1 4 -1.</_>
        <_>
          0 2 1 2 2.</_></rects>
      <tilted>0</tilted></_>
    <_>
      <rects>
        <_>
          0 0 1 12 -1.</_>
        <_>
          0 6 1 6 2.</_></rects>
      <tilted>0</tilted></_>
    <_>
      <rects>
        <_>
          0 0 4 3 -1.</_>
        <_>
          2 0 2 3 2.</_></rects>
      <tilted>0</tilted></_>
    <_>
      <rects>
        <_>
          0 0 4 11 -1.</_>
        <_>
          2 0 2 11 2.</_></rects>
      <tilted>0</tilted></_>
    <_>
      <rects>
        <_>
          0 0 6 8 -1.</_>
        <_>
          3 0 3 8 2.</_></rects>
      <tilted>0</tilted></_>
    <_>
      <rects>
        <_>
          0 0 6 12 -1.</_>
        <_>
          3 0 3 12 2.</_></rects>
      <tilted>0</tilted></_>
    <_>
      <rects>
        <_>
          0 0 9 12 -1.</_>
        <_>
          3 0 3 12 3.</_></rects>
      <tilted>0</tilted></_>
    <_>
      <rects>
        <_>
          0 0 12 7 -1.</_>
        <_>
          4 0 4 7 3.</_></rects>
      <tilted>0</tilted></_>
    <_>
      <rects>
        <_>
          0 0 12 10 -1.</_>
        <_>
          4 0 4 10 3.</_></rects>
      <tilted>0</tilted></_>
    <_>
      <rects>
        <_>
          0 0 12 12 -1.</_>
        <_>
          4 0 4 12 3.</_></rects>
      <tilted>0</tilted></_>
    <_>
      <rects>
        <_>
          0 0 5 9 -1.</_>
        <_>
          0 3 5 3 3.</_></rects>
      <tilted>0</tilted></_>
    <_>
      <rects>
        <_>
          0 0 12 9 -1.</_>
        <_>
          6 0 6 9 2.</_></rects>
      <tilted>0</tilted></_>
    <_>
      <rects>
        <_>
          0 0 8 6 -1.</_>
        <_>
          0 3 8 3 2.</_></rects>
      <tilted>0</tilted></_>
    <_>
      <rects>
        <_>
          0 0 11 4 -1.</_>
        <_>
          0 2 11 2 2.</_></rects>
      <tilted>0</tilted></_>
    <_>
      <rects>
        <_>
          0 0 12 4 -1.</_>
        <_>
          0 2 12 2 2.</_></rects>
      <tilted>0</tilted></_>
    <_>
      <rects>
        <_>
          0 1 4 3 -1.</_>
        <_>
          2 1 2 3 2.</_></rects>
      <tilted>0</tilted></_>
    <_>
      <rects>
        <_>
          0 1 4 5 -1.</_>
        <_>
          2 1 2 5 2.</_></rects>
      <tilted>0</tilted></_>
    <_>
      <rects>
        <_>
          0 1 6 8 -1.</_>
        <_>
          2 1 2 8 3.</_></rects>
      <tilted>0</tilted></_>
    <_>
      <rects>
        <_>
          0 1 3 2 -1.</_>
        <_>
          0 2 3 1 2.</_></rects>
      <tilted>0</tilted></_>
    <_>
      <rects>
        <_>
          0 1 9 6 -1.</_>
        <_>
          3 1 3 6 3.</_></rects>
      <tilted>0</tilted></_>
    <_>
      <rects>
        <_>
          0 1 9 9 -1.</_>
        <_>
          3 1 3 9 3.</_></rects>
      <tilted>0</tilted></_>
    <_>
      <rects>
        <_>
          0 1 12 9 -1.</_>
        <_>
          6 1 6 9 2.</_></rects>
      <tilted>0</tilted></_>
    <_>
      <rects>
        <_>
          0 2 1 2 -1.</_>
        <_>
          0 3 1 1 2.</_></rects>
      <tilted>0</tilted></_>
    <_>
      <rects>
        <_>
          0 2 1 3 -1.</_>
        <_>
          0 3 1 1 3.</_></rects>
      <tilted>0</tilted></_>
    <_>
      <rects>
        <_>
          0 2 9 4 -1.</_>
        <_>
          3 2 3 4 3.</_></rects>
      <tilted>0</tilted></_>
    <_>
      <rects>
        <_>
          0 2 12 6 -1.</_>
        <_>
          4 2 4 6 3.</_></rects>
      <tilted>0</tilted></_>
    <_>
      <rects>
        <_>
          0 2 10 3 -1.</_>
        <_>
          5 2 5 3 2.</_></rects>
      <tilted>0</tilted></_>
    <_>
      <rects>
        <_>
          0 2 8 10 -1.</_>
        <_>
          0 7 8 5 2.</_></rects>
      <tilted>0</tilted></_>
    <_>
      <rects>
        <_>
          0 3 1 2 -1.</_>
        <_>
          0 4 1 1 2.</_></rects>
      <tilted>0</tilted></_>
    <_>
      <rects>
        <_>
          0 3 4 4 -1.</_>
        <_>
          2 3 2 4 2.</_></rects>
      <tilted>0</tilted></_>
    <_>
      <rects>
        <_>
          0 3 3 6 -1.</_>
        <_>
          0 5 3 2 3.</_></rects>
      <tilted>0</tilted></_>
    <_>
      <rects>
        <_>
          0 3 12 8 -1.</_>
        <_>
          4 3 4 8 3.</_></rects>
      <tilted>0</tilted></_>
    <_>
      <rects>
        <_>
          0 3 5 4 -1.</_>
        <_>
          0 5 5 2 2.</_></rects>
      <tilted>0</tilted></_>
    <_>
      <rects>
        <_>
          0 3 12 1 -1.</_>
        <_>
          6 3 6 1 2.</_></rects>
      <tilted>0</tilted></_>
    <_>
      <rects>
        <_>
          0 3 12 5 -1.</_>
        <_>
          6 3 6 5 2.</_></rects>
      <tilted>0</tilted></_>
    <_>
      <rects>
        <_>
          0 3 11 3 -1.</_>
        <_>
          0 4 11 1 3.</_></rects>
      <tilted>0</tilted></_>
    <_>
      <rects>
        <_>
          0 3 12 6 -1.</_>
        <_>
          0 6 12 3 2.</_></rects>
      <tilted>0</tilted></_>
    <_>
      <rects>
        <_>
          0 4 2 1 -1.</_>
        <_>
          1 4 1 1 2.</_></rects>
      <tilted>0</tilted></_>
    <_>
      <rects>
        <_>
          0 4 12 5 -1.</_>
        <_>
          6 4 6 5 2.</_></rects>
      <tilted>0</tilted></_>
    <_>
      <rects>
        <_>
          0 5 12 2 -1.</_>
        <_>
          6 5 6 2 2.</_></rects>
      <tilted>0</tilted></_>
    <_>
      <rects>
        <_>
          0 5 12 7 -1.</_>
        <_>
          6 5 6 7 2.</_></rects>
      <tilted>0</tilted></_>
    <_>
      <rects>
        <_>
          0 5 10 2 -1.</_>
        <_>
          0 6 10 1 2.</_></rects>
      <tilted>0</tilted></_>
    <_>
      <rects>
        <_>
          0 6 2 2 -1.</_>
        <_>
          0 6 1 1 2.</_>
        <_>
          1 7 1 1 2.</_></rects>
      <tilted>0</tilted></_>
    <_>
      <rects>
        <_>
          0 6 12 6 -1.</_>
        <_>
          4 6 4 6 3.</_></rects>
      <tilted>0</tilted></_>
    <_>
      <rects>
        <_>
          0 6 10 1 -1.</_>
        <_>
          5 6 5 1 2.</_></rects>
      <tilted>0</tilted></_>
    <_>
      <rects>
        <_>
          0 6 12 4 -1.</_>
        <_>
          0 8 12 2 2.</_></rects>
      <tilted>0</tilted></_>
    <_>
      <rects>
        <_>
          0 7 1 3 -1.</_>
        <_>
          0 8 1 1 3.</_></rects>
      <tilted>0</tilted></_>
    <_>
      <rects>
        <_>
          0 7 1 4 -1.</_>
        <_>
          0 9 1 2 2.</_></rects>
      <tilted>0</tilted></_>
    <_>
      <rects>
        <_>
          0 7 3 2 -1.</_>
        <_>
          1 7 1 2 3.</_></rects>
      <tilted>0</tilted></_>
    <_>
      <rects>
        <_>
          0 7 8 4 -1.</_>
        <_>
          0 7 4 2 2.</_>
        <_>
          4 9 4 2 2.</_></rects>
      <tilted>0</tilted></_>
    <_>
      <rects>
        <_>
          0 8 3 3 -1.</_>
        <_>
          1 8 1 3 3.</_></rects>
      <tilted>0</tilted></_>
    <_>
      <rects>
        <_>
          0 8 4 3 -1.</_>
        <_>
          0 9 4 1 3.</_></rects>
      <tilted>0</tilted></_>
    <_>
      <rects>
        <_>
          0 9 3 1 -1.</_>
        <_>
          1 9 1 1 3.</_></rects>
      <tilted>0</tilted></_>
    <_>
      <rects>
        <_>
          0 9 12 2 -1.</_>
        <_>
          4 9 4 2 3.</_></rects>
      <tilted>0</tilted></_>
    <_>
      <rects>
        <_>
          0 10 3 2 -1.</_>
        <_>
          0 11 3 1 2.</_></rects>
      <tilted>0</tilted></_>
    <_>
      <rects>
        <_>
          1 0 2 1 -1.</_>
        <_>
          2 0 1 1 2.</_></rects>
      <tilted>0</tilted></_>
    <_>
      <rects>
        <_>
          1 0 1 2 -1.</_>
        <_>
          1 1 1 1 2.</_></rects>
      <tilted>0</tilted></_>
    <_>
      <rects>
        <_>
          1 0 3 6 -1.</_>
        <_>
          1 3 3 3 2.</_></rects>
      <tilted>0</tilted></_>
    <_>
      <rects>
        <_>
          1 0 9 5 -1.</_>
        <_>
          4 0 3 5 3.</_></rects>
      <tilted>0</tilted></_>
    <_>
      <rects>
        <_>
          1 0 4 2 -1.</_>
        <_>
          1 1 4 1 2.</_></rects>
      <tilted>0</tilted></_>
    <_>
      <rects>
        <_>
          1 0 8 3 -1.</_>
        <_>
          5 0 4 3 2.</_></rects>
      <tilted>0</tilted></_>
    <_>
      <rects>
        <_>
          1 0 4 9 -1.</_>
        <_>
          1 3 4 3 3.</_></rects>
      <tilted>0</tilted></_>
    <_>
      <rects>
        <_>
          1 0 8 10 -1.</_>
        <_>
          1 0 4 5 2.</_>
        <_>
          5 5 4 5 2.</_></rects>
      <tilted>0</tilted></_>
    <_>
      <rects>
        <_>
          1 0 6 4 -1.</_>
        <_>
          1 2 6 2 2.</_></rects>
      <tilted>0</tilted></_>
    <_>
      <rects>
        <_>
          1 0 11 12 -1.</_>
        <_>
          1 6 11 6 2.</_></rects>
      <tilted>0</tilted></_>
    <_>
      <rects>
        <_>
          1 1 1 4 -1.</_>
        <_>
          1 3 1 2 2.</_></rects>
      <tilted>0</tilted></_>
    <_>
      <rects>
        <_>
          1 1 2 6 -1.</_>
        <_>
          1 1 1 3 2.</_>
        <_>
          2 4 1 3 2.</_></rects>
      <tilted>0</tilted></_>
    <_>
      <rects>
        <_>
          1 1 2 10 -1.</_>
        <_>
          1 1 1 5 2.</_>
        <_>
          2 6 1 5 2.</_></rects>
      <tilted>0</tilted></_>
    <_>
      <rects>
        <_>
          1 1 6 3 -1.</_>
        <_>
          1 2 6 1 3.</_></rects>
      <tilted>0</tilted></_>
    <_>
      <rects>
        <_>
          1 1 10 2 -1.</_>
        <_>
          1 2 10 1 2.</_></rects>
      <tilted>0</tilted></_>
    <_>
      <rects>
        <_>
          1 2 2 2 -1.</_>
        <_>
          1 3 2 1 2.</_></rects>
      <tilted>0</tilted></_>
    <_>
      <rects>
        <_>
          1 2 2 6 -1.</_>
        <_>
          1 4 2 2 3.</_></rects>
      <tilted>0</tilted></_>
    <_>
      <rects>
        <_>
          1 2 9 6 -1.</_>
        <_>
          1 4 9 2 3.</_></rects>
      <tilted>0</tilted></_>
    <_>
      <rects>
        <_>
          1 3 1 2 -1.</_>
        <_>
          1 4 1 1 2.</_></rects>
      <tilted>0</tilted></_>
    <_>
      <rects>
        <_>
          1 3 2 4 -1.</_>
        <_>
          1 3 1 2 2.</_>
        <_>
          2 5 1 2 2.</_></rects>
      <tilted>0</tilted></_>
    <_>
      <rects>
        <_>
