<?xml version="1.0"?>
<opencv_storage>
<cascade>
  <stageType>BOOST</stageType>
  <featureType>HAAR</featureType>
  <height>87</height>
  <width>56</width>
  <stageParams>
    <boostType>GAB</boostType>
    <minHitRate>9.9900001287460327e-01</minHitRate>
    <maxFalseAlarm>5.0000000000000000e-01</maxFalseAlarm>
    <weightTrimRate>9.4999999999999996e-01</weightTrimRate>
    <maxDepth>1</maxDepth>
    <maxWeakCount>100</maxWeakCount></stageParams>
  <featureParams>
    <maxCatCount>0</maxCatCount>
    <featSize>1</featSize>
    <mode>BASIC</mode></featureParams>
  <stageNum>10</stageNum>
  <stages>
    <!-- stage 0 -->
    <_>
      <maxWeakCount>1</maxWeakCount>
      <stageThreshold>8.5185188055038452e-01</stageThreshold>
      <weakClassifiers>
        <_>
          <internalNodes>
            0 -1 8 -1.6349990619346499e-04</internalNodes>
          <leafValues>
            8.5185188055038452e-01 -1.</leafValues></_></weakClassifiers></_>
    <!-- stage 1 -->
    <_>
      <maxWeakCount>2</maxWeakCount>
      <stageThreshold>-2.6835450530052185e-01</stageThreshold>
      <weakClassifiers>
        <_>
          <internalNodes>
            0 -1 14 1.5597967430949211e-02</internalNodes>
          <leafValues>
            -9.8936170339584351e-01 7.6785713434219360e-01</leafValues></_>
        <_>
          <internalNodes>
            0 -1 7 -1.9004341214895248e-02</internalNodes>
          <leafValues>
            7.2100722789764404e-01 -9.7954607009887695e-01</leafValues></_></weakClassifiers></_>
    <!-- stage 2 -->
    <_>
      <maxWeakCount>2</maxWeakCount>
      <stageThreshold>-1.1827924102544785e-01</stageThreshold>
      <weakClassifiers>
        <_>
          <internalNodes>
            0 -1 0 -2.1676504984498024e-03</internalNodes>
          <leafValues>
            7.8181821107864380e-01 -9.7894734144210815e-01</leafValues></_>
        <_>
          <internalNodes>
            0 -1 16 1.1865070089697838e-02</internalNodes>
          <leafValues>
            -9.0009742975234985e-01 9.5126950740814209e-01</leafValues></_></weakClassifiers></_>
    <!-- stage 3 -->
    <_>
      <maxWeakCount>2</maxWeakCount>
      <stageThreshold>-2.3563478887081146e-01</stageThreshold>
      <weakClassifiers>
        <_>
          <internalNodes>
            0 -1 10 -1.7195388863910921e-05</internalNodes>
          <leafValues>
            7.0434784889221191e-01 -9.7837835550308228e-01</leafValues></_>
        <_>
          <internalNodes>
            0 -1 6 1.0373169789090753e-04</internalNodes>
          <leafValues>
            -9.3998259305953979e-01 7.4918258190155029e-01</leafValues></_></weakClassifiers></_>
    <!-- stage 4 -->
    <_>
      <maxWeakCount>2</maxWeakCount>
      <stageThreshold>-3.4029412269592285e-01</stageThreshold>
      <weakClassifiers>
        <_>
          <internalNodes>
            0 -1 13 6.2855891883373260e-03</internalNodes>
          <leafValues>
            -9.0769231319427490e-01 7.3333334922790527e-01</leafValues></_>
        <_>
          <internalNodes>
            0 -1 11 -2.0292226690798998e-04</internalNodes>
          <leafValues>
            5.6739819049835205e-01 -1.</leafValues></_></weakClassifiers></_>
    <!-- stage 5 -->
    <_>
      <maxWeakCount>2</maxWeakCount>
      <stageThreshold>-4.4204470515251160e-01</stageThreshold>
      <weakClassifiers>
        <_>
          <internalNodes>
            0 -1 17 -4.8709139227867126e-03</internalNodes>
          <leafValues>
            4.8837208747863770e-01 -9.5321637392044067e-01</leafValues></_>
        <_>
          <internalNodes>
            0 -1 2 -3.6028919275850058e-03</internalNodes>
          <leafValues>
            5.1117169857025146e-01 -1.</leafValues></_></weakClassifiers></_>
    <!-- stage 6 -->
    <_>
      <maxWeakCount>2</maxWeakCount>
      <stageThreshold>-2.6400601863861084e-01</stageThreshold>
      <weakClassifiers>
        <_>
          <internalNodes>
            0 -1 12 -1.2696495279669762e-02</internalNodes>
          <leafValues>
            5.9016394615173340e-01 -9.6629214286804199e-01</leafValues></_>
        <_>
          <internalNodes>
            0 -1 5 -1.9659366458654404e-02</internalNodes>
          <leafValues>
            7.9806053638458252e-01 -8.5416996479034424e-01</leafValues></_></weakClassifiers></_>
    <!-- stage 7 -->
    <_>
      <maxWeakCount>1</maxWeakCount>
      <stageThreshold>4.7058823704719543e-01</stageThreshold>
      <weakClassifiers>
        <_>
          <internalNodes>
            0 -1 4 -4.2359923099866137e-05</internalNodes>
          <leafValues>
            4.7058823704719543e-01 -1.</leafValues></_></weakClassifiers></_>
    <!-- stage 8 -->
    <_>
      <maxWeakCount>2</maxWeakCount>
      <stageThreshold>-3.2347708940505981e-01</stageThreshold>
      <weakClassifiers>
        <_>
          <internalNodes>
            0 -1 3 -2.8074599802494049e-02</internalNodes>
          <leafValues>
            7.6470589637756348e-01 -8.9898991584777832e-01</leafValues></_>
        <_>
          <internalNodes>
            0 -1 9 1.2445157153706532e-05</internalNodes>
          <leafValues>
            -1. 5.7551282644271851e-01</leafValues></_></weakClassifiers></_>
    <!-- stage 9 -->
    <_>
      <maxWeakCount>2</maxWeakCount>
      <stageThreshold>-3.9030694961547852e-01</stageThreshold>
      <weakClassifiers>
        <_>
          <internalNodes>
            0 -1 15 3.9580430835485458e-02</internalNodes>
          <leafValues>
            -9.5505619049072266e-01 5.7377046346664429e-01</leafValues></_>
        <_>
          <internalNodes>
            0 -1 1 -3.2128631137311459e-03</internalNodes>
          <leafValues>
            5.6474924087524414e-01 -1.</leafValues></_></weakClassifiers></_></stages>
  <features>
    <_>
      <rects>
        <_>
          5 37 6 12 -1.</_>
        <_>
          8 37 3 12 2.</_></rects>
      <tilted>0</tilted></_>
    <_>
      <rects>
        <_>
          6 25 28 10 -1.</_>
        <_>
          6 30 28 5 2.</_></rects>
      <tilted>0</tilted></_>
    <_>
      <rects>
        <_>
          9 44 24 6 -1.</_>
        <_>
          17 44 8 6 3.</_></rects>
      <tilted>0</tilted></_>
    <_>
      <rects>
        <_>
          14 5 30 22 -1.</_>
        <_>
          24 5 10 22 3.</_></rects>
      <tilted>0</tilted></_>
    <_>
      <rects>
        <_>
          16 42 24 7 -1.</_>
        <_>
          28 42 12 7 2.</_></rects>
      <tilted>0</tilted></_>
    <_>
      <rects>
        <_>
          22 22 29 14 -1.</_>
        <_>
          22 29 29 7 2.</_></rects>
      <tilted>0</tilted></_>
    <_>
      <rects>
        <_>
          25 40 4 4 -1.</_>
        <_>
          25 40 2 2 2.</_>
        <_>
          27 42 2 2 2.</_></rects>
      <tilted>0</tilted></_>
    <_>
      <rects>
        <_>
          26 22 22 30 -1.</_>
        <_>
          26 22 11 15 2.</_>
        <_>
          37 37 11 15 2.</_></rects>
      <tilted>0</tilted></_>
    <_>
      <rects>
        <_>
          26 43 4 3 -1.</_>
        <_>
          26 44 4 1 3.</_></rects>
      <tilted>0</tilted></_>
    <_>
      <rects>
        <_>
          27 39 8 8 -1.</_>
        <_>
          31 39 4 8 2.</_></rects>
      <tilted>0</tilted></_>
    <_>
      <rects>
        <_>
          27 43 2 2 -1.</_>
        <_>
          27 43 1 1 2.</_>
        <_>
          28 44 1 1 2.</_></rects>
      <tilted>0</tilted></_>
    <_>
      <rects>
        <_>
          28 45 4 6 -1.</_>
        <_>
          28 47 4 2 3.</_></rects>
      <tilted>0</tilted></_>
    <_>
      <rects>
        <_>
          32 26 15 29 -1.</_>
        <_>
          37 26 5 29 3.</_></rects>
      <tilted>0</tilted></_>
    <_>
      <rects>
        <_>
          32 60 22 12 -1.</_>
        <_>
          32 60 11 6 2.</_>
        <_>
          43 66 11 6 2.</_></rects>
      <tilted>0</tilted></_>
    <_>
      <rects>
        <_>
          37 25 14 18 -1.</_>
        <_>
          44 25 7 18 2.</_></rects>
      <tilted>0</tilted></_>
    <_>
      <rects>
        <_>
          42 0 12 57 -1.</_>
        <_>
          42 19 12 19 3.</_></rects>
      <tilted>0</tilted></_>
    <_>
      <rects>
        <_>
          42 20 14 22 -1.</_>
        <_>
          42 20 7 11 2.</_>
        <_>
          49 31 7 11 2.</_></rects>
      <tilted>0</tilted></_>
    <_>
      <rects>
        <_>
          49 21 1 46 -1.</_>
        <_>
          49 44 1 23 2.</_></rects>
      <tilted>0</tilted></_></features></cascade>
</opencv_storage>
