<?xml version="1.0"?>
<opencv_storage>
<cascade>
  <stageType>BOOST</stageType>
  <featureType>HAAR</featureType>
  <height>62</height>
  <width>85</width>
  <stageParams>
    <boostType>GAB</boostType>
    <minHitRate>9.9900001287460327e-01</minHitRate>
    <maxFalseAlarm>5.0000000000000000e-01</maxFalseAlarm>
    <weightTrimRate>9.4999999999999996e-01</weightTrimRate>
    <maxDepth>1</maxDepth>
    <maxWeakCount>100</maxWeakCount></stageParams>
  <featureParams>
    <maxCatCount>0</maxCatCount>
    <featSize>1</featSize>
    <mode>BASIC</mode></featureParams>
  <stageNum>6</stageNum>
  <stages>
    <!-- stage 0 -->
    <_>
      <maxWeakCount>1</maxWeakCount>
      <stageThreshold>1.</stageThreshold>
      <weakClassifiers>
        <_>
          <internalNodes>
            0 -1 1 1.8037398112937808e-03</internalNodes>
          <leafValues>
            -1. 1.</leafValues></_></weakClassifiers></_>
    <!-- stage 1 -->
    <_>
      <maxWeakCount>1</maxWeakCount>
      <stageThreshold>9.4174754619598389e-01</stageThreshold>
      <weakClassifiers>
        <_>
          <internalNodes>
            0 -1 7 1.0138605721294880e-03</internalNodes>
          <leafValues>
            -1. 9.4174754619598389e-01</leafValues></_></weakClassifiers></_>
    <!-- stage 2 -->
    <_>
      <maxWeakCount>2</maxWeakCount>
      <stageThreshold>-3.3162824809551239e-02</stageThreshold>
      <weakClassifiers>
        <_>
          <internalNodes>
            0 -1 0 -1.5779191628098488e-02</internalNodes>
          <leafValues>
            1. -9.8019802570343018e-01</leafValues></_>
        <_>
          <internalNodes>
            0 -1 3 -3.5385959781706333e-03</internalNodes>
          <leafValues>
            9.4703519344329834e-01 -1.</leafValues></_></weakClassifiers></_>
    <!-- stage 3 -->
    <_>
      <maxWeakCount>2</maxWeakCount>
      <stageThreshold>-6.0508053749799728e-02</stageThreshold>
      <weakClassifiers>
        <_>
          <internalNodes>
            0 -1 5 -9.1988639906048775e-04</internalNodes>
          <leafValues>
            9.5698922872543335e-01 -9.1304349899291992e-01</leafValues></_>
        <_>
          <internalNodes>
            0 -1 4 -4.4842328876256943e-02</internalNodes>
          <leafValues>
            8.5253542661666870e-01 -9.5326250791549683e-01</leafValues></_></weakClassifiers></_>
    <!-- stage 4 -->
    <_>
      <maxWeakCount>2</maxWeakCount>
      <stageThreshold>-1.6642411053180695e-01</stageThreshold>
      <weakClassifiers>
        <_>
          <internalNodes>
            0 -1 6 2.5100773200392723e-04</internalNodes>
          <leafValues>
            -9.3939393758773804e-01 8.4313726425170898e-01</leafValues></_>
        <_>
          <internalNodes>
            0 -1 8 -4.4054619502276182e-04</internalNodes>
          <leafValues>
            7.7296984195709229e-01 -9.8031753301620483e-01</leafValues></_></weakClassifiers></_>
    <!-- stage 5 -->
    <_>
      <maxWeakCount>2</maxWeakCount>
      <stageThreshold>-1.0328753292560577e-01</stageThreshold>
      <weakClassifiers>
        <_>
          <internalNodes>
            0 -1 9 6.9916993379592896e-03</internalNodes>
          <leafValues>
            -9.0384614467620850e-01 9.5652174949645996e-01</leafValues></_>
        <_>
          <internalNodes>
            0 -1 2 -5.1108808256685734e-03</internalNodes>
          <leafValues>
            8.0055862665176392e-01 -9.8071277141571045e-01</leafValues></_></weakClassifiers></_></stages>
  <features>
    <_>
      <rects>
        <_>
          29 34 20 14 -1.</_>
        <_>
          39 34 10 14 2.</_></rects>
      <tilted>0</tilted></_>
    <_>
      <rects>
        <_>
          31 34 14 4 -1.</_>
        <_>
          31 34 7 2 2.</_>
        <_>
          38 36 7 2 2.</_></rects>
      <tilted>0</tilted></_>
    <_>
      <rects>
        <_>
          34 12 8 18 -1.</_>
        <_>
          34 12 4 9 2.</_>
        <_>
          38 21 4 9 2.</_></rects>
      <tilted>0</tilted></_>
    <_>
      <rects>
        <_>
          34 35 10 11 -1.</_>
        <_>
          39 35 5 11 2.</_></rects>
      <tilted>0</tilted></_>
    <_>
      <rects>
        <_>
          35 43 42 15 -1.</_>
        <_>
          56 43 21 15 2.</_></rects>
      <tilted>0</tilted></_>
    <_>
      <rects>
        <_>
          36 29 2 5 -1.</_>
        <_>
          37 29 1 5 2.</_></rects>
      <tilted>0</tilted></_>
    <_>
      <rects>
        <_>
          37 28 2 4 -1.</_>
        <_>
          37 28 1 2 2.</_>
        <_>
          38 30 1 2 2.</_></rects>
      <tilted>0</tilted></_>
    <_>
      <rects>
        <_>
          43 24 2 6 -1.</_>
        <_>
          43 27 2 3 2.</_></rects>
      <tilted>0</tilted></_>
    <_>
      <rects>
        <_>
          46 37 1 8 -1.</_>
        <_>
          46 41 1 4 2.</_></rects>
      <tilted>0</tilted></_>
    <_>
      <rects>
        <_>
          71 12 10 16 -1.</_>
        <_>
          76 12 5 16 2.</_></rects>
      <tilted>0</tilted></_></features></cascade>
</opencv_storage>
