<?xml version="1.0"?>
<opencv_storage>
<cascade>
  <stageType>BOOST</stageType>
  <featureType>HAAR</featureType>
  <height>59</height>
  <width>66</width>
  <stageParams>
    <boostType>GAB</boostType>
    <minHitRate>9.9900001287460327e-01</minHitRate>
    <maxFalseAlarm>5.0000000000000000e-01</maxFalseAlarm>
    <weightTrimRate>9.4999999999999996e-01</weightTrimRate>
    <maxDepth>1</maxDepth>
    <maxWeakCount>100</maxWeakCount></stageParams>
  <featureParams>
    <maxCatCount>0</maxCatCount>
    <featSize>1</featSize>
    <mode>BASIC</mode></featureParams>
  <stageNum>10</stageNum>
  <stages>
    <!-- stage 0 -->
    <_>
      <maxWeakCount>3</maxWeakCount>
      <stageThreshold>-1.4006520509719849e+00</stageThreshold>
      <weakClassifiers>
        <_>
          <internalNodes>
            0 -1 6 -9.8954495042562485e-03</internalNodes>
          <leafValues>
            7.4074071645736694e-01 -9.9043822288513184e-01</leafValues></_>
        <_>
          <internalNodes>
            0 -1 9 -9.5763867720961571e-03</internalNodes>
          <leafValues>
            7.5690621137619019e-01 -9.8122900724411011e-01</leafValues></_>
        <_>
          <internalNodes>
            0 -1 7 -5.3356021642684937e-02</internalNodes>
          <leafValues>
            5.7101517915725708e-01 -9.7960311174392700e-01</leafValues></_></weakClassifiers></_>
    <!-- stage 1 -->
    <_>
      <maxWeakCount>3</maxWeakCount>
      <stageThreshold>-1.3822674751281738e+00</stageThreshold>
      <weakClassifiers>
        <_>
          <internalNodes>
            0 -1 23 -1.0114144533872604e-02</internalNodes>
          <leafValues>
            5.0819671154022217e-01 -9.8710715770721436e-01</leafValues></_>
        <_>
          <internalNodes>
            0 -1 12 6.5191701054573059e-02</internalNodes>
          <leafValues>
            -9.5600044727325439e-01 6.1524939537048340e-01</leafValues></_>
        <_>
          <internalNodes>
            0 -1 19 -1.4219632372260094e-02</internalNodes>
          <leafValues>
            6.9923108816146851e-01 -9.3446373939514160e-01</leafValues></_></weakClassifiers></_>
    <!-- stage 2 -->
    <_>
      <maxWeakCount>3</maxWeakCount>
      <stageThreshold>-1.3589769601821899e+00</stageThreshold>
      <weakClassifiers>
        <_>
          <internalNodes>
            0 -1 24 -1.5599643811583519e-03</internalNodes>
          <leafValues>
            6.7567569017410278e-01 -9.4103956222534180e-01</leafValues></_>
        <_>
          <internalNodes>
            0 -1 0 -5.7903084903955460e-02</internalNodes>
          <leafValues>
            5.2507776021957397e-01 -9.7446250915527344e-01</leafValues></_>
        <_>
          <internalNodes>
            0 -1 28 -6.8412773543968797e-04</internalNodes>
          <leafValues>
            5.5652505159378052e-01 -9.0002429485321045e-01</leafValues></_></weakClassifiers></_>
    <!-- stage 3 -->
    <_>
      <maxWeakCount>3</maxWeakCount>
      <stageThreshold>-1.3829350471496582e+00</stageThreshold>
      <weakClassifiers>
        <_>
          <internalNodes>
            0 -1 25 -2.8216517530381680e-03</internalNodes>
          <leafValues>
            5.2941179275512695e-01 -9.4522690773010254e-01</leafValues></_>
        <_>
          <internalNodes>
            0 -1 11 1.4514246955513954e-02</internalNodes>
          <leafValues>
            -9.4983291625976562e-01 4.1371133923530579e-01</leafValues></_>
        <_>
          <internalNodes>
            0 -1 26 4.8365932889282703e-03</internalNodes>
          <leafValues>
            -8.5141944885253906e-01 6.6429811716079712e-01</leafValues></_></weakClassifiers></_>
    <!-- stage 4 -->
    <_>
      <maxWeakCount>3</maxWeakCount>
      <stageThreshold>-1.4979231357574463e+00</stageThreshold>
      <weakClassifiers>
        <_>
          <internalNodes>
            0 -1 20 -4.2038364335894585e-04</internalNodes>
          <leafValues>
            2.8155338764190674e-01 -9.4603174924850464e-01</leafValues></_>
        <_>
          <internalNodes>
            0 -1 15 4.5836515724658966e-02</internalNodes>
          <leafValues>
            -8.9928549528121948e-01 4.9351558089256287e-01</leafValues></_>
        <_>
          <internalNodes>
            0 -1 22 -1.0515095666050911e-02</internalNodes>
          <leafValues>
            5.2647775411605835e-01 -8.8019108772277832e-01</leafValues></_></weakClassifiers></_>
    <!-- stage 5 -->
    <_>
      <maxWeakCount>3</maxWeakCount>
      <stageThreshold>-1.7686656713485718e+00</stageThreshold>
      <weakClassifiers>
        <_>
          <internalNodes>
            0 -1 1 -3.0045089125633240e-01</internalNodes>
          <leafValues>
            4.6153847128152847e-02 -9.4809406995773315e-01</leafValues></_>
        <_>
          <internalNodes>
            0 -1 3 -5.7495601475238800e-02</internalNodes>
          <leafValues>
            7.6625011861324310e-02 -9.5857733488082886e-01</leafValues></_>
        <_>
          <internalNodes>
            0 -1 10 6.2906080856919289e-03</internalNodes>
          <leafValues>
            -8.9719665050506592e-01 3.9154285192489624e-01</leafValues></_></weakClassifiers></_>
    <!-- stage 6 -->
    <_>
      <maxWeakCount>4</maxWeakCount>
      <stageThreshold>-2.1632044315338135e+00</stageThreshold>
      <weakClassifiers>
        <_>
          <internalNodes>
            0 -1 5 -1.3538023456931114e-02</internalNodes>
          <leafValues>
            3.6507937312126160e-01 -9.1230767965316772e-01</leafValues></_>
        <_>
          <internalNodes>
            0 -1 8 -1.1450457386672497e-03</internalNodes>
          <leafValues>
            6.0768944025039673e-01 -8.2075446844100952e-01</leafValues></_>
        <_>
          <internalNodes>
            0 -1 14 -1.3877437449991703e-03</internalNodes>
          <leafValues>
            4.8922112584114075e-01 -8.7726008892059326e-01</leafValues></_>
        <_>
          <internalNodes>
            0 -1 4 -1.4807358384132385e-01</internalNodes>
          <leafValues>
            4.4711792469024658e-01 -1.</leafValues></_></weakClassifiers></_>
    <!-- stage 7 -->
    <_>
      <maxWeakCount>3</maxWeakCount>
      <stageThreshold>-1.3729542493820190e+00</stageThreshold>
      <weakClassifiers>
        <_>
          <internalNodes>
            0 -1 21 1.8057398847304285e-04</internalNodes>
          <leafValues>
            -9.4720000028610229e-01 1.8584071099758148e-01</leafValues></_>
        <_>
          <internalNodes>
            0 -1 29 -5.2913717925548553e-02</internalNodes>
          <leafValues>
            4.7606104612350464e-01 -8.7131541967391968e-01</leafValues></_>
        <_>
          <internalNodes>
            0 -1 13 -3.2797214225865901e-04</internalNodes>
          <leafValues>
            -9.9509364366531372e-01 4.4556120038032532e-01</leafValues></_></weakClassifiers></_>
    <!-- stage 8 -->
    <_>
      <maxWeakCount>2</maxWeakCount>
      <stageThreshold>-6.9468492269515991e-01</stageThreshold>
      <weakClassifiers>
        <_>
          <internalNodes>
            0 -1 18 -4.1503165848553181e-03</internalNodes>
          <leafValues>
            3.3333334326744080e-01 -9.4924664497375488e-01</leafValues></_>
        <_>
          <internalNodes>
            0 -1 16 5.7999179261969402e-05</internalNodes>
          <leafValues>
            2.5456169247627258e-01 -9.9678814411163330e-01</leafValues></_></weakClassifiers></_>
    <!-- stage 9 -->
    <_>
      <maxWeakCount>3</maxWeakCount>
      <stageThreshold>-1.6480177640914917e+00</stageThreshold>
      <weakClassifiers>
        <_>
          <internalNodes>
            0 -1 2 -1.3707162439823151e-01</internalNodes>
          <leafValues>
            4.0259739756584167e-01 -9.2846035957336426e-01</leafValues></_>
        <_>
          <internalNodes>
            0 -1 27 -1.3648561201989651e-02</internalNodes>
          <leafValues>
            2.6295772194862366e-01 -9.8848170042037964e-01</leafValues></_>
        <_>
          <internalNodes>
            0 -1 17 2.9492834983102512e-06</internalNodes>
          <leafValues>
            -9.8251515626907349e-01 3.6540192365646362e-01</leafValues></_></weakClassifiers></_></stages>
  <features>
    <_>
      <rects>
        <_>
          0 8 22 20 -1.</_>
        <_>
          11 8 11 20 2.</_></rects>
      <tilted>0</tilted></_>
    <_>
      <rects>
        <_>
          3 13 36 42 -1.</_>
        <_>
          21 13 18 42 2.</_></rects>
      <tilted>0</tilted></_>
    <_>
      <rects>
        <_>
          3 40 54 13 -1.</_>
        <_>
          21 40 18 13 3.</_></rects>
      <tilted>0</tilted></_>
    <_>
      <rects>
        <_>
          6 8 60 24 -1.</_>
        <_>
          6 8 30 12 2.</_>
        <_>
          36 20 30 12 2.</_></rects>
      <tilted>0</tilted></_>
    <_>
      <rects>
        <_>
          6 10 48 43 -1.</_>
        <_>
          30 10 24 43 2.</_></rects>
      <tilted>0</tilted></_>
    <_>
      <rects>
        <_>
          8 52 57 1 -1.</_>
        <_>
          27 52 19 1 3.</_></rects>
      <tilted>0</tilted></_>
    <_>
      <rects>
        <_>
          9 25 10 7 -1.</_>
        <_>
          14 25 5 7 2.</_></rects>
      <tilted>0</tilted></_>
    <_>
      <rects>
        <_>
          10 39 24 13 -1.</_>
        <_>
          22 39 12 13 2.</_></rects>
      <tilted>0</tilted></_>
    <_>
      <rects>
        <_>
          12 22 4 2 -1.</_>
        <_>
          14 22 2 2 2.</_></rects>
      <tilted>0</tilted></_>
    <_>
      <rects>
        <_>
          13 36 12 5 -1.</_>
        <_>
          19 36 6 5 2.</_></rects>
      <tilted>0</tilted></_>
    <_>
      <rects>
        <_>
          14 47 15 8 -1.</_>
        <_>
          14 51 15 4 2.</_></rects>
      <tilted>0</tilted></_>
    <_>
      <rects>
        <_>
          15 3 2 50 -1.</_>
        <_>
          15 28 2 25 2.</_></rects>
      <tilted>0</tilted></_>
    <_>
      <rects>
        <_>
          15 41 43 18 -1.</_>
        <_>
          15 50 43 9 2.</_></rects>
      <tilted>0</tilted></_>
    <_>
      <rects>
        <_>
          17 15 28 17 -1.</_>
        <_>
          31 15 14 17 2.</_></rects>
      <tilted>0</tilted></_>
    <_>
      <rects>
        <_>
          17 28 6 11 -1.</_>
        <_>
          19 28 2 11 3.</_></rects>
      <tilted>0</tilted></_>
    <_>
      <rects>
        <_>
          18 47 37 12 -1.</_>
        <_>
          18 53 37 6 2.</_></rects>
      <tilted>0</tilted></_>
    <_>
      <rects>
        <_>
          20 22 24 6 -1.</_>
        <_>
          32 22 12 6 2.</_></rects>
      <tilted>0</tilted></_>
    <_>
      <rects>
        <_>
          26 21 28 29 -1.</_>
        <_>
          40 21 14 29 2.</_></rects>
      <tilted>0</tilted></_>
    <_>
      <rects>
        <_>
          28 27 13 9 -1.</_>
        <_>
          28 30 13 3 3.</_></rects>
      <tilted>0</tilted></_>
    <_>
      <rects>
        <_>
          32 9 28 16 -1.</_>
        <_>
          32 9 14 8 2.</_>
        <_>
          46 17 14 8 2.</_></rects>
      <tilted>0</tilted></_>
    <_>
      <rects>
        <_>
          32 30 2 3 -1.</_>
        <_>
          32 31 2 1 3.</_></rects>
      <tilted>0</tilted></_>
    <_>
      <rects>
        <_>
          32 31 2 2 -1.</_>
        <_>
          32 32 2 1 2.</_></rects>
      <tilted>0</tilted></_>
    <_>
      <rects>
        <_>
          33 2 9 10 -1.</_>
        <_>
          33 7 9 5 2.</_></rects>
      <tilted>0</tilted></_>
    <_>
      <rects>
        <_>
          34 3 10 10 -1.</_>
        <_>
          34 8 10 5 2.</_></rects>
      <tilted>0</tilted></_>
    <_>
      <rects>
        <_>
          36 7 10 4 -1.</_>
        <_>
          36 7 5 2 2.</_>
        <_>
          41 9 5 2 2.</_></rects>
      <tilted>0</tilted></_>
    <_>
      <rects>
        <_>
          39 8 10 6 -1.</_>
        <_>
          39 8 5 3 2.</_>
        <_>
          44 11 5 3 2.</_></rects>
      <tilted>0</tilted></_>
    <_>
      <rects>
        <_>
          42 8 22 8 -1.</_>
        <_>
          42 8 11 4 2.</_>
        <_>
          53 12 11 4 2.</_></rects>
      <tilted>0</tilted></_>
    <_>
      <rects>
        <_>
          52 6 6 39 -1.</_>
        <_>
          52 19 6 13 3.</_></rects>
      <tilted>0</tilted></_>
    <_>
      <rects>
        <_>
          56 14 4 18 -1.</_>
        <_>
          56 14 2 9 2.</_>
        <_>
          58 23 2 9 2.</_></rects>
      <tilted>0</tilted></_>
    <_>
      <rects>
        <_>
          58 11 8 48 -1.</_>
        <_>
          58 27 8 16 3.</_></rects>
      <tilted>0</tilted></_></features></cascade>
</opencv_storage>
