<?xml version="1.0"?>
<opencv_storage>
<cascade>
  <stageType>BOOST</stageType>
  <featureType>HAAR</featureType>
  <height>53</height>
  <width>44</width>
  <stageParams>
    <boostType>GAB</boostType>
    <minHitRate>9.9900001287460327e-01</minHitRate>
    <maxFalseAlarm>5.0000000000000000e-01</maxFalseAlarm>
    <weightTrimRate>9.4999999999999996e-01</weightTrimRate>
    <maxDepth>1</maxDepth>
    <maxWeakCount>100</maxWeakCount></stageParams>
  <featureParams>
    <maxCatCount>0</maxCatCount>
    <featSize>1</featSize>
    <mode>BASIC</mode></featureParams>
  <stageNum>8</stageNum>
  <stages>
    <!-- stage 0 -->
    <_>
      <maxWeakCount>1</maxWeakCount>
      <stageThreshold>9.2307692766189575e-01</stageThreshold>
      <weakClassifiers>
        <_>
          <internalNodes>
            0 -1 13 7.5555304065346718e-03</internalNodes>
          <leafValues>
            -1. 9.2307692766189575e-01</leafValues></_></weakClassifiers></_>
    <!-- stage 1 -->
    <_>
      <maxWeakCount>1</maxWeakCount>
      <stageThreshold>7.8571426868438721e-01</stageThreshold>
      <weakClassifiers>
        <_>
          <internalNodes>
            0 -1 10 5.1350938156247139e-04</internalNodes>
          <leafValues>
            -1. 7.8571426868438721e-01</leafValues></_></weakClassifiers></_>
    <!-- stage 2 -->
    <_>
      <maxWeakCount>2</maxWeakCount>
      <stageThreshold>-1.2406356632709503e-01</stageThreshold>
      <weakClassifiers>
        <_>
          <internalNodes>
            0 -1 3 -1.4150946401059628e-02</internalNodes>
          <leafValues>
            8.0582523345947266e-01 -9.2893403768539429e-01</leafValues></_>
        <_>
          <internalNodes>
            0 -1 6 -2.1384725347161293e-02</internalNodes>
          <leafValues>
            8.0487042665481567e-01 -9.0690749883651733e-01</leafValues></_></weakClassifiers></_>
    <!-- stage 3 -->
    <_>
      <maxWeakCount>2</maxWeakCount>
      <stageThreshold>-2.7630242705345154e-01</stageThreshold>
      <weakClassifiers>
        <_>
          <internalNodes>
            0 -1 7 -1.0333247482776642e-03</internalNodes>
          <leafValues>
            7.6363635063171387e-01 -9.6842104196548462e-01</leafValues></_>
        <_>
          <internalNodes>
            0 -1 1 -1.2859372794628143e-01</internalNodes>
          <leafValues>
            6.9211864471435547e-01 -9.7936803102493286e-01</leafValues></_></weakClassifiers></_>
    <!-- stage 4 -->
    <_>
      <maxWeakCount>2</maxWeakCount>
      <stageThreshold>-4.3493765592575073e-01</stageThreshold>
      <weakClassifiers>
        <_>
          <internalNodes>
            0 -1 9 -3.6956548690795898e-02</internalNodes>
          <leafValues>
            6.4912283420562744e-01 -9.3548387289047241e-01</leafValues></_>
        <_>
          <internalNodes>
            0 -1 11 3.3276579342782497e-03</internalNodes>
          <leafValues>
            -1. 5.0054621696472168e-01</leafValues></_></weakClassifiers></_>
    <!-- stage 5 -->
    <_>
      <maxWeakCount>2</maxWeakCount>
      <stageThreshold>-3.9218428730964661e-01</stageThreshold>
      <weakClassifiers>
        <_>
          <internalNodes>
            0 -1 0 -3.0719552189111710e-02</internalNodes>
          <leafValues>
            5.9322035312652588e-01 -9.3406593799591064e-01</leafValues></_>
        <_>
          <internalNodes>
            0 -1 12 1.3981081428937614e-04</internalNodes>
          <leafValues>
            -1. 5.4188162088394165e-01</leafValues></_></weakClassifiers></_>
    <!-- stage 6 -->
    <_>
      <maxWeakCount>2</maxWeakCount>
      <stageThreshold>-2.7205759286880493e-01</stageThreshold>
      <weakClassifiers>
        <_>
          <internalNodes>
            0 -1 5 -7.0014312863349915e-02</internalNodes>
          <leafValues>
            7.7083331346511841e-01 -8.5294115543365479e-01</leafValues></_>
        <_>
          <internalNodes>
            0 -1 4 -3.0751931481063366e-03</internalNodes>
          <leafValues>
            5.8088356256484985e-01 -9.8913383483886719e-01</leafValues></_></weakClassifiers></_>
    <!-- stage 7 -->
    <_>
      <maxWeakCount>3</maxWeakCount>
      <stageThreshold>-1.0779937505722046e+00</stageThreshold>
      <weakClassifiers>
        <_>
          <internalNodes>
            0 -1 14 -2.8304136358201504e-03</internalNodes>
          <leafValues>
            9.4736844301223755e-01 -7.6785713434219360e-01</leafValues></_>
        <_>
          <internalNodes>
            0 -1 8 4.5403069816529751e-04</internalNodes>
          <leafValues>
            -9.3722289800643921e-01 6.3154113292694092e-01</leafValues></_>
        <_>
          <internalNodes>
            0 -1 2 -5.3668809123337269e-03</internalNodes>
          <leafValues>
            6.2708628177642822e-01 -8.9750897884368896e-01</leafValues></_></weakClassifiers></_></stages>
  <features>
    <_>
      <rects>
        <_>
          2 12 30 4 -1.</_>
        <_>
          17 12 15 4 2.</_></rects>
      <tilted>0</tilted></_>
    <_>
      <rects>
        <_>
          3 4 16 40 -1.</_>
        <_>
          3 24 16 20 2.</_></rects>
      <tilted>0</tilted></_>
    <_>
      <rects>
        <_>
          3 19 32 6 -1.</_>
        <_>
          3 22 32 3 2.</_></rects>
      <tilted>0</tilted></_>
    <_>
      <rects>
        <_>
          4 16 12 8 -1.</_>
        <_>
          10 16 6 8 2.</_></rects>
      <tilted>0</tilted></_>
    <_>
      <rects>
        <_>
          6 9 6 16 -1.</_>
        <_>
          6 9 3 8 2.</_>
        <_>
          9 17 3 8 2.</_></rects>
      <tilted>0</tilted></_>
    <_>
      <rects>
        <_>
          11 10 30 9 -1.</_>
        <_>
          21 10 10 9 3.</_></rects>
      <tilted>0</tilted></_>
    <_>
      <rects>
        <_>
          16 7 11 18 -1.</_>
        <_>
          16 13 11 6 3.</_></rects>
      <tilted>0</tilted></_>
    <_>
      <rects>
        <_>
          16 26 6 4 -1.</_>
        <_>
          16 26 3 2 2.</_>
        <_>
          19 28 3 2 2.</_></rects>
      <tilted>0</tilted></_>
    <_>
      <rects>
        <_>
          17 24 2 18 -1.</_>
        <_>
          17 30 2 6 3.</_></rects>
      <tilted>0</tilted></_>
    <_>
      <rects>
        <_>
          17 24 27 5 -1.</_>
        <_>
          26 24 9 5 3.</_></rects>
      <tilted>0</tilted></_>
    <_>
      <rects>
        <_>
          19 25 4 4 -1.</_>
        <_>
          19 25 2 2 2.</_>
        <_>
          21 27 2 2 2.</_></rects>
      <tilted>0</tilted></_>
    <_>
      <rects>
        <_>
          21 36 9 8 -1.</_>
        <_>
          21 40 9 4 2.</_></rects>
      <tilted>0</tilted></_>
    <_>
      <rects>
        <_>
          22 22 3 6 -1.</_>
        <_>
          22 24 3 2 3.</_></rects>
      <tilted>0</tilted></_>
    <_>
      <rects>
        <_>
          31 20 4 14 -1.</_>
        <_>
          33 20 2 14 2.</_></rects>
      <tilted>0</tilted></_>
    <_>
      <rects>
        <_>
          33 23 2 12 -1.</_>
        <_>
          33 23 1 6 2.</_>
        <_>
          34 29 1 6 2.</_></rects>
      <tilted>0</tilted></_></features></cascade>
</opencv_storage>
