<?xml version="1.0"?>
<opencv_storage>
<cascade>
  <stageType>BOOST</stageType>
  <featureType>HAAR</featureType>
  <height>56</height>
  <width>51</width>
  <stageParams>
    <boostType>GAB</boostType>
    <minHitRate>9.9900001287460327e-01</minHitRate>
    <maxFalseAlarm>5.0000000000000000e-01</maxFalseAlarm>
    <weightTrimRate>9.4999999999999996e-01</weightTrimRate>
    <maxDepth>1</maxDepth>
    <maxWeakCount>100</maxWeakCount></stageParams>
  <featureParams>
    <maxCatCount>0</maxCatCount>
    <featSize>1</featSize>
    <mode>BASIC</mode></featureParams>
  <stageNum>20</stageNum>
  <stages>
    <!-- stage 0 -->
    <_>
      <maxWeakCount>3</maxWeakCount>
      <stageThreshold>-5.2479338645935059e-01</stageThreshold>
      <weakClassifiers>
        <_>
          <internalNodes>
            0 -1 52 -3.9182108594104648e-04</internalNodes>
          <leafValues>
            8.4761905670166016e-01 -6.8000000715255737e-01</leafValues></_>
        <_>
          <internalNodes>
            0 -1 14 -1.7292248085141182e-03</internalNodes>
          <leafValues>
            7.2607511281967163e-01 -6.5892440080642700e-01</leafValues></_>
        <_>
          <internalNodes>
            0 -1 63 -7.1085680974647403e-04</internalNodes>
          <leafValues>
            8.1413102149963379e-01 -4.5600801706314087e-01</leafValues></_></weakClassifiers></_>
    <!-- stage 1 -->
    <_>
      <maxWeakCount>3</maxWeakCount>
      <stageThreshold>-2.3192687332630157e-01</stageThreshold>
      <weakClassifiers>
        <_>
          <internalNodes>
            0 -1 56 -3.7010392406955361e-04</internalNodes>
          <leafValues>
            7.9904305934906006e-01 -5.6435644626617432e-01</leafValues></_>
        <_>
          <internalNodes>
            0 -1 26 -2.0304988720454276e-04</internalNodes>
          <leafValues>
            7.5850504636764526e-01 -4.5992022752761841e-01</leafValues></_>
        <_>
          <internalNodes>
            0 -1 11 -2.1264469251036644e-03</internalNodes>
          <leafValues>
            8.6861288547515869e-01 -4.2607548832893372e-01</leafValues></_></weakClassifiers></_>
    <!-- stage 2 -->
    <_>
      <maxWeakCount>3</maxWeakCount>
      <stageThreshold>7.4557021260261536e-02</stageThreshold>
      <weakClassifiers>
        <_>
          <internalNodes>
            0 -1 13 6.8422043113969266e-05</internalNodes>
          <leafValues>
            6.1417323350906372e-01 -8.2142859697341919e-01</leafValues></_>
        <_>
          <internalNodes>
            0 -1 70 -2.4339433366549201e-05</internalNodes>
          <leafValues>
            -8.4637230634689331e-01 4.1812595725059509e-01</leafValues></_>
        <_>
          <internalNodes>
            0 -1 20 -6.0107593890279531e-04</internalNodes>
          <leafValues>
            -8.1550318002700806e-01 4.7785964608192444e-01</leafValues></_></weakClassifiers></_>
    <!-- stage 3 -->
    <_>
      <maxWeakCount>4</maxWeakCount>
      <stageThreshold>-4.8366230726242065e-01</stageThreshold>
      <weakClassifiers>
        <_>
          <internalNodes>
            0 -1 21 4.8335034080082551e-05</internalNodes>
          <leafValues>
            6.2204724550247192e-01 -8.5714286565780640e-01</leafValues></_>
        <_>
          <internalNodes>
            0 -1 67 1.8068286590278149e-03</internalNodes>
          <leafValues>
            -6.0455518960952759e-01 5.7763701677322388e-01</leafValues></_>
        <_>
          <internalNodes>
            0 -1 5 2.5886685762088746e-05</internalNodes>
          <leafValues>
            4.5103874802589417e-01 -8.2245349884033203e-01</leafValues></_>
        <_>
          <internalNodes>
            0 -1 95 -1.0386238136561587e-04</internalNodes>
          <leafValues>
            -8.8499855995178223e-01 3.2129910588264465e-01</leafValues></_></weakClassifiers></_>
    <!-- stage 4 -->
    <_>
      <maxWeakCount>4</maxWeakCount>
      <stageThreshold>-4.1167509555816650e-01</stageThreshold>
      <weakClassifiers>
        <_>
          <internalNodes>
            0 -1 22 -2.7225029043620452e-05</internalNodes>
          <leafValues>
            -7.5384616851806641e-01 6.4897960424423218e-01</leafValues></_>
        <_>
          <internalNodes>
            0 -1 0 -1.9522827642504126e-05</internalNodes>
          <leafValues>
            -7.0890378952026367e-01 4.5671838521957397e-01</leafValues></_>
        <_>
          <internalNodes>
            0 -1 90 9.6009534900076687e-06</internalNodes>
          <leafValues>
            -4.8817187547683716e-01 6.8279725313186646e-01</leafValues></_>
        <_>
          <internalNodes>
            0 -1 96 2.7427253371570259e-05</internalNodes>
          <leafValues>
            3.7362456321716309e-01 -8.4640818834304810e-01</leafValues></_></weakClassifiers></_>
    <!-- stage 5 -->
    <_>
      <maxWeakCount>5</maxWeakCount>
      <stageThreshold>-1.3027709722518921e-01</stageThreshold>
      <weakClassifiers>
        <_>
          <internalNodes>
            0 -1 69 -1.3529052957892418e-02</internalNodes>
          <leafValues>
            -8.0327868461608887e-01 6.3855421543121338e-01</leafValues></_>
        <_>
          <internalNodes>
            0 -1 80 8.3192608144599944e-05</internalNodes>
          <leafValues>
            4.5445650815963745e-01 -6.3957059383392334e-01</leafValues></_>
        <_>
          <internalNodes>
            0 -1 15 -6.6059110686182976e-03</internalNodes>
          <leafValues>
            5.4395061731338501e-01 -6.1541306972503662e-01</leafValues></_>
        <_>
          <internalNodes>
            0 -1 36 -7.1558810304850340e-04</internalNodes>
          <leafValues>
            -7.7076560258865356e-01 4.0622788667678833e-01</leafValues></_>
        <_>
          <internalNodes>
            0 -1 6 -4.7044784878380597e-05</internalNodes>
          <leafValues>
            -8.3388268947601318e-01 4.2773029208183289e-01</leafValues></_></weakClassifiers></_>
    <!-- stage 6 -->
    <_>
      <maxWeakCount>5</maxWeakCount>
      <stageThreshold>-7.1476662158966064e-01</stageThreshold>
      <weakClassifiers>
        <_>
          <internalNodes>
            0 -1 23 -3.1236235052347183e-02</internalNodes>
          <leafValues>
            -9.2307692766189575e-01 6.1240309476852417e-01</leafValues></_>
        <_>
          <internalNodes>
            0 -1 39 6.8455113796517253e-04</internalNodes>
          <leafValues>
            -6.7955112457275391e-01 4.7888240218162537e-01</leafValues></_>
        <_>
          <internalNodes>
            0 -1 47 -9.1740446805488318e-05</internalNodes>
          <leafValues>
            -7.6142150163650513e-01 3.8267147541046143e-01</leafValues></_>
        <_>
          <internalNodes>
            0 -1 57 -2.2512694704346359e-04</internalNodes>
          <leafValues>
            2.8311800956726074e-01 -7.7710032463073730e-01</leafValues></_>
        <_>
          <internalNodes>
            0 -1 18 -2.7252133935689926e-02</internalNodes>
          <leafValues>
            -9.7739785909652710e-01 2.2207193076610565e-01</leafValues></_></weakClassifiers></_>
    <!-- stage 7 -->
    <_>
      <maxWeakCount>6</maxWeakCount>
      <stageThreshold>-4.5981374382972717e-01</stageThreshold>
      <weakClassifiers>
        <_>
          <internalNodes>
            0 -1 44 2.2132294252514839e-02</internalNodes>
          <leafValues>
            5.3676468133926392e-01 -9.4736844301223755e-01</leafValues></_>
        <_>
          <internalNodes>
            0 -1 81 -7.3067512130364776e-04</internalNodes>
          <leafValues>
            6.8470484018325806e-01 -4.4448614120483398e-01</leafValues></_>
        <_>
          <internalNodes>
            0 -1 33 -3.0765961855649948e-03</internalNodes>
          <leafValues>
            5.7230770587921143e-01 -5.0444245338439941e-01</leafValues></_>
        <_>
          <internalNodes>
            0 -1 51 -6.4537329599261284e-03</internalNodes>
          <leafValues>
            8.0561196804046631e-01 -3.7064939737319946e-01</leafValues></_>
        <_>
          <internalNodes>
            0 -1 93 -6.6876001656055450e-03</internalNodes>
          <leafValues>
            7.3632943630218506e-01 -3.8622781634330750e-01</leafValues></_>
        <_>
          <internalNodes>
            0 -1 3 -8.0089587718248367e-03</internalNodes>
          <leafValues>
            7.4120634794235229e-01 -3.6752280592918396e-01</leafValues></_></weakClassifiers></_>
    <!-- stage 8 -->
    <_>
      <maxWeakCount>6</maxWeakCount>
      <stageThreshold>-5.9077733755111694e-01</stageThreshold>
      <weakClassifiers>
        <_>
          <internalNodes>
            0 -1 42 -2.2602241951972246e-03</internalNodes>
          <leafValues>
            7.9459458589553833e-01 -2.9600000381469727e-01</leafValues></_>
        <_>
          <internalNodes>
            0 -1 1 3.3629592508077621e-05</internalNodes>
          <leafValues>
            4.6793234348297119e-01 -7.7272880077362061e-01</leafValues></_>
        <_>
          <internalNodes>
            0 -1 19 -2.1330132149159908e-03</internalNodes>
          <leafValues>
            5.1191103458404541e-01 -6.0854458808898926e-01</leafValues></_>
        <_>
          <internalNodes>
            0 -1 65 -1.6669983044266701e-02</internalNodes>
          <leafValues>
            9.0727806091308594e-01 -3.4454292058944702e-01</leafValues></_>
        <_>
          <internalNodes>
            0 -1 27 -1.3235010206699371e-02</internalNodes>
          <leafValues>
            9.5194655656814575e-01 -2.9460176825523376e-01</leafValues></_>
        <_>
          <internalNodes>
            0 -1 41 -2.4797176592983305e-05</internalNodes>
          <leafValues>
            -6.3547605276107788e-01 5.1268661022186279e-01</leafValues></_></weakClassifiers></_>
    <!-- stage 9 -->
    <_>
      <maxWeakCount>5</maxWeakCount>
      <stageThreshold>-5.2395343780517578e-01</stageThreshold>
      <weakClassifiers>
        <_>
          <internalNodes>
            0 -1 12 1.5287404879927635e-02</internalNodes>
          <leafValues>
            5.7692307233810425e-01 -8.0000001192092896e-01</leafValues></_>
        <_>
          <internalNodes>
            0 -1 59 -2.6096335204783827e-05</internalNodes>
          <leafValues>
            6.1964720487594604e-01 -4.4808268547058105e-01</leafValues></_>
        <_>
          <internalNodes>
            0 -1 32 -2.3760085241519846e-05</internalNodes>
          <leafValues>
            6.4893114566802979e-01 -5.1190173625946045e-01</leafValues></_>
        <_>
          <internalNodes>
            0 -1 61 1.4558041584677994e-05</internalNodes>
          <leafValues>
            -4.7926899790763855e-01 5.8257895708084106e-01</leafValues></_>
        <_>
          <internalNodes>
            0 -1 79 -2.5030597043951275e-06</internalNodes>
          <leafValues>
            6.7190027236938477e-01 -5.0738090276718140e-01</leafValues></_></weakClassifiers></_>
    <!-- stage 10 -->
    <_>
      <maxWeakCount>5</maxWeakCount>
      <stageThreshold>-3.8030833005905151e-01</stageThreshold>
      <weakClassifiers>
        <_>
          <internalNodes>
            0 -1 30 7.0445458404719830e-03</internalNodes>
          <leafValues>
            5.8490568399429321e-01 -1.</leafValues></_>
        <_>
          <internalNodes>
            0 -1 40 2.1006545284762979e-04</internalNodes>
          <leafValues>
            -5.9908103942871094e-01 5.9164756536483765e-01</leafValues></_>
        <_>
          <internalNodes>
            0 -1 73 -1.5616989912814461e-05</internalNodes>
          <leafValues>
            8.3830994367599487e-01 -4.6363204717636108e-01</leafValues></_>
        <_>
          <internalNodes>
            0 -1 29 8.5082994773983955e-03</internalNodes>
          <leafValues>
            -4.8533618450164795e-01 7.8047752380371094e-01</leafValues></_>
        <_>
          <internalNodes>
            0 -1 50 -4.8505884478799999e-05</internalNodes>
          <leafValues>
            5.8283525705337524e-01 -5.8876067399978638e-01</leafValues></_></weakClassifiers></_>
    <!-- stage 11 -->
    <_>
      <maxWeakCount>3</maxWeakCount>
      <stageThreshold>-2.7075839042663574e-01</stageThreshold>
      <weakClassifiers>
        <_>
          <internalNodes>
            0 -1 85 -1.1618260294198990e-02</internalNodes>
          <leafValues>
            -9.3650794029235840e-01 6.8421053886413574e-01</leafValues></_>
        <_>
          <internalNodes>
            0 -1 49 -1.7556023522047326e-05</internalNodes>
          <leafValues>
            6.6259574890136719e-01 -4.9940857291221619e-01</leafValues></_>
        <_>
          <internalNodes>
            0 -1 54 -4.0440759221382905e-06</internalNodes>
          <leafValues>
            7.2165578603744507e-01 -4.5556035637855530e-01</leafValues></_></weakClassifiers></_>
    <!-- stage 12 -->
    <_>
      <maxWeakCount>1</maxWeakCount>
      <stageThreshold>6.3424122333526611e-01</stageThreshold>
      <weakClassifiers>
        <_>
          <internalNodes>
            0 -1 55 -5.7319294661283493e-02</internalNodes>
          <leafValues>
            -1. 6.3424122333526611e-01</leafValues></_></weakClassifiers></_>
    <!-- stage 13 -->
    <_>
      <maxWeakCount>5</maxWeakCount>
      <stageThreshold>-1.6569146513938904e-01</stageThreshold>
      <weakClassifiers>
        <_>
          <internalNodes>
            0 -1 7 1.0688059031963348e-01</internalNodes>
          <leafValues>
            5.8015269041061401e-01 -8.7500000000000000e-01</leafValues></_>
        <_>
          <internalNodes>
            0 -1 92 1.2032207450829446e-04</internalNodes>
          <leafValues>
            -3.6568862199783325e-01 8.1564450263977051e-01</leafValues></_>
        <_>
          <internalNodes>
            0 -1 78 -1.6247739040409215e-05</internalNodes>
          <leafValues>
            8.8827317953109741e-01 -3.3933466672897339e-01</leafValues></_>
        <_>
          <internalNodes>
            0 -1 88 -1.7357768228976056e-05</internalNodes>
          <leafValues>
            7.0521599054336548e-01 -4.2553940415382385e-01</leafValues></_>
        <_>
          <internalNodes>
            0 -1 53 3.4964398946613073e-04</internalNodes>
          <leafValues>
            4.6938344836235046e-01 -7.9661452770233154e-01</leafValues></_></weakClassifiers></_>
    <!-- stage 14 -->
    <_>
      <maxWeakCount>9</maxWeakCount>
      <stageThreshold>-8.0222374200820923e-01</stageThreshold>
      <weakClassifiers>
        <_>
          <internalNodes>
            0 -1 25 -3.5916525870561600e-02</internalNodes>
          <leafValues>
            -8.8888889551162720e-01 5.1824820041656494e-01</leafValues></_>
        <_>
          <internalNodes>
            0 -1 76 1.5255792532116175e-03</internalNodes>
          <leafValues>
            -4.1260200738906860e-01 6.3642460107803345e-01</leafValues></_>
        <_>
          <internalNodes>
            0 -1 89 2.8930173721164465e-03</internalNodes>
          <leafValues>
            -2.1326667070388794e-01 8.3710646629333496e-01</leafValues></_>
        <_>
          <internalNodes>
            0 -1 75 4.3214653851464391e-04</internalNodes>
          <leafValues>
            -3.9086139202117920e-01 5.8094263076782227e-01</leafValues></_>
        <_>
          <internalNodes>
            0 -1 94 -9.8161138594150543e-03</internalNodes>
          <leafValues>
            9.0001726150512695e-01 -2.7383077144622803e-01</leafValues></_>
        <_>
          <internalNodes>
            0 -1 87 -1.0832476255018264e-04</internalNodes>
          <leafValues>
            6.9729536771774292e-01 -4.1254535317420959e-01</leafValues></_>
        <_>
          <internalNodes>
            0 -1 91 3.0941590666770935e-03</internalNodes>
          <leafValues>
            -2.7144828438758850e-01 8.4379994869232178e-01</leafValues></_>
        <_>
          <internalNodes>
            0 -1 38 -8.1263240426778793e-03</internalNodes>
          <leafValues>
            -9.1433626413345337e-01 3.4550118446350098e-01</leafValues></_>
        <_>
          <internalNodes>
            0 -1 45 1.2007988989353180e-02</internalNodes>
          <leafValues>
            3.0858138203620911e-01 -7.9187798500061035e-01</leafValues></_></weakClassifiers></_>
    <!-- stage 15 -->
    <_>
      <maxWeakCount>5</maxWeakCount>
      <stageThreshold>-4.3673291802406311e-02</stageThreshold>
      <weakClassifiers>
        <_>
          <internalNodes>
            0 -1 37 -4.4323463225737214e-04</internalNodes>
          <leafValues>
            5.7551020383834839e-01 -4.7692307829856873e-01</leafValues></_>
        <_>
          <internalNodes>
            0 -1 28 1.4187898486852646e-02</internalNodes>
          <leafValues>
            2.4529248476028442e-01 -8.9652085304260254e-01</leafValues></_>
        <_>
          <internalNodes>
            0 -1 34 5.7416892377659678e-04</internalNodes>
          <leafValues>
            -4.0088301897048950e-01 5.3058230876922607e-01</leafValues></_>
        <_>
          <internalNodes>
            0 -1 77 7.4291063356213272e-05</internalNodes>
          <leafValues>
            3.1298419833183289e-01 -6.9674426317214966e-01</leafValues></_>
        <_>
          <internalNodes>
            0 -1 84 6.0142669099150226e-05</internalNodes>
          <leafValues>
            3.6523616313934326e-01 -6.3644254207611084e-01</leafValues></_></weakClassifiers></_>
    <!-- stage 16 -->
    <_>
      <maxWeakCount>7</maxWeakCount>
      <stageThreshold>-5.6604552268981934e-01</stageThreshold>
      <weakClassifiers>
        <_>
          <internalNodes>
            0 -1 71 1.4035247266292572e-02</internalNodes>
          <leafValues>
            5.1879698038101196e-01 -6.3636362552642822e-01</leafValues></_>
        <_>
          <internalNodes>
            0 -1 58 -4.7596822696505114e-05</internalNodes>
          <leafValues>
            5.5569136142730713e-01 -4.7214764356613159e-01</leafValues></_>
        <_>
          <internalNodes>
            0 -1 24 -3.0401533877011389e-05</internalNodes>
          <leafValues>
            -6.5503346920013428e-01 3.7255197763442993e-01</leafValues></_>
        <_>
          <internalNodes>
            0 -1 16 1.9872310804203153e-04</internalNodes>
          <leafValues>
            -4.8423442244529724e-01 5.5027508735656738e-01</leafValues></_>
        <_>
          <internalNodes>
            0 -1 60 8.7689310021232814e-05</internalNodes>
          <leafValues>
            -4.1696411371231079e-01 5.4333776235580444e-01</leafValues></_>
        <_>
          <internalNodes>
            0 -1 83 2.5551847647875547e-04</internalNodes>
          <leafValues>
            -4.4316872954368591e-01 6.3915950059890747e-01</leafValues></_>
        <_>
          <internalNodes>
            0 -1 66 2.1018837287556380e-05</internalNodes>
          <leafValues>
            -5.1428663730621338e-01 4.8644202947616577e-01</leafValues></_></weakClassifiers></_>
    <!-- stage 17 -->
    <_>
      <maxWeakCount>6</maxWeakCount>
      <stageThreshold>-1.9982878863811493e-01</stageThreshold>
      <weakClassifiers>
        <_>
          <internalNodes>
            0 -1 74 -6.3813306041993201e-05</internalNodes>
          <leafValues>
            7.7070063352584839e-01 -7.1895428001880646e-02</leafValues></_>
        <_>
          <internalNodes>
            0 -1 46 -5.1768993216683157e-06</internalNodes>
          <leafValues>
            5.9175068140029907e-01 -2.9555198550224304e-01</leafValues></_>
        <_>
          <internalNodes>
            0 -1 62 4.8739477642811835e-04</internalNodes>
          <leafValues>
            -3.9650386571884155e-01 5.2348202466964722e-01</leafValues></_>
        <_>
          <internalNodes>
            0 -1 68 1.1554981581866741e-02</internalNodes>
          <leafValues>
            -3.9878913760185242e-01 6.1084449291229248e-01</leafValues></_>
        <_>
          <internalNodes>
            0 -1 2 -1.8482541199773550e-03</internalNodes>
          <leafValues>
            6.0462361574172974e-01 -3.9960953593254089e-01</leafValues></_>
        <_>
          <internalNodes>
            0 -1 35 2.2749989875592291e-04</internalNodes>
          <leafValues>
            -4.0006077289581299e-01 6.6559267044067383e-01</leafValues></_></weakClassifiers></_>
    <!-- stage 18 -->
    <_>
      <maxWeakCount>6</maxWeakCount>
      <stageThreshold>-1.6104428470134735e-01</stageThreshold>
      <weakClassifiers>
        <_>
          <internalNodes>
            0 -1 4 1.1400645226240158e-01</internalNodes>
          <leafValues>
            5.0359714031219482e-01 -9.3750000000000000e-01</leafValues></_>
        <_>
          <internalNodes>
            0 -1 17 2.6082252588821575e-05</internalNodes>
          <leafValues>
            3.0408746004104614e-01 -8.1693226099014282e-01</leafValues></_>
        <_>
          <internalNodes>
            0 -1 64 5.5745826102793217e-04</internalNodes>
          <leafValues>
            -5.7909315824508667e-01 3.4405985474586487e-01</leafValues></_>
        <_>
          <internalNodes>
            0 -1 48 5.9626683651003987e-05</internalNodes>
          <leafValues>
            -3.0830186605453491e-01 8.0773806571960449e-01</leafValues></_>
        <_>
          <internalNodes>
            0 -1 82 -8.6859421571716666e-04</internalNodes>
          <leafValues>
            5.4634922742843628e-01 -4.3897533416748047e-01</leafValues></_>
        <_>
          <internalNodes>
            0 -1 86 1.1364602250978351e-03</internalNodes>
          <leafValues>
            -4.2981633543968201e-01 4.9575987458229065e-01</leafValues></_></weakClassifiers></_>
    <!-- stage 19 -->
    <_>
      <maxWeakCount>7</maxWeakCount>
      <stageThreshold>-7.8800821304321289e-01</stageThreshold>
      <weakClassifiers>
        <_>
          <internalNodes>
            0 -1 10 -2.5850243866443634e-02</internalNodes>
          <leafValues>
            -7.5000000000000000e-01 5.1851850748062134e-01</leafValues></_>
        <_>
          <internalNodes>
            0 -1 72 -5.6542456150054932e-03</internalNodes>
          <leafValues>
            4.1999736428260803e-01 -4.7154444456100464e-01</leafValues></_>
        <_>
          <internalNodes>
            0 -1 31 -1.4421905689232517e-05</internalNodes>
          <leafValues>
            5.7688260078430176e-01 -3.2287481427192688e-01</leafValues></_>
        <_>
          <internalNodes>
            0 -1 43 2.8573008603416383e-04</internalNodes>
          <leafValues>
            -3.2309997081756592e-01 5.7892417907714844e-01</leafValues></_>
        <_>
          <internalNodes>
            0 -1 60 1.1278200690867379e-04</internalNodes>
          <leafValues>
            -4.9622529745101929e-01 4.5895293354988098e-01</leafValues></_>
        <_>
          <internalNodes>
            0 -1 9 -1.2243402888998389e-03</internalNodes>
          <leafValues>
            5.7428061962127686e-01 -3.8310599327087402e-01</leafValues></_>
        <_>
          <internalNodes>
            0 -1 8 6.7959320731461048e-03</internalNodes>
          <leafValues>
            -2.6706281304359436e-01 8.2420569658279419e-01</leafValues></_></weakClassifiers></_></stages>
  <features>
    <_>
      <rects>
        <_>
          0 0 3 1 -1.</_>
        <_>
          1 0 1 1 3.</_></rects>
      <tilted>0</tilted></_>
    <_>
      <rects>
        <_>
          0 0 4 2 -1.</_>
        <_>
          0 0 2 1 2.</_>
        <_>
          2 1 2 1 2.</_></rects>
      <tilted>0</tilted></_>
    <_>
      <rects>
        <_>
          0 0 14 10 -1.</_>
        <_>
          0 5 14 5 2.</_></rects>
      <tilted>0</tilted></_>
    <_>
      <rects>
        <_>
          0 6 20 14 -1.</_>
        <_>
          0 13 20 7 2.</_></rects>
      <tilted>0</tilted></_>
    <_>
      <rects>
        <_>
          1 9 46 25 -1.</_>
        <_>
          24 9 23 25 2.</_></rects>
      <tilted>0</tilted></_>
    <_>
      <rects>
        <_>
          1 12 1 2 -1.</_>
        <_>
          1 13 1 1 2.</_></rects>
      <tilted>0</tilted></_>
    <_>
      <rects>
        <_>
          1 12 1 3 -1.</_>
        <_>
          1 13 1 1 3.</_></rects>
      <tilted>0</tilted></_>
    <_>
      <rects>
        <_>
          1 25 48 18 -1.</_>
        <_>
          1 34 48 9 2.</_></rects>
      <tilted>0</tilted></_>
    <_>
      <rects>
        <_>
          2 3 6 30 -1.</_>
        <_>
          2 3 3 15 2.</_>
        <_>
          5 18 3 15 2.</_></rects>
      <tilted>0</tilted></_>
    <_>
      <rects>
        <_>
          2 24 18 6 -1.</_>
        <_>
          8 24 6 6 3.</_></rects>
      <tilted>0</tilted></_>
    <_>
      <rects>
        <_>
          2 30 40 6 -1.</_>
        <_>
          22 30 20 6 2.</_></rects>
      <tilted>0</tilted></_>
    <_>
      <rects>
        <_>
          3 15 18 6 -1.</_>
        <_>
          3 18 18 3 2.</_></rects>
      <tilted>0</tilted></_>
    <_>
      <rects>
        <_>
          5 14 44 6 -1.</_>
        <_>
          5 16 44 2 3.</_></rects>
      <tilted>0</tilted></_>
    <_>
      <rects>
        <_>
          6 0 2 2 -1.</_>
        <_>
          6 0 1 1 2.</_>
        <_>
          7 1 1 1 2.</_></rects>
      <tilted>0</tilted></_>
    <_>
      <rects>
        <_>
          6 23 18 12 -1.</_>
        <_>
          15 23 9 12 2.</_></rects>
      <tilted>0</tilted></_>
    <_>
      <rects>
        <_>
          6 25 20 14 -1.</_>
        <_>
          16 25 10 14 2.</_></rects>
      <tilted>0</tilted></_>
    <_>
      <rects>
        <_>
          7 28 6 8 -1.</_>
        <_>
          7 28 3 4 2.</_>
        <_>
          10 32 3 4 2.</_></rects>
      <tilted>0</tilted></_>
    <_>
      <rects>
        <_>
          8 5 3 1 -1.</_>
        <_>
          9 5 1 1 3.</_></rects>
      <tilted>0</tilted></_>
    <_>
      <rects>
        <_>
          8 19 27 24 -1.</_>
        <_>
          8 31 27 12 2.</_></rects>
      <tilted>0</tilted></_>
    <_>
      <rects>
        <_>
          9 27 12 11 -1.</_>
        <_>
          15 27 6 11 2.</_></rects>
      <tilted>0</tilted></_>
    <_>
      <rects>
        <_>
          10 38 12 3 -1.</_>
        <_>
          10 39 12 1 3.</_></rects>
      <tilted>0</tilted></_>
    <_>
      <rects>
        <_>
          11 1 2 1 -1.</_>
        <_>
          12 1 1 1 2.</_></rects>
      <tilted>0</tilted></_>
    <_>
      <rects>
        <_>
          11 1 3 1 -1.</_>
        <_>
          12 1 1 1 3.</_></rects>
      <tilted>0</tilted></_>
    <_>
      <rects>
        <_>
          11 18 26 26 -1.</_>
        <_>
          11 31 26 13 2.</_></rects>
      <tilted>0</tilted></_>
    <_>
      <rects>
        <_>
          12 5 3 2 -1.</_>
        <_>
          12 6 3 1 2.</_></rects>
      <tilted>0</tilted></_>
    <_>
      <rects>
        <_>
          12 11 21 22 -1.</_>
        <_>
          19 11 7 22 3.</_></rects>
      <tilted>0</tilted></_>
    <_>
      <rects>
        <_>
          12 24 14 2 -1.</_>
        <_>
          12 25 14 1 2.</_></rects>
      <tilted>0</tilted></_>
    <_>
      <rects>
        <_>
          13 24 14 18 -1.</_>
        <_>
          13 30 14 6 3.</_></rects>
      <tilted>0</tilted></_>
    <_>
      <rects>
        <_>
          14 24 14 17 -1.</_>
        <_>
          21 24 7 17 2.</_></rects>
      <tilted>0</tilted></_>
    <_>
      <rects>
        <_>
          16 21 30 12 -1.</_>
        <_>
          16 21 15 6 2.</_>
        <_>
          31 27 15 6 2.</_></rects>
      <tilted>0</tilted></_>
    <_>
      <rects>
        <_>
          16 22 30 6 -1.</_>
        <_>
          16 24 30 2 3.</_></rects>
      <tilted>0</tilted></_>
    <_>
      <rects>
        <_>
          17 0 2 12 -1.</_>
        <_>
          17 4 2 4 3.</_></rects>
      <tilted>0</tilted></_>
    <_>
      <rects>
        <_>
          17 20 8 2 -1.</_>
        <_>
          17 21 8 1 2.</_></rects>
      <tilted>0</tilted></_>
    <_>
      <rects>
        <_>
          17 21 12 18 -1.</_>
        <_>
          17 27 12 6 3.</_></rects>
      <tilted>0</tilted></_>
    <_>
      <rects>
        <_>
          17 27 9 2 -1.</_>
        <_>
          20 27 3 2 3.</_></rects>
      <tilted>0</tilted></_>
    <_>
      <rects>
        <_>
          18 11 4 12 -1.</_>
        <_>
          18 11 2 6 2.</_>
        <_>
          20 17 2 6 2.</_></rects>
      <tilted>0</tilted></_>
    <_>
      <rects>
        <_>
          18 21 7 6 -1.</_>
        <_>
          18 23 7 2 3.</_></rects>
      <tilted>0</tilted></_>
    <_>
      <rects>
        <_>
          18 21 9 6 -1.</_>
        <_>
          18 24 9 3 2.</_></rects>
      <tilted>0</tilted></_>
    <_>
      <rects>
        <_>
          18 22 12 18 -1.</_>
        <_>
          24 22 6 18 2.</_></rects>
      <tilted>0</tilted></_>
    <_>
      <rects>
        <_>
          18 26 18 9 -1.</_>
        <_>
          27 26 9 9 2.</_></rects>
      <tilted>0</tilted></_>
    <_>
      <rects>
        <_>
          18 31 16 2 -1.</_>
        <_>
          26 31 8 2 2.</_></rects>
      <tilted>0</tilted></_>
    <_>
      <rects>
        <_>
          19 4 4 1 -1.</_>
        <_>
          21 4 2 1 2.</_></rects>
      <tilted>0</tilted></_>
    <_>
      <rects>
        <_>
          19 17 2 27 -1.</_>
        <_>
          19 26 2 9 3.</_></rects>
      <tilted>0</tilted></_>
    <_>
      <rects>
        <_>
          19 27 6 2 -1.</_>
        <_>
          21 27 2 2 3.</_></rects>
      <tilted>0</tilted></_>
    <_>
      <rects>
        <_>
          20 16 9 28 -1.</_>
        <_>
          20 30 9 14 2.</_></rects>
      <tilted>0</tilted></_>
    <_>
      <rects>
        <_>
          20 17 15 39 -1.</_>
        <_>
          25 17 5 39 3.</_></rects>
      <tilted>0</tilted></_>
    <_>
      <rects>
        <_>
          20 42 1 6 -1.</_>
        <_>
          20 45 1 3 2.</_></rects>
      <tilted>0</tilted></_>
    <_>
      <rects>
        <_>
          21 41 1 3 -1.</_>
        <_>
          21 42 1 1 3.</_></rects>
      <tilted>0</tilted></_>
    <_>
      <rects>
        <_>
          22 18 2 4 -1.</_>
        <_>
          23 18 1 4 2.</_></rects>
      <tilted>0</tilted></_>
    <_>
      <rects>
        <_>
          22 20 11 2 -1.</_>
        <_>
          22 21 11 1 2.</_></rects>
      <tilted>0</tilted></_>
    <_>
      <rects>
        <_>
          22 24 2 2 -1.</_>
        <_>
          22 25 2 1 2.</_></rects>
      <tilted>0</tilted></_>
    <_>
      <rects>
        <_>
          23 2 12 15 -1.</_>
        <_>
          23 7 12 5 3.</_></rects>
      <tilted>0</tilted></_>
    <_>
      <rects>
        <_>
          23 19 5 8 -1.</_>
        <_>
          23 23 5 4 2.</_></rects>
      <tilted>0</tilted></_>
    <_>
      <rects>
        <_>
          23 28 6 4 -1.</_>
        <_>
          25 28 2 4 3.</_></rects>
      <tilted>0</tilted></_>
    <_>
      <rects>
        <_>
          23 37 8 2 -1.</_>
        <_>
          23 37 4 1 2.</_>
        <_>
          27 38 4 1 2.</_></rects>
      <tilted>0</tilted></_>
    <_>
      <rects>
        <_>
          24 16 26 18 -1.</_>
        <_>
          24 22 26 6 3.</_></rects>
      <tilted>0</tilted></_>
    <_>
      <rects>
        <_>
          24 19 2 8 -1.</_>
        <_>
          24 23 2 4 2.</_></rects>
      <tilted>0</tilted></_>
    <_>
      <rects>
        <_>
          24 21 2 6 -1.</_>
        <_>
          24 24 2 3 2.</_></rects>
      <tilted>0</tilted></_>
    <_>
      <rects>
        <_>
          24 23 2 2 -1.</_>
        <_>
          24 24 2 1 2.</_></rects>
      <tilted>0</tilted></_>
    <_>
      <rects>
        <_>
          24 25 1 2 -1.</_>
        <_>
          24 26 1 1 2.</_></rects>
      <tilted>0</tilted></_>
    <_>
      <rects>
        <_>
          24 26 6 1 -1.</_>
        <_>
          26 26 2 1 3.</_></rects>
      <tilted>0</tilted></_>
    <_>
      <rects>
        <_>
          24 33 4 4 -1.</_>
        <_>
          26 33 2 4 2.</_></rects>
      <tilted>0</tilted></_>
    <_>
      <rects>
        <_>
          24 33 12 5 -1.</_>
        <_>
          28 33 4 5 3.</_></rects>
      <tilted>0</tilted></_>
    <_>
      <rects>
        <_>
          25 24 2 9 -1.</_>
        <_>
          25 27 2 3 3.</_></rects>
      <tilted>0</tilted></_>
    <_>
      <rects>
        <_>
          25 25 1 12 -1.</_>
        <_>
          25 31 1 6 2.</_></rects>
      <tilted>0</tilted></_>
    <_>
      <rects>
        <_>
          25 29 14 24 -1.</_>
        <_>
          25 37 14 8 3.</_></rects>
      <tilted>0</tilted></_>
    <_>
      <rects>
        <_>
          26 26 3 2 -1.</_>
        <_>
          27 26 1 2 3.</_></rects>
      <tilted>0</tilted></_>
    <_>
      <rects>
        <_>
          27 20 18 18 -1.</_>
        <_>
          27 29 18 9 2.</_></rects>
      <tilted>0</tilted></_>
    <_>
      <rects>
        <_>
          27 31 22 8 -1.</_>
        <_>
          38 31 11 8 2.</_></rects>
      <tilted>0</tilted></_>
    <_>
      <rects>
        <_>
          28 19 21 18 -1.</_>
        <_>
          28 28 21 9 2.</_></rects>
      <tilted>0</tilted></_>
    <_>
      <rects>
        <_>
          29 2 2 1 -1.</_>
        <_>
          30 2 1 1 2.</_></rects>
      <tilted>0</tilted></_>
    <_>
      <rects>
        <_>
          29 15 17 14 -1.</_>
        <_>
          29 22 17 7 2.</_></rects>
      <tilted>0</tilted></_>
    <_>
      <rects>
        <_>
          29 17 12 18 -1.</_>
        <_>
          29 23 12 6 3.</_></rects>
      <tilted>0</tilted></_>
    <_>
      <rects>
        <_>
          29 18 5 2 -1.</_>
        <_>
          29 19 5 1 2.</_></rects>
      <tilted>0</tilted></_>
    <_>
      <rects>
        <_>
          29 21 5 2 -1.</_>
        <_>
          29 22 5 1 2.</_></rects>
      <tilted>0</tilted></_>
    <_>
      <rects>
        <_>
          31 21 4 7 -1.</_>
        <_>
          33 21 2 7 2.</_></rects>
      <tilted>0</tilted></_>
    <_>
      <rects>
        <_>
          31 25 3 15 -1.</_>
        <_>
          31 30 3 5 3.</_></rects>
      <tilted>0</tilted></_>
    <_>
      <rects>
        <_>
          31 37 3 2 -1.</_>
        <_>
          32 37 1 2 3.</_></rects>
      <tilted>0</tilted></_>
    <_>
      <rects>
        <_>
          32 9 6 3 -1.</_>
        <_>
          34 9 2 3 3.</_></rects>
      <tilted>0</tilted></_>
    <_>
      <rects>
        <_>
          32 20 2 2 -1.</_>
        <_>
          32 21 2 1 2.</_></rects>
      <tilted>0</tilted></_>
    <_>
      <rects>
        <_>
          32 33 1 3 -1.</_>
        <_>
          32 34 1 1 3.</_></rects>
      <tilted>0</tilted></_>
    <_>
      <rects>
        <_>
          33 9 8 8 -1.</_>
        <_>
          33 13 8 4 2.</_></rects>
      <tilted>0</tilted></_>
    <_>
      <rects>
        <_>
          33 11 4 32 -1.</_>
        <_>
          33 11 2 16 2.</_>
        <_>
          35 27 2 16 2.</_></rects>
      <tilted>0</tilted></_>
    <_>
      <rects>
        <_>
          33 22 6 2 -1.</_>
        <_>
          36 22 3 2 2.</_></rects>
      <tilted>0</tilted></_>
    <_>
      <rects>
        <_>
          33 48 6 1 -1.</_>
        <_>
          36 48 3 1 2.</_></rects>
      <tilted>0</tilted></_>
    <_>
      <rects>
        <_>
          34 22 16 9 -1.</_>
        <_>
          34 25 16 3 3.</_></rects>
      <tilted>0</tilted></_>
    <_>
      <rects>
        <_>
          34 24 9 10 -1.</_>
        <_>
          34 29 9 5 2.</_></rects>
      <tilted>0</tilted></_>
    <_>
      <rects>
        <_>
          34 27 6 4 -1.</_>
        <_>
          34 27 3 2 2.</_>
        <_>
          37 29 3 2 2.</_></rects>
      <tilted>0</tilted></_>
    <_>
      <rects>
        <_>
          34 34 3 4 -1.</_>
        <_>
          34 36 3 2 2.</_></rects>
      <tilted>0</tilted></_>
    <_>
      <rects>
        <_>
          35 3 12 10 -1.</_>
        <_>
          35 3 6 5 2.</_>
        <_>
          41 8 6 5 2.</_></rects>
      <tilted>0</tilted></_>
    <_>
      <rects>
        <_>
          35 31 2 6 -1.</_>
        <_>
          35 33 2 2 3.</_></rects>
      <tilted>0</tilted></_>
    <_>
      <rects>
        <_>
          36 18 8 14 -1.</_>
        <_>
          36 18 4 7 2.</_>
        <_>
          40 25 4 7 2.</_></rects>
      <tilted>0</tilted></_>
    <_>
      <rects>
        <_>
          36 31 9 2 -1.</_>
        <_>
          39 31 3 2 3.</_></rects>
      <tilted>0</tilted></_>
    <_>
      <rects>
        <_>
          42 1 8 52 -1.</_>
        <_>
          42 1 4 26 2.</_>
        <_>
          46 27 4 26 2.</_></rects>
      <tilted>0</tilted></_>
    <_>
      <rects>
        <_>
          43 20 8 30 -1.</_>
        <_>
          43 20 4 15 2.</_>
        <_>
          47 35 4 15 2.</_></rects>
      <tilted>0</tilted></_>
    <_>
      <rects>
        <_>
          43 31 2 3 -1.</_>
        <_>
          43 32 2 1 3.</_></rects>
      <tilted>0</tilted></_>
    <_>
      <rects>
        <_>
          44 40 1 2 -1.</_>
        <_>
          44 41 1 1 2.</_></rects>
      <tilted>0</tilted></_></features></cascade>
</opencv_storage>
