<?xml version="1.0"?>
<opencv_storage>
<cascade>
  <stageType>BOOST</stageType>
  <featureType>HAAR</featureType>
  <height>72</height>
  <width>47</width>
  <stageParams>
    <boostType>GAB</boostType>
    <minHitRate>9.9900001287460327e-01</minHitRate>
    <maxFalseAlarm>5.0000000000000000e-01</maxFalseAlarm>
    <weightTrimRate>9.4999999999999996e-01</weightTrimRate>
    <maxDepth>1</maxDepth>
    <maxWeakCount>100</maxWeakCount></stageParams>
  <featureParams>
    <maxCatCount>0</maxCatCount>
    <featSize>1</featSize>
    <mode>BASIC</mode></featureParams>
  <stageNum>20</stageNum>
  <stages>
    <!-- stage 0 -->
    <_>
      <maxWeakCount>4</maxWeakCount>
      <stageThreshold>-3.1723928451538086e-01</stageThreshold>
      <weakClassifiers>
        <_>
          <internalNodes>
            0 -1 57 -4.2774169705808163e-03</internalNodes>
          <leafValues>
            7.7578473091125488e-01 -7.2413790225982666e-01</leafValues></_>
        <_>
          <internalNodes>
            0 -1 75 3.3261178759858012e-04</internalNodes>
          <leafValues>
            -6.8738889694213867e-01 7.2597229480743408e-01</leafValues></_>
        <_>
          <internalNodes>
            0 -1 4 -6.4760516397655010e-03</internalNodes>
          <leafValues>
            6.0438799858093262e-01 -7.7007162570953369e-01</leafValues></_>
        <_>
          <internalNodes>
            0 -1 71 -6.6260137828066945e-05</internalNodes>
          <leafValues>
            -8.8165134191513062e-01 4.8989954590797424e-01</leafValues></_></weakClassifiers></_>
    <!-- stage 1 -->
    <_>
      <maxWeakCount>1</maxWeakCount>
      <stageThreshold>7.1428573131561279e-01</stageThreshold>
      <weakClassifiers>
        <_>
          <internalNodes>
            0 -1 61 -5.1500252448022366e-04</internalNodes>
          <leafValues>
            7.1428573131561279e-01 -1.</leafValues></_></weakClassifiers></_>
    <!-- stage 2 -->
    <_>
      <maxWeakCount>3</maxWeakCount>
      <stageThreshold>-5.7718330621719360e-01</stageThreshold>
      <weakClassifiers>
        <_>
          <internalNodes>
            0 -1 24 1.8612585961818695e-02</internalNodes>
          <leafValues>
            6.9230771064758301e-01 -9.6825397014617920e-01</leafValues></_>
        <_>
          <internalNodes>
            0 -1 74 5.6148221483454108e-04</internalNodes>
          <leafValues>
            -7.3197901248931885e-01 5.4495805501937866e-01</leafValues></_>
        <_>
          <internalNodes>
            0 -1 9 -2.3624734021723270e-03</internalNodes>
          <leafValues>
            6.6036731004714966e-01 -5.3751194477081299e-01</leafValues></_></weakClassifiers></_>
    <!-- stage 3 -->
    <_>
      <maxWeakCount>5</maxWeakCount>
      <stageThreshold>-2.5918525457382202e-01</stageThreshold>
      <weakClassifiers>
        <_>
          <internalNodes>
            0 -1 35 -1.1725489050149918e-02</internalNodes>
          <leafValues>
            7.8409093618392944e-01 -2.0895522832870483e-01</leafValues></_>
        <_>
          <internalNodes>
            0 -1 98 1.2453099712729454e-02</internalNodes>
          <leafValues>
            -3.4396195411682129e-01 8.2193571329116821e-01</leafValues></_>
        <_>
          <internalNodes>
            0 -1 0 7.4874682468362153e-05</internalNodes>
          <leafValues>
            5.8510142564773560e-01 -4.7771975398063660e-01</leafValues></_>
        <_>
          <internalNodes>
            0 -1 41 -1.6209178138524294e-03</internalNodes>
          <leafValues>
            5.5964726209640503e-01 -5.9796696901321411e-01</leafValues></_>
        <_>
          <internalNodes>
            0 -1 30 2.0883154124021530e-02</internalNodes>
          <leafValues>
            3.7637248635292053e-01 -9.7881865501403809e-01</leafValues></_></weakClassifiers></_>
    <!-- stage 4 -->
    <_>
      <maxWeakCount>1</maxWeakCount>
      <stageThreshold>6.4062500000000000e-01</stageThreshold>
      <weakClassifiers>
        <_>
          <internalNodes>
            0 -1 16 -7.0699639618396759e-03</internalNodes>
          <leafValues>
            -1. 6.4062500000000000e-01</leafValues></_></weakClassifiers></_>
    <!-- stage 5 -->
    <_>
      <maxWeakCount>5</maxWeakCount>
      <stageThreshold>-6.4251410961151123e-01</stageThreshold>
      <weakClassifiers>
        <_>
          <internalNodes>
            0 -1 52 -7.6804845593869686e-04</internalNodes>
          <leafValues>
            -8.3606559038162231e-01 6.4658635854721069e-01</leafValues></_>
        <_>
          <internalNodes>
            0 -1 96 1.8970843404531479e-02</internalNodes>
          <leafValues>
            -3.2035884261131287e-01 8.9396947622299194e-01</leafValues></_>
        <_>
          <internalNodes>
            0 -1 31 1.2155023869127035e-03</internalNodes>
          <leafValues>
            3.8496604561805725e-01 -8.3541727066040039e-01</leafValues></_>
        <_>
          <internalNodes>
            0 -1 44 -4.0685511194169521e-03</internalNodes>
          <leafValues>
            6.1837345361709595e-01 -4.5705845952033997e-01</leafValues></_>
        <_>
          <internalNodes>
            0 -1 60 -9.9152578040957451e-03</internalNodes>
          <leafValues>
            8.1289428472518921e-01 -4.8942920565605164e-01</leafValues></_></weakClassifiers></_>
    <!-- stage 6 -->
    <_>
      <maxWeakCount>6</maxWeakCount>
      <stageThreshold>-1.2580676376819611e-01</stageThreshold>
      <weakClassifiers>
        <_>
          <internalNodes>
            0 -1 5 -3.4707393497228622e-02</internalNodes>
          <leafValues>
            7.7906978130340576e-01 -1.7391304671764374e-01</leafValues></_>
        <_>
          <internalNodes>
            0 -1 46 -1.4817460905760527e-03</internalNodes>
          <leafValues>
            5.7739210128784180e-01 -4.6169379353523254e-01</leafValues></_>
        <_>
          <internalNodes>
            0 -1 99 9.7380345687270164e-04</internalNodes>
          <leafValues>
            -3.7563270330429077e-01 7.1550488471984863e-01</leafValues></_>
        <_>
          <internalNodes>
            0 -1 93 -3.6384572740644217e-03</internalNodes>
          <leafValues>
            8.3801835775375366e-01 -3.6279854178428650e-01</leafValues></_>
        <_>
          <internalNodes>
            0 -1 3 -1.3363329926505685e-03</internalNodes>
          <leafValues>
            6.8059951066970825e-01 -3.6322331428527832e-01</leafValues></_>
        <_>
          <internalNodes>
            0 -1 90 4.7664130106568336e-03</internalNodes>
          <leafValues>
            -3.8061410188674927e-01 7.6416581869125366e-01</leafValues></_></weakClassifiers></_>
    <!-- stage 7 -->
    <_>
      <maxWeakCount>6</maxWeakCount>
      <stageThreshold>-5.0671440362930298e-01</stageThreshold>
      <weakClassifiers>
        <_>
          <internalNodes>
            0 -1 72 2.6580848498269916e-04</internalNodes>
          <leafValues>
            5.9842520952224731e-01 -7.5000000000000000e-01</leafValues></_>
        <_>
          <internalNodes>
            0 -1 91 1.4552782289683819e-02</internalNodes>
          <leafValues>
            -3.3813783526420593e-01 8.6638456583023071e-01</leafValues></_>
        <_>
          <internalNodes>
            0 -1 26 -4.7804843052290380e-04</internalNodes>
          <leafValues>
            -6.8594360351562500e-01 4.6435174345970154e-01</leafValues></_>
        <_>
          <internalNodes>
            0 -1 47 -6.4091953390743583e-05</internalNodes>
          <leafValues>
            -8.0634862184524536e-01 3.4285557270050049e-01</leafValues></_>
        <_>
          <internalNodes>
            0 -1 43 -3.8976423442363739e-02</internalNodes>
          <leafValues>
            4.6788936853408813e-01 -5.8773183822631836e-01</leafValues></_>
        <_>
          <internalNodes>
            0 -1 45 -5.8735907077789307e-04</internalNodes>
          <leafValues>
            -8.8624447584152222e-01 3.0772092938423157e-01</leafValues></_></weakClassifiers></_>
    <!-- stage 8 -->
    <_>
      <maxWeakCount>7</maxWeakCount>
      <stageThreshold>-2.1109227836132050e-01</stageThreshold>
      <weakClassifiers>
        <_>
          <internalNodes>
            0 -1 21 1.5117551665753126e-03</internalNodes>
          <leafValues>
            5.6862747669219971e-01 -6.3636362552642822e-01</leafValues></_>
        <_>
          <internalNodes>
            0 -1 92 5.7256879517808557e-04</internalNodes>
          <leafValues>
            -4.0464824438095093e-01 5.8487111330032349e-01</leafValues></_>
        <_>
          <internalNodes>
            0 -1 77 2.4465417955070734e-03</internalNodes>
          <leafValues>
            -4.9439713358879089e-01 5.5252850055694580e-01</leafValues></_>
        <_>
          <internalNodes>
            0 -1 13 1.1925537139177322e-02</internalNodes>
          <leafValues>
            -2.7865630388259888e-01 9.2023617029190063e-01</leafValues></_>
        <_>
          <internalNodes>
            0 -1 40 -1.7187552293762565e-04</internalNodes>
          <leafValues>
            6.3099747896194458e-01 -4.0222799777984619e-01</leafValues></_>
        <_>
          <internalNodes>
            0 -1 17 -5.1551690557971597e-04</internalNodes>
          <leafValues>
            4.9334636330604553e-01 -5.3453618288040161e-01</leafValues></_>
        <_>
          <internalNodes>
            0 -1 63 4.8501231503905728e-05</internalNodes>
          <leafValues>
            -5.2459031343460083e-01 4.8603886365890503e-01</leafValues></_></weakClassifiers></_>
    <!-- stage 9 -->
    <_>
      <maxWeakCount>4</maxWeakCount>
      <stageThreshold>-3.6167681217193604e-02</stageThreshold>
      <weakClassifiers>
        <_>
          <internalNodes>
            0 -1 67 7.1740811108611524e-05</internalNodes>
          <leafValues>
            5.2554744482040405e-01 -9.4444441795349121e-01</leafValues></_>
        <_>
          <internalNodes>
            0 -1 80 -9.1752782464027405e-04</internalNodes>
          <leafValues>
            6.8413257598876953e-01 -4.5537227392196655e-01</leafValues></_>
        <_>
          <internalNodes>
            0 -1 51 9.0484991669654846e-03</internalNodes>
          <leafValues>
            -3.4524956345558167e-01 7.5001198053359985e-01</leafValues></_>
        <_>
          <internalNodes>
            0 -1 22 -3.6456470843404531e-04</internalNodes>
          <leafValues>
            -8.5635483264923096e-01 3.4237021207809448e-01</leafValues></_></weakClassifiers></_>
    <!-- stage 10 -->
    <_>
      <maxWeakCount>6</maxWeakCount>
      <stageThreshold>-6.8277019262313843e-01</stageThreshold>
      <weakClassifiers>
        <_>
          <internalNodes>
            0 -1 70 -6.8406385253183544e-05</internalNodes>
          <leafValues>
            -7.4545454978942871e-01 5.9215688705444336e-01</leafValues></_>
        <_>
          <internalNodes>
            0 -1 53 -5.3480369388125837e-05</internalNodes>
          <leafValues>
            -5.8476322889328003e-01 4.4847583770751953e-01</leafValues></_>
        <_>
          <internalNodes>
            0 -1 64 -2.0070070400834084e-02</internalNodes>
          <leafValues>
            7.6112020015716553e-01 -3.6083939671516418e-01</leafValues></_>
        <_>
          <internalNodes>
            0 -1 82 -1.8151625990867615e-03</internalNodes>
          <leafValues>
            5.4825609922409058e-01 -4.5797950029373169e-01</leafValues></_>
        <_>
          <internalNodes>
            0 -1 79 -4.9026240594685078e-03</internalNodes>
          <leafValues>
            7.4543750286102295e-01 -3.4846478700637817e-01</leafValues></_>
        <_>
          <internalNodes>
            0 -1 55 -4.5773823512718081e-04</internalNodes>
          <leafValues>
            5.1795953512191772e-01 -5.2911573648452759e-01</leafValues></_></weakClassifiers></_>
    <!-- stage 11 -->
    <_>
      <maxWeakCount>8</maxWeakCount>
      <stageThreshold>-2.5852540135383606e-01</stageThreshold>
      <weakClassifiers>
        <_>
          <internalNodes>
            0 -1 54 -1.6718874394427985e-04</internalNodes>
          <leafValues>
            -8.0487805604934692e-01 5.3159850835800171e-01</leafValues></_>
        <_>
          <internalNodes>
            0 -1 15 -4.0319927036762238e-02</internalNodes>
          <leafValues>
            5.9727174043655396e-01 -3.7339955568313599e-01</leafValues></_>
        <_>
          <internalNodes>
            0 -1 29 -1.6942562069743872e-04</internalNodes>
          <leafValues>
            4.9695757031440735e-01 -4.7984299063682556e-01</leafValues></_>
        <_>
          <internalNodes>
            0 -1 95 -3.5853683948516846e-03</internalNodes>
          <leafValues>
            6.9552940130233765e-01 -3.4019097685813904e-01</leafValues></_>
        <_>
          <internalNodes>
            0 -1 86 -4.7131106839515269e-04</internalNodes>
          <leafValues>
            4.8005566000938416e-01 -5.4392266273498535e-01</leafValues></_>
        <_>
          <internalNodes>
            0 -1 76 8.4603804862126708e-04</internalNodes>
          <leafValues>
            -7.2320050001144409e-01 3.6542564630508423e-01</leafValues></_>
        <_>
          <internalNodes>
            0 -1 84 1.2220954886288382e-05</internalNodes>
          <leafValues>
            3.5670664906501770e-01 -7.3620384931564331e-01</leafValues></_>
        <_>
          <internalNodes>
            0 -1 18 -3.1314452644437551e-04</internalNodes>
          <leafValues>
            5.8477598428726196e-01 -4.1365012526512146e-01</leafValues></_></weakClassifiers></_>
    <!-- stage 12 -->
    <_>
      <maxWeakCount>6</maxWeakCount>
      <stageThreshold>-1.3089147210121155e-01</stageThreshold>
      <weakClassifiers>
        <_>
          <internalNodes>
            0 -1 7 -2.3165747523307800e-02</internalNodes>
          <leafValues>
            8.1927710771560669e-01 -1.8055555224418640e-01</leafValues></_>
        <_>
          <internalNodes>
            0 -1 27 -3.4061266342177987e-04</internalNodes>
          <leafValues>
            -6.7914789915084839e-01 4.2979845404624939e-01</leafValues></_>
        <_>
          <internalNodes>
            0 -1 88 3.0353791080415249e-03</internalNodes>
          <leafValues>
            -2.8955614566802979e-01 8.3537316322326660e-01</leafValues></_>
        <_>
          <internalNodes>
            0 -1 66 3.7248246371746063e-05</internalNodes>
          <leafValues>
            -6.4074397087097168e-01 3.8483145833015442e-01</leafValues></_>
        <_>
          <internalNodes>
            0 -1 50 8.5054489318281412e-05</internalNodes>
          <leafValues>
            -6.0135656595230103e-01 3.9453324675559998e-01</leafValues></_>
        <_>
          <internalNodes>
            0 -1 62 2.2005173377692699e-03</internalNodes>
          <leafValues>
            2.5573381781578064e-01 -8.6994296312332153e-01</leafValues></_></weakClassifiers></_>
    <!-- stage 13 -->
    <_>
      <maxWeakCount>4</maxWeakCount>
      <stageThreshold>-1.6293220221996307e-01</stageThreshold>
      <weakClassifiers>
        <_>
          <internalNodes>
            0 -1 37 1.0637266095727682e-03</internalNodes>
          <leafValues>
            5.2173912525177002e-01 -1.</leafValues></_>
        <_>
          <internalNodes>
            0 -1 103 4.3623512610793114e-03</internalNodes>
          <leafValues>
            -3.7412989139556885e-01 7.1197479963302612e-01</leafValues></_>
        <_>
          <internalNodes>
            0 -1 48 -4.7591733164153993e-04</internalNodes>
          <leafValues>
            -8.8704574108123779e-01 3.4400784969329834e-01</leafValues></_>
        <_>
          <internalNodes>
            0 -1 87 -2.0044653210788965e-03</internalNodes>
          <leafValues>
            5.7650429010391235e-01 -4.5581066608428955e-01</leafValues></_></weakClassifiers></_>
    <!-- stage 14 -->
    <_>
      <maxWeakCount>7</maxWeakCount>
      <stageThreshold>-9.6568763256072998e-01</stageThreshold>
      <weakClassifiers>
        <_>
          <internalNodes>
            0 -1 59 8.4383980720303953e-05</internalNodes>
          <leafValues>
            5.4961830377578735e-01 -7.0833331346511841e-01</leafValues></_>
        <_>
          <internalNodes>
            0 -1 32 -2.7155250427313149e-04</internalNodes>
          <leafValues>
            -6.3331866264343262e-01 3.9113372564315796e-01</leafValues></_>
        <_>
          <internalNodes>
            0 -1 33 3.9616346475668252e-04</internalNodes>
          <leafValues>
            2.5051066279411316e-01 -8.8937062025070190e-01</leafValues></_>
        <_>
          <internalNodes>
            0 -1 1 -8.5000917315483093e-03</internalNodes>
          <leafValues>
            8.1498742103576660e-01 -3.4028750658035278e-01</leafValues></_>
        <_>
          <internalNodes>
            0 -1 81 -5.1629096560645849e-05</internalNodes>
          <leafValues>
            3.9623299241065979e-01 -6.1006981134414673e-01</leafValues></_>
        <_>
          <internalNodes>
            0 -1 73 -1.7135107191279531e-04</internalNodes>
          <leafValues>
            -6.0218006372451782e-01 4.1156053543090820e-01</leafValues></_>
        <_>
          <internalNodes>
            0 -1 89 1.8294609617441893e-05</internalNodes>
          <leafValues>
            4.2003938555717468e-01 -6.1570280790328979e-01</leafValues></_></weakClassifiers></_>
    <!-- stage 15 -->
    <_>
      <maxWeakCount>7</maxWeakCount>
      <stageThreshold>-2.0228716731071472e-01</stageThreshold>
      <weakClassifiers>
        <_>
          <internalNodes>
            0 -1 69 7.5654155807569623e-05</internalNodes>
          <leafValues>
            5.2029520273208618e-01 -7.9487180709838867e-01</leafValues></_>
        <_>
          <internalNodes>
            0 -1 83 -3.2703499309718609e-03</internalNodes>
          <leafValues>
            7.6874279975891113e-01 -2.8342479467391968e-01</leafValues></_>
        <_>
          <internalNodes>
            0 -1 38 -5.4443936096504331e-04</internalNodes>
          <leafValues>
            5.5532044172286987e-01 -4.0539410710334778e-01</leafValues></_>
        <_>
          <internalNodes>
            0 -1 2 4.7797734623600263e-06</internalNodes>
          <leafValues>
            3.6544305086135864e-01 -5.5105525255203247e-01</leafValues></_>
        <_>
          <internalNodes>
            0 -1 65 -1.0438729077577591e-03</internalNodes>
          <leafValues>
            7.7167725563049316e-01 -2.9647207260131836e-01</leafValues></_>
        <_>
          <internalNodes>
            0 -1 12 -1.5068843029439449e-02</internalNodes>
          <leafValues>
            4.9434325098991394e-01 -4.7360357642173767e-01</leafValues></_>
        <_>
          <internalNodes>
            0 -1 102 3.1049821700435132e-05</internalNodes>
          <leafValues>
            4.2359736561775208e-01 -5.8984541893005371e-01</leafValues></_></weakClassifiers></_>
    <!-- stage 16 -->
    <_>
      <maxWeakCount>7</maxWeakCount>
      <stageThreshold>-5.5742186307907104e-01</stageThreshold>
      <weakClassifiers>
        <_>
          <internalNodes>
            0 -1 36 4.4603599235415459e-04</internalNodes>
          <leafValues>
            -2.1311475336551666e-01 7.2340422868728638e-01</leafValues></_>
        <_>
          <internalNodes>
            0 -1 28 -5.4832117166370153e-04</internalNodes>
          <leafValues>
            -8.2478779554367065e-01 3.4365460276603699e-01</leafValues></_>
        <_>
          <internalNodes>
            0 -1 20 5.8766535948961973e-04</internalNodes>
          <leafValues>
            -3.5673263669013977e-01 6.8423932790756226e-01</leafValues></_>
        <_>
          <internalNodes>
            0 -1 58 1.1408003047108650e-05</internalNodes>
          <leafValues>
            -6.8983006477355957e-01 3.4703657031059265e-01</leafValues></_>
        <_>
          <internalNodes>
            0 -1 8 -4.8350933939218521e-03</internalNodes>
          <leafValues>
            5.0899177789688110e-01 -5.1517724990844727e-01</leafValues></_>
        <_>
          <internalNodes>
            0 -1 19 6.7779235541820526e-04</internalNodes>
          <leafValues>
            -3.3114853501319885e-01 8.1185543537139893e-01</leafValues></_>
        <_>
          <internalNodes>
            0 -1 68 1.9707204046426341e-05</internalNodes>
          <leafValues>
            -6.1229240894317627e-01 3.9587825536727905e-01</leafValues></_></weakClassifiers></_>
    <!-- stage 17 -->
    <_>
      <maxWeakCount>4</maxWeakCount>
      <stageThreshold>-1.0254444926977158e-01</stageThreshold>
      <weakClassifiers>
        <_>
          <internalNodes>
            0 -1 14 -2.2405162453651428e-03</internalNodes>
          <leafValues>
            5.2272725105285645e-01 -6.0869562625885010e-01</leafValues></_>
        <_>
          <internalNodes>
            0 -1 94 -5.6414646678604186e-05</internalNodes>
          <leafValues>
            5.2515751123428345e-01 -3.9014384150505066e-01</leafValues></_>
        <_>
          <internalNodes>
            0 -1 23 -1.2099205923732370e-04</internalNodes>
          <leafValues>
            5.6394755840301514e-01 -3.5457789897918701e-01</leafValues></_>
        <_>
          <internalNodes>
            0 -1 39 -2.3687642067670822e-02</internalNodes>
          <leafValues>
            -7.0317131280899048e-01 3.3234748244285583e-01</leafValues></_></weakClassifiers></_>
    <!-- stage 18 -->
    <_>
      <maxWeakCount>8</maxWeakCount>
      <stageThreshold>-3.7818666547536850e-02</stageThreshold>
      <weakClassifiers>
        <_>
          <internalNodes>
            0 -1 78 -9.1776028275489807e-03</internalNodes>
          <leafValues>
            -8.8888889551162720e-01 5.1824820041656494e-01</leafValues></_>
        <_>
          <internalNodes>
            0 -1 6 -6.1879716813564301e-03</internalNodes>
          <leafValues>
            8.2462900876998901e-01 -2.2146528959274292e-01</leafValues></_>
        <_>
          <internalNodes>
            0 -1 10 -2.6388086553197354e-05</internalNodes>
          <leafValues>
            -6.4945864677429199e-01 3.4377962350845337e-01</leafValues></_>
        <_>
          <internalNodes>
            0 -1 101 -2.0834880415350199e-03</internalNodes>
          <leafValues>
            5.4249107837677002e-01 -3.5066038370132446e-01</leafValues></_>
        <_>
          <internalNodes>
            0 -1 104 -7.0178136229515076e-03</internalNodes>
          <leafValues>
            4.5062610507011414e-01 -5.5675309896469116e-01</leafValues></_>
        <_>
          <internalNodes>
            0 -1 42 6.6318712197244167e-04</internalNodes>
          <leafValues>
            2.6554778218269348e-01 -7.6945948600769043e-01</leafValues></_>
        <_>
          <internalNodes>
            0 -1 56 -1.2937192514073104e-04</internalNodes>
          <leafValues>
            6.0489386320114136e-01 -3.7314626574516296e-01</leafValues></_>
        <_>
          <internalNodes>
            0 -1 25 3.2950134482234716e-04</internalNodes>
          <leafValues>
            -4.9466192722320557e-01 4.7848656773567200e-01</leafValues></_></weakClassifiers></_>
    <!-- stage 19 -->
    <_>
      <maxWeakCount>6</maxWeakCount>
      <stageThreshold>-8.0725049972534180e-01</stageThreshold>
      <weakClassifiers>
        <_>
          <internalNodes>
            0 -1 100 1.9520217028912157e-04</internalNodes>
          <leafValues>
            5.7647061347961426e-01 -6.7272728681564331e-01</leafValues></_>
        <_>
          <internalNodes>
            0 -1 34 -5.3251245990395546e-03</internalNodes>
          <leafValues>
            4.5916965603828430e-01 -5.5553245544433594e-01</leafValues></_>
        <_>
          <internalNodes>
            0 -1 97 -1.8199691548943520e-03</internalNodes>
          <leafValues>
            6.9023334980010986e-01 -3.8598671555519104e-01</leafValues></_>
        <_>
          <internalNodes>
            0 -1 49 -7.6159500167705119e-05</internalNodes>
          <leafValues>
            4.0297552943229675e-01 -6.3141322135925293e-01</leafValues></_>
        <_>
          <internalNodes>
            0 -1 11 -2.5438677519559860e-02</internalNodes>
          <leafValues>
            6.1445736885070801e-01 -4.4982695579528809e-01</leafValues></_>
        <_>
          <internalNodes>
            0 -1 85 -5.4709520190954208e-03</internalNodes>
          <leafValues>
            8.5384738445281982e-01 -3.3984249830245972e-01</leafValues></_></weakClassifiers></_></stages>
  <features>
    <_>
      <rects>
        <_>
          0 0 12 18 -1.</_>
        <_>
          0 9 12 9 2.</_></rects>
      <tilted>0</tilted></_>
    <_>
      <rects>
        <_>
          0 1 31 10 -1.</_>
        <_>
          0 6 31 5 2.</_></rects>
      <tilted>0</tilted></_>
    <_>
      <rects>
        <_>
          0 5 2 6 -1.</_>
        <_>
          1 5 1 6 2.</_></rects>
      <tilted>0</tilted></_>
    <_>
      <rects>
        <_>
          0 11 6 29 -1.</_>
        <_>
          3 11 3 29 2.</_></rects>
      <tilted>0</tilted></_>
    <_>
      <rects>
        <_>
          0 12 40 39 -1.</_>
        <_>
          20 12 20 39 2.</_></rects>
      <tilted>0</tilted></_>
    <_>
      <rects>
        <_>
          0 14 20 36 -1.</_>
        <_>
          10 14 10 36 2.</_></rects>
      <tilted>0</tilted></_>
    <_>
      <rects>
        <_>
          0 17 6 21 -1.</_>
        <_>
          3 17 3 21 2.</_></rects>
      <tilted>0</tilted></_>
    <_>
      <rects>
        <_>
          0 20 16 39 -1.</_>
        <_>
          8 20 8 39 2.</_></rects>
      <tilted>0</tilted></_>
    <_>
      <rects>
        <_>
          0 32 18 5 -1.</_>
        <_>
          9 32 9 5 2.</_></rects>
      <tilted>0</tilted></_>
    <_>
      <rects>
        <_>
          1 10 18 23 -1.</_>
        <_>
          10 10 9 23 2.</_></rects>
      <tilted>0</tilted></_>
    <_>
      <rects>
        <_>
          1 11 4 2 -1.</_>
        <_>
          1 11 2 1 2.</_>
        <_>
          3 12 2 1 2.</_></rects>
      <tilted>0</tilted></_>
    <_>
      <rects>
        <_>
          1 26 30 17 -1.</_>
        <_>
          11 26 10 17 3.</_></rects>
      <tilted>0</tilted></_>
    <_>
      <rects>
        <_>
          1 26 29 16 -1.</_>
        <_>
          1 34 29 8 2.</_></rects>
      <tilted>0</tilted></_>
    <_>
      <rects>
        <_>
          2 1 8 70 -1.</_>
        <_>
          2 1 4 35 2.</_>
        <_>
          6 36 4 35 2.</_></rects>
      <tilted>0</tilted></_>
    <_>
      <rects>
        <_>
          2 23 45 22 -1.</_>
        <_>
          2 34 45 11 2.</_></rects>
      <tilted>0</tilted></_>
    <_>
      <rects>
        <_>
          2 26 33 15 -1.</_>
        <_>
          13 26 11 15 3.</_></rects>
      <tilted>0</tilted></_>
    <_>
      <rects>
        <_>
          3 35 25 9 -1.</_>
        <_>
          3 38 25 3 3.</_></rects>
      <tilted>0</tilted></_>
    <_>
      <rects>
        <_>
          5 13 7 18 -1.</_>
        <_>
          5 22 7 9 2.</_></rects>
      <tilted>0</tilted></_>
    <_>
      <rects>
        <_>
          5 48 4 20 -1.</_>
        <_>
          5 48 2 10 2.</_>
        <_>
          7 58 2 10 2.</_></rects>
      <tilted>0</tilted></_>
    <_>
      <rects>
        <_>
          6 29 4 16 -1.</_>
        <_>
          8 29 2 16 2.</_></rects>
      <tilted>0</tilted></_>
    <_>
      <rects>
        <_>
          6 40 40 4 -1.</_>
        <_>
          6 40 20 2 2.</_>
        <_>
          26 42 20 2 2.</_></rects>
      <tilted>0</tilted></_>
    <_>
      <rects>
        <_>
          7 36 16 9 -1.</_>
        <_>
          7 39 16 3 3.</_></rects>
      <tilted>0</tilted></_>
    <_>
      <rects>
        <_>
          7 44 22 3 -1.</_>
        <_>
          7 45 22 1 3.</_></rects>
      <tilted>0</tilted></_>
    <_>
      <rects>
        <_>
          7 45 2 19 -1.</_>
        <_>
          8 45 1 19 2.</_></rects>
      <tilted>0</tilted></_>
    <_>
      <rects>
        <_>
          8 0 35 64 -1.</_>
        <_>
          8 32 35 32 2.</_></rects>
      <tilted>0</tilted></_>
    <_>
      <rects>
        <_>
          8 37 9 9 -1.</_>
        <_>
          11 37 3 9 3.</_></rects>
      <tilted>0</tilted></_>
    <_>
      <rects>
        <_>
          8 38 18 4 -1.</_>
        <_>
          8 40 18 2 2.</_></rects>
      <tilted>0</tilted></_>
    <_>
      <rects>
        <_>
          9 46 24 3 -1.</_>
        <_>
          9 47 24 1 3.</_></rects>
      <tilted>0</tilted></_>
    <_>
      <rects>
        <_>
          10 45 12 6 -1.</_>
        <_>
          10 47 12 2 3.</_></rects>
      <tilted>0</tilted></_>
    <_>
      <rects>
        <_>
          11 40 22 4 -1.</_>
        <_>
          22 40 11 4 2.</_></rects>
      <tilted>0</tilted></_>
    <_>
      <rects>
        <_>
          12 21 23 32 -1.</_>
        <_>
          12 37 23 16 2.</_></rects>
      <tilted>0</tilted></_>
    <_>
      <rects>
        <_>
          12 34 13 12 -1.</_>
        <_>
          12 38 13 4 3.</_></rects>
      <tilted>0</tilted></_>
    <_>
      <rects>
        <_>
          12 37 22 18 -1.</_>
        <_>
          12 46 22 9 2.</_></rects>
      <tilted>0</tilted></_>
    <_>
      <rects>
        <_>
          12 44 16 3 -1.</_>
        <_>
          12 45 16 1 3.</_></rects>
      <tilted>0</tilted></_>
    <_>
      <rects>
        <_>
          13 29 15 13 -1.</_>
        <_>
          18 29 5 13 3.</_></rects>
      <tilted>0</tilted></_>
    <_>
      <rects>
        <_>
          13 32 18 13 -1.</_>
        <_>
          19 32 6 13 3.</_></rects>
      <tilted>0</tilted></_>
    <_>
      <rects>
        <_>
          13 33 6 22 -1.</_>
        <_>
          13 33 3 11 2.</_>
        <_>
          16 44 3 11 2.</_></rects>
      <tilted>0</tilted></_>
    <_>
      <rects>
        <_>
          13 44 9 6 -1.</_>
        <_>
          13 46 9 2 3.</_></rects>
      <tilted>0</tilted></_>
    <_>
      <rects>
        <_>
          14 39 4 12 -1.</_>
        <_>
          16 39 2 12 2.</_></rects>
      <tilted>0</tilted></_>
    <_>
      <rects>
        <_>
          15 21 10 34 -1.</_>
        <_>
          15 38 10 17 2.</_></rects>
      <tilted>0</tilted></_>
    <_>
      <rects>
        <_>
          15 34 4 2 -1.</_>
        <_>
          17 34 2 2 2.</_></rects>
      <tilted>0</tilted></_>
    <_>
      <rects>
        <_>
          15 36 12 5 -1.</_>
        <_>
          21 36 6 5 2.</_></rects>
      <tilted>0</tilted></_>
    <_>
      <rects>
        <_>
          15 46 10 6 -1.</_>
        <_>
          15 48 10 2 3.</_></rects>
      <tilted>0</tilted></_>
    <_>
      <rects>
        <_>
          16 13 24 45 -1.</_>
        <_>
          16 28 24 15 3.</_></rects>
      <tilted>0</tilted></_>
    <_>
      <rects>
        <_>
          16 27 12 10 -1.</_>
        <_>
          20 27 4 10 3.</_></rects>
      <tilted>0</tilted></_>
    <_>
      <rects>
        <_>
          16 34 3 20 -1.</_>
        <_>
          17 34 1 20 3.</_></rects>
      <tilted>0</tilted></_>
    <_>
      <rects>
        <_>
          16 34 6 10 -1.</_>
        <_>
          19 34 3 10 2.</_></rects>
      <tilted>0</tilted></_>
    <_>
      <rects>
        <_>
          16 44 5 2 -1.</_>
        <_>
          16 45 5 1 2.</_></rects>
      <tilted>0</tilted></_>
    <_>
      <rects>
        <_>
          16 44 7 6 -1.</_>
        <_>
          16 46 7 2 3.</_></rects>
      <tilted>0</tilted></_>
    <_>
      <rects>
        <_>
          17 36 6 1 -1.</_>
        <_>
          20 36 3 1 2.</_></rects>
      <tilted>0</tilted></_>
    <_>
      <rects>
        <_>
          17 46 4 10 -1.</_>
        <_>
          17 46 2 5 2.</_>
        <_>
          19 51 2 5 2.</_></rects>
      <tilted>0</tilted></_>
    <_>
      <rects>
        <_>
          18 17 14 20 -1.</_>
        <_>
          18 17 7 10 2.</_>
        <_>
          25 27 7 10 2.</_></rects>
      <tilted>0</tilted></_>
    <_>
      <rects>
        <_>
          18 36 8 18 -1.</_>
        <_>
          18 45 8 9 2.</_></rects>
      <tilted>0</tilted></_>
    <_>
      <rects>
        <_>
          19 48 5 6 -1.</_>
        <_>
          19 50 5 2 3.</_></rects>
      <tilted>0</tilted></_>
    <_>
      <rects>
        <_>
          19 50 5 3 -1.</_>
        <_>
          19 51 5 1 3.</_></rects>
      <tilted>0</tilted></_>
    <_>
      <rects>
        <_>
          20 5 6 53 -1.</_>
        <_>
          22 5 2 53 3.</_></rects>
      <tilted>0</tilted></_>
    <_>
      <rects>
        <_>
          20 19 2 4 -1.</_>
        <_>
          20 21 2 2 2.</_></rects>
      <tilted>0</tilted></_>
    <_>
      <rects>
        <_>
          20 26 5 24 -1.</_>
        <_>
          20 34 5 8 3.</_></rects>
      <tilted>0</tilted></_>
    <_>
      <rects>
        <_>
          20 41 3 4 -1.</_>
        <_>
          20 43 3 2 2.</_></rects>
      <tilted>0</tilted></_>
    <_>
      <rects>
        <_>
          20 50 2 2 -1.</_>
        <_>
          20 51 2 1 2.</_></rects>
      <tilted>0</tilted></_>
    <_>
      <rects>
        <_>
          21 16 26 22 -1.</_>
        <_>
          21 16 13 11 2.</_>
        <_>
          34 27 13 11 2.</_></rects>
      <tilted>0</tilted></_>
    <_>
      <rects>
        <_>
          21 28 4 18 -1.</_>
        <_>
          21 34 4 6 3.</_></rects>
      <tilted>0</tilted></_>
    <_>
      <rects>
        <_>
          21 34 1 16 -1.</_>
        <_>
          21 42 1 8 2.</_></rects>
      <tilted>0</tilted></_>
    <_>
      <rects>
        <_>
          21 44 2 4 -1.</_>
        <_>
          21 46 2 2 2.</_></rects>
      <tilted>0</tilted></_>
    <_>
      <rects>
        <_>
          22 6 21 16 -1.</_>
        <_>
          22 14 21 8 2.</_></rects>
      <tilted>0</tilted></_>
    <_>
      <rects>
        <_>
          22 14 10 4 -1.</_>
        <_>
          22 16 10 2 2.</_></rects>
      <tilted>0</tilted></_>
    <_>
      <rects>
        <_>
          22 37 1 8 -1.</_>
        <_>
          22 41 1 4 2.</_></rects>
      <tilted>0</tilted></_>
    <_>
      <rects>
        <_>
          22 38 3 1 -1.</_>
        <_>
          23 38 1 1 3.</_></rects>
      <tilted>0</tilted></_>
    <_>
      <rects>
        <_>
          23 35 1 8 -1.</_>
        <_>
          23 39 1 4 2.</_></rects>
      <tilted>0</tilted></_>
    <_>
      <rects>
        <_>
          23 37 3 2 -1.</_>
        <_>
          24 37 1 2 3.</_></rects>
      <tilted>0</tilted></_>
    <_>
      <rects>
        <_>
          23 37 4 2 -1.</_>
        <_>
          23 38 4 1 2.</_></rects>
      <tilted>0</tilted></_>
    <_>
      <rects>
        <_>
          23 49 2 3 -1.</_>
        <_>
          23 50 2 1 3.</_></rects>
      <tilted>0</tilted></_>
    <_>
      <rects>
        <_>
          24 37 2 6 -1.</_>
        <_>
          24 39 2 2 3.</_></rects>
      <tilted>0</tilted></_>
    <_>
      <rects>
        <_>
          24 57 4 6 -1.</_>
        <_>
          24 59 4 2 3.</_></rects>
      <tilted>0</tilted></_>
    <_>
      <rects>
        <_>
          25 30 9 13 -1.</_>
        <_>
          28 30 3 13 3.</_></rects>
      <tilted>0</tilted></_>
    <_>
      <rects>
        <_>
          25 31 9 9 -1.</_>
        <_>
          28 31 3 9 3.</_></rects>
      <tilted>0</tilted></_>
    <_>
      <rects>
        <_>
          25 33 9 8 -1.</_>
        <_>
          28 33 3 8 3.</_></rects>
      <tilted>0</tilted></_>
    <_>
      <rects>
        <_>
          25 33 12 15 -1.</_>
        <_>
          29 33 4 15 3.</_></rects>
      <tilted>0</tilted></_>
    <_>
      <rects>
        <_>
          26 8 1 40 -1.</_>
        <_>
          26 28 1 20 2.</_></rects>
      <tilted>0</tilted></_>
    <_>
      <rects>
        <_>
          27 14 12 14 -1.</_>
        <_>
          27 14 6 7 2.</_>
        <_>
          33 21 6 7 2.</_></rects>
      <tilted>0</tilted></_>
    <_>
      <rects>
        <_>
          27 29 1 18 -1.</_>
        <_>
          27 35 1 6 3.</_></rects>
      <tilted>0</tilted></_>
    <_>
      <rects>
        <_>
          28 29 8 20 -1.</_>
        <_>
          32 29 4 20 2.</_></rects>
      <tilted>0</tilted></_>
    <_>
      <rects>
        <_>
          28 30 8 10 -1.</_>
        <_>
          32 30 4 10 2.</_></rects>
      <tilted>0</tilted></_>
    <_>
      <rects>
        <_>
          28 34 8 12 -1.</_>
        <_>
          28 38 8 4 3.</_></rects>
      <tilted>0</tilted></_>
    <_>
      <rects>
        <_>
          28 61 2 1 -1.</_>
        <_>
          29 61 1 1 2.</_></rects>
      <tilted>0</tilted></_>
    <_>
      <rects>
        <_>
          30 28 10 34 -1.</_>
        <_>
          30 28 5 17 2.</_>
        <_>
          35 45 5 17 2.</_></rects>
      <tilted>0</tilted></_>
    <_>
      <rects>
        <_>
          31 9 3 12 -1.</_>
        <_>
          31 15 3 6 2.</_></rects>
      <tilted>0</tilted></_>
    <_>
      <rects>
        <_>
          31 16 6 22 -1.</_>
        <_>
          31 16 3 11 2.</_>
        <_>
          34 27 3 11 2.</_></rects>
      <tilted>0</tilted></_>
    <_>
      <rects>
        <_>
          31 29 6 18 -1.</_>
        <_>
          31 29 3 9 2.</_>
        <_>
          34 38 3 9 2.</_></rects>
      <tilted>0</tilted></_>
    <_>
      <rects>
        <_>
          31 60 1 4 -1.</_>
        <_>
          31 62 1 2 2.</_></rects>
      <tilted>0</tilted></_>
    <_>
      <rects>
        <_>
          32 0 12 24 -1.</_>
        <_>
          32 0 6 12 2.</_>
        <_>
          38 12 6 12 2.</_></rects>
      <tilted>0</tilted></_>
    <_>
      <rects>
        <_>
          34 23 8 38 -1.</_>
        <_>
          34 42 8 19 2.</_></rects>
      <tilted>0</tilted></_>
    <_>
      <rects>
        <_>
          35 27 12 1 -1.</_>
        <_>
          41 27 6 1 2.</_></rects>
      <tilted>0</tilted></_>
    <_>
      <rects>
        <_>
          36 7 8 28 -1.</_>
        <_>
          36 7 4 14 2.</_>
        <_>
          40 21 4 14 2.</_></rects>
      <tilted>0</tilted></_>
    <_>
      <rects>
        <_>
          36 20 9 2 -1.</_>
        <_>
          36 21 9 1 2.</_></rects>
      <tilted>0</tilted></_>
    <_>
      <rects>
        <_>
          36 31 9 7 -1.</_>
        <_>
          39 31 3 7 3.</_></rects>
      <tilted>0</tilted></_>
    <_>
      <rects>
        <_>
          37 4 10 38 -1.</_>
        <_>
          42 4 5 38 2.</_></rects>
      <tilted>0</tilted></_>
    <_>
      <rects>
        <_>
          37 9 6 36 -1.</_>
        <_>
          39 9 2 36 3.</_></rects>
      <tilted>0</tilted></_>
    <_>
      <rects>
        <_>
          37 13 10 29 -1.</_>
        <_>
          42 13 5 29 2.</_></rects>
      <tilted>0</tilted></_>
    <_>
      <rects>
        <_>
          37 14 6 16 -1.</_>
        <_>
          37 14 3 8 2.</_>
        <_>
          40 22 3 8 2.</_></rects>
      <tilted>0</tilted></_>
    <_>
      <rects>
        <_>
          37 52 2 4 -1.</_>
        <_>
          37 54 2 2 2.</_></rects>
      <tilted>0</tilted></_>
    <_>
      <rects>
        <_>
          39 25 4 42 -1.</_>
        <_>
          39 25 2 21 2.</_>
        <_>
          41 46 2 21 2.</_></rects>
      <tilted>0</tilted></_>
    <_>
      <rects>
        <_>
          40 48 2 4 -1.</_>
        <_>
          41 48 1 4 2.</_></rects>
      <tilted>0</tilted></_>
    <_>
      <rects>
        <_>
          41 12 6 34 -1.</_>
        <_>
          44 12 3 34 2.</_></rects>
      <tilted>0</tilted></_>
    <_>
      <rects>
        <_>
          42 0 5 40 -1.</_>
        <_>
          42 20 5 20 2.</_></rects>
      <tilted>0</tilted></_></features></cascade>
</opencv_storage>
