<?xml version="1.0"?>
<opencv_storage>
<cascade>
  <stageType>BOOST</stageType>
  <featureType>HAAR</featureType>
  <height>54</height>
  <width>63</width>
  <stageParams>
    <boostType>GAB</boostType>
    <minHitRate>9.9900001287460327e-01</minHitRate>
    <maxFalseAlarm>5.0000000000000000e-01</maxFalseAlarm>
    <weightTrimRate>9.4999999999999996e-01</weightTrimRate>
    <maxDepth>1</maxDepth>
    <maxWeakCount>100</maxWeakCount></stageParams>
  <featureParams>
    <maxCatCount>0</maxCatCount>
    <featSize>1</featSize>
    <mode>BASIC</mode></featureParams>
  <stageNum>20</stageNum>
  <stages>
    <!-- stage 0 -->
    <_>
      <maxWeakCount>5</maxWeakCount>
      <stageThreshold>-5.0198513269424438e-01</stageThreshold>
      <weakClassifiers>
        <_>
          <internalNodes>
            0 -1 11 -1.4912740327417850e-02</internalNodes>
          <leafValues>
            8.0512821674346924e-01 -4.0869563817977905e-01</leafValues></_>
        <_>
          <internalNodes>
            0 -1 55 3.5169391776435077e-04</internalNodes>
          <leafValues>
            -4.8768016695976257e-01 6.4062571525573730e-01</leafValues></_>
        <_>
          <internalNodes>
            0 -1 54 -2.2532687580678612e-05</internalNodes>
          <leafValues>
            4.2716500163078308e-01 -7.1875399351119995e-01</leafValues></_>
        <_>
          <internalNodes>
            0 -1 101 1.5747301280498505e-02</internalNodes>
          <leafValues>
            -4.6278345584869385e-01 6.2929505109786987e-01</leafValues></_>
        <_>
          <internalNodes>
            0 -1 79 2.2295553208095953e-05</internalNodes>
          <leafValues>
            4.7378265857696533e-01 -6.4445632696151733e-01</leafValues></_></weakClassifiers></_>
    <!-- stage 1 -->
    <_>
      <maxWeakCount>3</maxWeakCount>
      <stageThreshold>-1.7060955986380577e-02</stageThreshold>
      <weakClassifiers>
        <_>
          <internalNodes>
            0 -1 6 -1.5791699290275574e-02</internalNodes>
          <leafValues>
            7.8723406791687012e-01 -3.1147539615631104e-01</leafValues></_>
        <_>
          <internalNodes>
            0 -1 65 1.0379899758845568e-03</internalNodes>
          <leafValues>
            -4.7150230407714844e-01 6.4479720592498779e-01</leafValues></_>
        <_>
          <internalNodes>
            0 -1 57 4.9916081130504608e-02</internalNodes>
          <leafValues>
            -3.3279269933700562e-01 8.4964805841445923e-01</leafValues></_></weakClassifiers></_>
    <!-- stage 2 -->
    <_>
      <maxWeakCount>4</maxWeakCount>
      <stageThreshold>-8.5394215583801270e-01</stageThreshold>
      <weakClassifiers>
        <_>
          <internalNodes>
            0 -1 60 -1.1356949835317209e-04</internalNodes>
          <leafValues>
            7.3515981435775757e-01 -5.6043958663940430e-01</leafValues></_>
        <_>
          <internalNodes>
            0 -1 33 -5.7023935019969940e-02</internalNodes>
          <leafValues>
            7.6922947168350220e-01 -6.0876613855361938e-01</leafValues></_>
        <_>
          <internalNodes>
            0 -1 104 -4.3364340672269464e-04</internalNodes>
          <leafValues>
            6.2079924345016479e-01 -4.7499918937683105e-01</leafValues></_>
        <_>
          <internalNodes>
            0 -1 75 5.9011792473029345e-05</internalNodes>
          <leafValues>
            -5.0533664226531982e-01 6.0049796104431152e-01</leafValues></_></weakClassifiers></_>
    <!-- stage 3 -->
    <_>
      <maxWeakCount>5</maxWeakCount>
      <stageThreshold>-3.4802219271659851e-01</stageThreshold>
      <weakClassifiers>
        <_>
          <internalNodes>
            0 -1 51 -3.2226517796516418e-03</internalNodes>
          <leafValues>
            -8.9999997615814209e-01 5.4074072837829590e-01</leafValues></_>
        <_>
          <internalNodes>
            0 -1 98 -2.0718860014312668e-06</internalNodes>
          <leafValues>
            4.9925222992897034e-01 -5.2265149354934692e-01</leafValues></_>
        <_>
          <internalNodes>
            0 -1 47 2.8444372583180666e-03</internalNodes>
          <leafValues>
            3.4467980265617371e-01 -7.6829248666763306e-01</leafValues></_>
        <_>
          <internalNodes>
            0 -1 37 -2.5657427613623440e-04</internalNodes>
          <leafValues>
            4.2852947115898132e-01 -5.8059048652648926e-01</leafValues></_>
        <_>
          <internalNodes>
            0 -1 13 5.5021755397319794e-03</internalNodes>
          <leafValues>
            2.8863623738288879e-01 -9.1683661937713623e-01</leafValues></_></weakClassifiers></_>
    <!-- stage 4 -->
    <_>
      <maxWeakCount>7</maxWeakCount>
      <stageThreshold>-6.3721883296966553e-01</stageThreshold>
      <weakClassifiers>
        <_>
          <internalNodes>
            0 -1 58 8.0455117858946323e-04</internalNodes>
          <leafValues>
            5.4646837711334229e-01 -9.0243899822235107e-01</leafValues></_>
        <_>
          <internalNodes>
            0 -1 113 -3.4551479620859027e-04</internalNodes>
          <leafValues>
            5.0320106744766235e-01 -5.5163294076919556e-01</leafValues></_>
        <_>
          <internalNodes>
            0 -1 109 1.2889789650216699e-03</internalNodes>
          <leafValues>
            3.7544530630111694e-01 -8.0134171247482300e-01</leafValues></_>
        <_>
          <internalNodes>
            0 -1 100 -2.6391257051727735e-05</internalNodes>
          <leafValues>
            5.6103289127349854e-01 -5.8607238531112671e-01</leafValues></_>
        <_>
          <internalNodes>
            0 -1 9 -2.0106798037886620e-02</internalNodes>
          <leafValues>
            5.4286330938339233e-01 -4.8394736647605896e-01</leafValues></_>
        <_>
          <internalNodes>
            0 -1 77 1.6449662507511675e-04</internalNodes>
          <leafValues>
            -4.5678713917732239e-01 6.0016965866088867e-01</leafValues></_>
        <_>
          <internalNodes>
            0 -1 110 4.9352012574672699e-03</internalNodes>
          <leafValues>
            -4.9163067340850830e-01 6.4126032590866089e-01</leafValues></_></weakClassifiers></_>
    <!-- stage 5 -->
    <_>
      <maxWeakCount>6</maxWeakCount>
      <stageThreshold>-4.1073745489120483e-01</stageThreshold>
      <weakClassifiers>
        <_>
          <internalNodes>
            0 -1 71 8.2764163380488753e-04</internalNodes>
          <leafValues>
            -2.2916667163372040e-01 6.1682242155075073e-01</leafValues></_>
        <_>
          <internalNodes>
            0 -1 1 9.2719122767448425e-04</internalNodes>
          <leafValues>
            -1.8381680548191071e-01 9.1939651966094971e-01</leafValues></_>
        <_>
          <internalNodes>
            0 -1 28 -3.3781495876610279e-03</internalNodes>
          <leafValues>
            4.3533298373222351e-01 -5.0746661424636841e-01</leafValues></_>
        <_>
          <internalNodes>
            0 -1 2 -3.5818074829876423e-03</internalNodes>
          <leafValues>
            6.1729896068572998e-01 -4.0242505073547363e-01</leafValues></_>
        <_>
          <internalNodes>
            0 -1 85 -3.5778677556663752e-04</internalNodes>
          <leafValues>
            6.8424981832504272e-01 -3.1771296262741089e-01</leafValues></_>
        <_>
          <internalNodes>
            0 -1 64 3.7434265323099680e-06</internalNodes>
          <leafValues>
            -5.5893802642822266e-01 4.5035159587860107e-01</leafValues></_></weakClassifiers></_>
    <!-- stage 6 -->
    <_>
      <maxWeakCount>6</maxWeakCount>
      <stageThreshold>-3.9485499262809753e-01</stageThreshold>
      <weakClassifiers>
        <_>
          <internalNodes>
            0 -1 52 -8.2620186731219292e-03</internalNodes>
          <leafValues>
            -8.2857143878936768e-01 5.0545454025268555e-01</leafValues></_>
        <_>
          <internalNodes>
            0 -1 86 6.4033447415567935e-06</internalNodes>
          <leafValues>
            -5.0109034776687622e-01 4.5690435171127319e-01</leafValues></_>
        <_>
          <internalNodes>
            0 -1 45 -3.8218069821596146e-03</internalNodes>
          <leafValues>
            3.2779940962791443e-01 -7.0951753854751587e-01</leafValues></_>
        <_>
          <internalNodes>
            0 -1 10 -3.6898338294122368e-05</internalNodes>
          <leafValues>
            -7.4526405334472656e-01 2.7717369794845581e-01</leafValues></_>
        <_>
          <internalNodes>
            0 -1 90 -9.6452458819840103e-06</internalNodes>
          <leafValues>
            -5.8392524719238281e-01 3.8510310649871826e-01</leafValues></_>
        <_>
          <internalNodes>
            0 -1 95 4.4976035133004189e-03</internalNodes>
          <leafValues>
            -3.5197845101356506e-01 6.8003553152084351e-01</leafValues></_></weakClassifiers></_>
    <!-- stage 7 -->
    <_>
      <maxWeakCount>5</maxWeakCount>
      <stageThreshold>-4.4172203540802002e-01</stageThreshold>
      <weakClassifiers>
        <_>
          <internalNodes>
            0 -1 23 1.3720800779992715e-05</internalNodes>
          <leafValues>
            6.4545452594757080e-01 -3.5555556416511536e-01</leafValues></_>
        <_>
          <internalNodes>
            0 -1 93 -1.9004429923370481e-03</internalNodes>
          <leafValues>
            -7.5331139564514160e-01 3.2363298535346985e-01</leafValues></_>
        <_>
          <internalNodes>
            0 -1 116 -3.4718446840997785e-05</internalNodes>
          <leafValues>
            5.2015006542205811e-01 -4.9306353926658630e-01</leafValues></_>
        <_>
          <internalNodes>
            0 -1 102 2.1553922444581985e-02</internalNodes>
          <leafValues>
            -2.8686016798019409e-01 9.1704630851745605e-01</leafValues></_>
        <_>
          <internalNodes>
            0 -1 87 -2.1226985609246185e-06</internalNodes>
          <leafValues>
            4.3385499715805054e-01 -5.9692442417144775e-01</leafValues></_></weakClassifiers></_>
    <!-- stage 8 -->
    <_>
      <maxWeakCount>6</maxWeakCount>
      <stageThreshold>-2.3979510366916656e-01</stageThreshold>
      <weakClassifiers>
        <_>
          <internalNodes>
            0 -1 34 2.3548738099634647e-03</internalNodes>
          <leafValues>
            5.0724637508392334e-01 -8.8235294818878174e-01</leafValues></_>
        <_>
          <internalNodes>
            0 -1 12 -2.5834674015641212e-03</internalNodes>
          <leafValues>
            3.9982372522354126e-01 -5.7230907678604126e-01</leafValues></_>
        <_>
          <internalNodes>
            0 -1 70 -1.2711561794276349e-05</internalNodes>
          <leafValues>
            4.0781256556510925e-01 -5.8462649583816528e-01</leafValues></_>
        <_>
          <internalNodes>
            0 -1 124 3.1293166102841496e-05</internalNodes>
          <leafValues>
            3.7584984302520752e-01 -5.8147585391998291e-01</leafValues></_>
        <_>
          <internalNodes>
            0 -1 88 -3.4313863579882309e-05</internalNodes>
          <leafValues>
            -5.7172155380249023e-01 3.6100140213966370e-01</leafValues></_>
        <_>
          <internalNodes>
            0 -1 74 4.1742566972970963e-03</internalNodes>
          <leafValues>
            -3.2695710659027100e-01 8.2190889120101929e-01</leafValues></_></weakClassifiers></_>
    <!-- stage 9 -->
    <_>
      <maxWeakCount>9</maxWeakCount>
      <stageThreshold>-6.9201791286468506e-01</stageThreshold>
      <weakClassifiers>
        <_>
          <internalNodes>
            0 -1 46 -2.0034057088196278e-03</internalNodes>
          <leafValues>
            6.8253970146179199e-01 -1.5702480077743530e-01</leafValues></_>
        <_>
          <internalNodes>
            0 -1 25 -4.2694741860032082e-03</internalNodes>
          <leafValues>
            -7.2782707214355469e-01 3.4692677855491638e-01</leafValues></_>
        <_>
          <internalNodes>
            0 -1 126 2.2988704586168751e-05</internalNodes>
          <leafValues>
            2.3550820350646973e-01 -7.3064494132995605e-01</leafValues></_>
        <_>
          <internalNodes>
            0 -1 121 -1.0575875057838857e-04</internalNodes>
          <leafValues>
            5.9097862243652344e-01 -3.4831386804580688e-01</leafValues></_>
        <_>
          <internalNodes>
            0 -1 80 2.8328478947514668e-05</internalNodes>
          <leafValues>
            -5.3462100028991699e-01 3.5846272110939026e-01</leafValues></_>
        <_>
          <internalNodes>
            0 -1 48 -1.1616169940680265e-03</internalNodes>
          <leafValues>
            4.9383336305618286e-01 -4.9232295155525208e-01</leafValues></_>
        <_>
          <internalNodes>
            0 -1 106 -6.2110652834235225e-06</internalNodes>
          <leafValues>
            5.3142839670181274e-01 -4.2196324467658997e-01</leafValues></_>
        <_>
          <internalNodes>
            0 -1 108 7.3825176514219493e-06</internalNodes>
          <leafValues>
            3.8261780142784119e-01 -5.7522147893905640e-01</leafValues></_>
        <_>
          <internalNodes>
            0 -1 73 2.6398012414574623e-04</internalNodes>
          <leafValues>
            3.6193075776100159e-01 -6.9999080896377563e-01</leafValues></_></weakClassifiers></_>
    <!-- stage 10 -->
    <_>
      <maxWeakCount>7</maxWeakCount>
      <stageThreshold>-9.7383126616477966e-02</stageThreshold>
      <weakClassifiers>
        <_>
          <internalNodes>
            0 -1 111 -1.8285815031049424e-06</internalNodes>
          <leafValues>
            6.8421053886413574e-01 -1.6666667163372040e-01</leafValues></_>
        <_>
          <internalNodes>
            0 -1 118 4.3349452316761017e-03</internalNodes>
          <leafValues>
            -2.7237212657928467e-01 6.3154375553131104e-01</leafValues></_>
        <_>
          <internalNodes>
            0 -1 89 -2.7812206099042669e-05</internalNodes>
          <leafValues>
            4.9921932816505432e-01 -3.6871817708015442e-01</leafValues></_>
        <_>
          <internalNodes>
            0 -1 128 -1.8503745086491108e-03</internalNodes>
          <leafValues>
            4.3298873305320740e-01 -4.5708996057510376e-01</leafValues></_>
        <_>
          <internalNodes>
            0 -1 68 -2.2668302990496159e-03</internalNodes>
          <leafValues>
            -5.5107307434082031e-01 4.4224190711975098e-01</leafValues></_>
        <_>
          <internalNodes>
            0 -1 66 2.3087974637746811e-02</internalNodes>
          <leafValues>
            -3.5386055707931519e-01 7.7998548746109009e-01</leafValues></_>
        <_>
          <internalNodes>
            0 -1 94 -4.5958822738612071e-06</internalNodes>
          <leafValues>
            4.4268327951431274e-01 -5.3649592399597168e-01</leafValues></_></weakClassifiers></_>
    <!-- stage 11 -->
    <_>
      <maxWeakCount>7</maxWeakCount>
      <stageThreshold>-4.3009299039840698e-01</stageThreshold>
      <weakClassifiers>
        <_>
          <internalNodes>
            0 -1 69 8.6594780441373587e-04</internalNodes>
          <leafValues>
            -2.4271844327449799e-01 6.5217393636703491e-01</leafValues></_>
        <_>
          <internalNodes>
            0 -1 63 -2.0930831669829786e-04</internalNodes>
          <leafValues>
            4.3482089042663574e-01 -5.1827877759933472e-01</leafValues></_>
        <_>
          <internalNodes>
            0 -1 49 1.0123192623723298e-04</internalNodes>
          <leafValues>
            -3.6761069297790527e-01 6.1868214607238770e-01</leafValues></_>
        <_>
          <internalNodes>
            0 -1 127 4.5252767449710518e-05</internalNodes>
          <leafValues>
            2.3917262256145477e-01 -8.2202315330505371e-01</leafValues></_>
        <_>
          <internalNodes>
            0 -1 0 2.1331869065761566e-03</internalNodes>
          <leafValues>
            -2.8527995944023132e-01 7.9232054948806763e-01</leafValues></_>
        <_>
          <internalNodes>
            0 -1 14 -1.7817204934544861e-04</internalNodes>
          <leafValues>
            6.2803316116333008e-01 -3.0440834164619446e-01</leafValues></_>
        <_>
          <internalNodes>
            0 -1 27 -3.9484795706812292e-05</internalNodes>
          <leafValues>
            -7.7830326557159424e-01 3.2764467597007751e-01</leafValues></_></weakClassifiers></_>
    <!-- stage 12 -->
    <_>
      <maxWeakCount>6</maxWeakCount>
      <stageThreshold>-3.9566832780838013e-01</stageThreshold>
      <weakClassifiers>
        <_>
          <internalNodes>
            0 -1 4 4.6672679483890533e-02</internalNodes>
          <leafValues>
            5.1470589637756348e-01 -7.8947371244430542e-01</leafValues></_>
        <_>
          <internalNodes>
            0 -1 97 -3.5713441320694983e-05</internalNodes>
          <leafValues>
            -6.4490729570388794e-01 3.2861611247062683e-01</leafValues></_>
        <_>
          <internalNodes>
            0 -1 125 -4.5220782340038568e-05</internalNodes>
          <leafValues>
            -7.0995312929153442e-01 2.9825958609580994e-01</leafValues></_>
        <_>
          <internalNodes>
            0 -1 26 1.6712659271433949e-04</internalNodes>
          <leafValues>
            -4.3540400266647339e-01 4.9880939722061157e-01</leafValues></_>
        <_>
          <internalNodes>
            0 -1 38 9.3308626674115658e-05</internalNodes>
          <leafValues>
            -2.9034447669982910e-01 7.7419418096542358e-01</leafValues></_>
        <_>
          <internalNodes>
            0 -1 92 -2.7955040877714055e-06</internalNodes>
          <leafValues>
            4.7253572940826416e-01 -5.7186049222946167e-01</leafValues></_></weakClassifiers></_>
    <!-- stage 13 -->
    <_>
      <maxWeakCount>7</maxWeakCount>
      <stageThreshold>-1.8296882510185242e-01</stageThreshold>
      <weakClassifiers>
        <_>
          <internalNodes>
            0 -1 76 -1.0897162428591400e-04</internalNodes>
          <leafValues>
            -2.6732674241065979e-01 6.5550237894058228e-01</leafValues></_>
        <_>
          <internalNodes>
            0 -1 115 7.0535406848648563e-06</internalNodes>
          <leafValues>
            4.6415442228317261e-01 -4.3448489904403687e-01</leafValues></_>
        <_>
          <internalNodes>
            0 -1 99 -9.7534648375585675e-05</internalNodes>
          <leafValues>
            5.8432286977767944e-01 -3.2917255163192749e-01</leafValues></_>
        <_>
          <internalNodes>
            0 -1 32 3.5875738831236959e-05</internalNodes>
          <leafValues>
            3.6051809787750244e-01 -5.1951223611831665e-01</leafValues></_>
        <_>
          <internalNodes>
            0 -1 43 1.0886490345001221e-03</internalNodes>
          <leafValues>
            -3.8402318954467773e-01 5.2001547813415527e-01</leafValues></_>
        <_>
          <internalNodes>
            0 -1 40 -2.6307732696295716e-05</internalNodes>
          <leafValues>
            -6.4289844036102295e-01 3.1586524844169617e-01</leafValues></_>
        <_>
          <internalNodes>
            0 -1 5 2.6542600244283676e-03</internalNodes>
          <leafValues>
            -2.8825911879539490e-01 7.9609811305999756e-01</leafValues></_></weakClassifiers></_>
    <!-- stage 14 -->
    <_>
      <maxWeakCount>8</maxWeakCount>
      <stageThreshold>-5.4713338613510132e-01</stageThreshold>
      <weakClassifiers>
        <_>
          <internalNodes>
            0 -1 59 -3.4112751018255949e-04</internalNodes>
          <leafValues>
            -8.1818181276321411e-01 4.9458482861518860e-01</leafValues></_>
        <_>
          <internalNodes>
            0 -1 20 -1.5767574310302734e-02</internalNodes>
          <leafValues>
            7.3886197805404663e-01 -2.1703287959098816e-01</leafValues></_>
        <_>
          <internalNodes>
            0 -1 119 5.1913922652602196e-03</internalNodes>
          <leafValues>
            -2.8148290514945984e-01 6.3927417993545532e-01</leafValues></_>
        <_>
          <internalNodes>
            0 -1 84 2.1176700101932511e-05</internalNodes>
          <leafValues>
            -4.8994034528732300e-01 4.2062142491340637e-01</leafValues></_>
        <_>
          <internalNodes>
            0 -1 24 1.0544392716838047e-04</internalNodes>
          <leafValues>
            2.6914712786674500e-01 -6.8708360195159912e-01</leafValues></_>
        <_>
          <internalNodes>
            0 -1 30 2.4903475423343480e-04</internalNodes>
          <leafValues>
            -4.2843490839004517e-01 4.4751718640327454e-01</leafValues></_>
        <_>
          <internalNodes>
            0 -1 42 1.0956857586279511e-03</internalNodes>
          <leafValues>
            2.8884190320968628e-01 -7.2917377948760986e-01</leafValues></_>
        <_>
          <internalNodes>
            0 -1 123 -2.0888332073809579e-05</internalNodes>
          <leafValues>
            -6.6675871610641479e-01 3.3892893791198730e-01</leafValues></_></weakClassifiers></_>
    <!-- stage 15 -->
    <_>
      <maxWeakCount>9</maxWeakCount>
      <stageThreshold>-1.4911130070686340e-01</stageThreshold>
      <weakClassifiers>
        <_>
          <internalNodes>
            0 -1 62 7.0656684692949057e-04</internalNodes>
          <leafValues>
            -3.6842104792594910e-01 5.8974361419677734e-01</leafValues></_>
        <_>
          <internalNodes>
            0 -1 67 -3.7874084227951244e-05</internalNodes>
          <leafValues>
            5.7097148895263672e-01 -3.1469836831092834e-01</leafValues></_>
        <_>
          <internalNodes>
            0 -1 35 8.2048764452338219e-03</internalNodes>
          <leafValues>
            -2.8910684585571289e-01 6.3324749469757080e-01</leafValues></_>
        <_>
          <internalNodes>
            0 -1 8 9.5855933614075184e-04</internalNodes>
          <leafValues>
            -3.2708215713500977e-01 6.5358376502990723e-01</leafValues></_>
        <_>
          <internalNodes>
            0 -1 91 -1.8418126273900270e-05</internalNodes>
          <leafValues>
            -6.5678668022155762e-01 3.2800656557083130e-01</leafValues></_>
        <_>
          <internalNodes>
            0 -1 3 2.2424766793847084e-03</internalNodes>
          <leafValues>
            -3.4978353977203369e-01 6.5008872747421265e-01</leafValues></_>
        <_>
          <internalNodes>
            0 -1 50 1.6178842633962631e-03</internalNodes>
          <leafValues>
            3.6319294571876526e-01 -6.2951141595840454e-01</leafValues></_>
        <_>
          <internalNodes>
            0 -1 44 -6.7706896516028792e-06</internalNodes>
          <leafValues>
            -6.8183344602584839e-01 3.5155987739562988e-01</leafValues></_>
        <_>
          <internalNodes>
            0 -1 31 2.9439042555168271e-04</internalNodes>
          <leafValues>
            -3.1328234076499939e-01 8.5431349277496338e-01</leafValues></_></weakClassifiers></_>
    <!-- stage 16 -->
    <_>
      <maxWeakCount>8</maxWeakCount>
      <stageThreshold>-9.5962919294834137e-02</stageThreshold>
      <weakClassifiers>
        <_>
          <internalNodes>
            0 -1 53 1.6048865392804146e-02</internalNodes>
          <leafValues>
            5.0180506706237793e-01 -8.7878787517547607e-01</leafValues></_>
        <_>
          <internalNodes>
            0 -1 22 -3.9697801694273949e-03</internalNodes>
          <leafValues>
            7.1936458349227905e-01 -2.6180204749107361e-01</leafValues></_>
        <_>
          <internalNodes>
            0 -1 122 -4.2100800783373415e-06</internalNodes>
          <leafValues>
            5.2502399682998657e-01 -4.2338010668754578e-01</leafValues></_>
        <_>
          <internalNodes>
            0 -1 114 4.2998505523428321e-04</internalNodes>
          <leafValues>
            3.5610848665237427e-01 -6.1709660291671753e-01</leafValues></_>
        <_>
          <internalNodes>
            0 -1 7 1.1884593404829502e-03</internalNodes>
          <leafValues>
            -4.8264598846435547e-01 4.9464133381843567e-01</leafValues></_>
        <_>
          <internalNodes>
            0 -1 105 -1.8389020624454133e-05</internalNodes>
          <leafValues>
            -5.5500066280364990e-01 4.5252227783203125e-01</leafValues></_>
        <_>
          <internalNodes>
            0 -1 15 -1.8161621483159252e-05</internalNodes>
          <leafValues>
            -5.9518188238143921e-01 3.6012431979179382e-01</leafValues></_>
        <_>
          <internalNodes>
            0 -1 81 8.6895852291490883e-06</internalNodes>
          <leafValues>
            -5.2447676658630371e-01 4.3362903594970703e-01</leafValues></_></weakClassifiers></_>
    <!-- stage 17 -->
    <_>
      <maxWeakCount>8</maxWeakCount>
      <stageThreshold>-4.0088191628456116e-01</stageThreshold>
      <weakClassifiers>
        <_>
          <internalNodes>
            0 -1 19 2.5433864720980637e-05</internalNodes>
          <leafValues>
            5.6846475601196289e-01 -3.9130434393882751e-01</leafValues></_>
        <_>
          <internalNodes>
            0 -1 120 -1.8345798480368103e-06</internalNodes>
          <leafValues>
            4.5408099889755249e-01 -4.7057452797889709e-01</leafValues></_>
        <_>
          <internalNodes>
            0 -1 78 1.7988810213864781e-05</internalNodes>
          <leafValues>
            -4.6046692132949829e-01 4.5398125052452087e-01</leafValues></_>
        <_>
          <internalNodes>
            0 -1 29 -2.2033683955669403e-02</internalNodes>
          <leafValues>
            4.8346918821334839e-01 -3.9554303884506226e-01</leafValues></_>
        <_>
          <internalNodes>
            0 -1 56 4.7430898121092469e-05</internalNodes>
          <leafValues>
            -4.1138052940368652e-01 5.6658565998077393e-01</leafValues></_>
        <_>
          <internalNodes>
            0 -1 17 -5.4252929985523224e-03</internalNodes>
          <leafValues>
            9.3587958812713623e-01 -1.8072114884853363e-01</leafValues></_>
        <_>
          <internalNodes>
            0 -1 39 -2.7708005160093307e-02</internalNodes>
          <leafValues>
            8.3582323789596558e-01 -2.0799849927425385e-01</leafValues></_>
        <_>
          <internalNodes>
            0 -1 83 1.7761351773515344e-03</internalNodes>
          <leafValues>
            2.7832579612731934e-01 -9.2468410730361938e-01</leafValues></_></weakClassifiers></_>
    <!-- stage 18 -->
    <_>
      <maxWeakCount>7</maxWeakCount>
      <stageThreshold>-2.4092310667037964e-01</stageThreshold>
      <weakClassifiers>
        <_>
          <internalNodes>
            0 -1 82 1.7065793508663774e-03</internalNodes>
          <leafValues>
            4.7887325286865234e-01 -1.</leafValues></_>
        <_>
          <internalNodes>
            0 -1 129 3.2966441940516233e-03</internalNodes>
          <leafValues>
            -1.9844217598438263e-01 7.8819501399993896e-01</leafValues></_>
        <_>
          <internalNodes>
            0 -1 117 -1.0610765457386151e-05</internalNodes>
          <leafValues>
            4.0545243024826050e-01 -4.7083443403244019e-01</leafValues></_>
        <_>
          <internalNodes>
            0 -1 103 1.1479343811515719e-04</internalNodes>
          <leafValues>
            4.2185640335083008e-01 -5.0259613990783691e-01</leafValues></_>
        <_>
          <internalNodes>
            0 -1 107 -1.6304875025525689e-03</internalNodes>
          <leafValues>
            8.5389745235443115e-01 -2.6471075415611267e-01</leafValues></_>
        <_>
          <internalNodes>
            0 -1 72 2.9755794093944132e-04</internalNodes>
          <leafValues>
            -6.2806963920593262e-01 3.7014245986938477e-01</leafValues></_>
        <_>
          <internalNodes>
            0 -1 61 4.4156982767162845e-05</internalNodes>
          <leafValues>
            -4.9197661876678467e-01 4.6856996417045593e-01</leafValues></_></weakClassifiers></_>
    <!-- stage 19 -->
    <_>
      <maxWeakCount>7</maxWeakCount>
      <stageThreshold>-1.8364296853542328e-01</stageThreshold>
      <weakClassifiers>
        <_>
          <internalNodes>
            0 -1 21 -4.7501696826657280e-05</internalNodes>
          <leafValues>
            -5.5555558204650879e-01 5.4687500000000000e-01</leafValues></_>
        <_>
          <internalNodes>
            0 -1 18 2.5606353301554918e-04</internalNodes>
          <leafValues>
            -3.4090942144393921e-01 5.4849767684936523e-01</leafValues></_>
        <_>
          <internalNodes>
            0 -1 112 -1.6333892745024059e-06</internalNodes>
          <leafValues>
            5.7275766134262085e-01 -3.7182837724685669e-01</leafValues></_>
        <_>
          <internalNodes>
            0 -1 96 -2.0177452825009823e-03</internalNodes>
          <leafValues>
            4.7524797916412354e-01 -5.3271210193634033e-01</leafValues></_>
        <_>
          <internalNodes>
            0 -1 16 -1.8521234393119812e-02</internalNodes>
          <leafValues>
            5.9460681676864624e-01 -3.7010377645492554e-01</leafValues></_>
        <_>
          <internalNodes>
            0 -1 36 3.4839496947824955e-03</internalNodes>
          <leafValues>
            -2.7511885762214661e-01 8.8209611177444458e-01</leafValues></_>
        <_>
          <internalNodes>
            0 -1 41 -3.1122872605919838e-03</internalNodes>
          <leafValues>
            -6.8080979585647583e-01 3.6521789431571960e-01</leafValues></_></weakClassifiers></_></stages>
  <features>
    <_>
      <rects>
        <_>
          0 0 14 14 -1.</_>
        <_>
          0 0 7 7 2.</_>
        <_>
          7 7 7 7 2.</_></rects>
      <tilted>0</tilted></_>
    <_>
      <rects>
        <_>
          0 6 6 11 -1.</_>
        <_>
          2 6 2 11 3.</_></rects>
      <tilted>0</tilted></_>
    <_>
      <rects>
        <_>
          0 6 56 6 -1.</_>
        <_>
          0 9 56 3 2.</_></rects>
      <tilted>0</tilted></_>
    <_>
      <rects>
        <_>
          0 9 18 5 -1.</_>
        <_>
          6 9 6 5 3.</_></rects>
      <tilted>0</tilted></_>
    <_>
      <rects>
        <_>
          0 15 52 15 -1.</_>
        <_>
          26 15 26 15 2.</_></rects>
      <tilted>0</tilted></_>
    <_>
      <rects>
        <_>
          0 16 4 38 -1.</_>
        <_>
          2 16 2 38 2.</_></rects>
      <tilted>0</tilted></_>
    <_>
      <rects>
        <_>
          0 28 32 7 -1.</_>
        <_>
          16 28 16 7 2.</_></rects>
      <tilted>0</tilted></_>
    <_>
      <rects>
        <_>
          0 31 41 6 -1.</_>
        <_>
          0 34 41 3 2.</_></rects>
      <tilted>0</tilted></_>
    <_>
      <rects>
        <_>
          1 6 10 22 -1.</_>
        <_>
          1 6 5 11 2.</_>
        <_>
          6 17 5 11 2.</_></rects>
      <tilted>0</tilted></_>
    <_>
      <rects>
        <_>
          1 37 46 14 -1.</_>
        <_>
          24 37 23 14 2.</_></rects>
      <tilted>0</tilted></_>
    <_>
      <rects>
        <_>
          2 24 2 4 -1.</_>
        <_>
          2 24 1 2 2.</_>
        <_>
          3 26 1 2 2.</_></rects>
      <tilted>0</tilted></_>
    <_>
      <rects>
        <_>
          2 26 26 11 -1.</_>
        <_>
          15 26 13 11 2.</_></rects>
      <tilted>0</tilted></_>
    <_>
      <rects>
        <_>
          2 27 18 10 -1.</_>
        <_>
          11 27 9 10 2.</_></rects>
      <tilted>0</tilted></_>
    <_>
      <rects>
        <_>
          3 23 50 6 -1.</_>
        <_>
          3 25 50 2 3.</_></rects>
      <tilted>0</tilted></_>
    <_>
      <rects>
        <_>
          4 10 1 18 -1.</_>
        <_>
          4 19 1 9 2.</_></rects>
      <tilted>0</tilted></_>
    <_>
      <rects>
        <_>
          4 28 4 3 -1.</_>
        <_>
          4 29 4 1 3.</_></rects>
      <tilted>0</tilted></_>
    <_>
      <rects>
        <_>
          4 36 20 18 -1.</_>
        <_>
          14 36 10 18 2.</_></rects>
      <tilted>0</tilted></_>
    <_>
      <rects>
        <_>
          5 0 43 4 -1.</_>
        <_>
          5 2 43 2 2.</_></rects>
      <tilted>0</tilted></_>
    <_>
      <rects>
        <_>
          5 9 48 3 -1.</_>
        <_>
          21 9 16 3 3.</_></rects>
      <tilted>0</tilted></_>
    <_>
      <rects>
        <_>
          5 31 2 3 -1.</_>
        <_>
          6 31 1 3 2.</_></rects>
      <tilted>0</tilted></_>
    <_>
      <rects>
        <_>
          6 3 14 38 -1.</_>
        <_>
          6 3 7 19 2.</_>
        <_>
          13 22 7 19 2.</_></rects>
      <tilted>0</tilted></_>
    <_>
      <rects>
        <_>
          6 32 2 2 -1.</_>
        <_>
          6 33 2 1 2.</_></rects>
      <tilted>0</tilted></_>
    <_>
      <rects>
        <_>
          7 0 49 8 -1.</_>
        <_>
          7 4 49 4 2.</_></rects>
      <tilted>0</tilted></_>
    <_>
      <rects>
        <_>
          7 33 6 3 -1.</_>
        <_>
          10 33 3 3 2.</_></rects>
      <tilted>0</tilted></_>
    <_>
      <rects>
        <_>
          8 0 9 2 -1.</_>
        <_>
          11 0 3 2 3.</_></rects>
      <tilted>0</tilted></_>
    <_>
      <rects>
        <_>
          8 28 32 8 -1.</_>
        <_>
          8 32 32 4 2.</_></rects>
      <tilted>0</tilted></_>
    <_>
      <rects>
        <_>
          8 30 15 4 -1.</_>
        <_>
          8 32 15 2 2.</_></rects>
      <tilted>0</tilted></_>
    <_>
      <rects>
        <_>
          8 36 2 1 -1.</_>
        <_>
          9 36 1 1 2.</_></rects>
      <tilted>0</tilted></_>
    <_>
      <rects>
        <_>
          10 32 14 12 -1.</_>
        <_>
          17 32 7 12 2.</_></rects>
      <tilted>0</tilted></_>
    <_>
      <rects>
        <_>
          12 15 24 39 -1.</_>
        <_>
          24 15 12 39 2.</_></rects>
      <tilted>0</tilted></_>
    <_>
      <rects>
        <_>
          13 15 21 8 -1.</_>
        <_>
          20 15 7 8 3.</_></rects>
      <tilted>0</tilted></_>
    <_>
      <rects>
        <_>
          13 29 29 2 -1.</_>
        <_>
          13 30 29 1 2.</_></rects>
      <tilted>0</tilted></_>
    <_>
      <rects>
        <_>
          13 31 2 12 -1.</_>
        <_>
          13 31 1 6 2.</_>
        <_>
          14 37 1 6 2.</_></rects>
      <tilted>0</tilted></_>
    <_>
      <rects>
        <_>
          15 5 40 30 -1.</_>
        <_>
          15 20 40 15 2.</_></rects>
      <tilted>0</tilted></_>
    <_>
      <rects>
        <_>
          15 36 33 3 -1.</_>
        <_>
          15 37 33 1 3.</_></rects>
      <tilted>0</tilted></_>
    <_>
      <rects>
        <_>
          16 1 47 12 -1.</_>
        <_>
          16 5 47 4 3.</_></rects>
      <tilted>0</tilted></_>
    <_>
      <rects>
        <_>
          16 21 33 2 -1.</_>
        <_>
          27 21 11 2 3.</_></rects>
      <tilted>0</tilted></_>
    <_>
      <rects>
        <_>
          16 30 6 3 -1.</_>
        <_>
          19 30 3 3 2.</_></rects>
      <tilted>0</tilted></_>
    <_>
      <rects>
        <_>
          17 23 2 6 -1.</_>
        <_>
          17 26 2 3 2.</_></rects>
      <tilted>0</tilted></_>
    <_>
      <rects>
        <_>
          18 2 18 14 -1.</_>
        <_>
          18 9 18 7 2.</_></rects>
      <tilted>0</tilted></_>
    <_>
      <rects>
        <_>
          18 10 2 4 -1.</_>
        <_>
          18 10 1 2 2.</_>
        <_>
          19 12 1 2 2.</_></rects>
      <tilted>0</tilted></_>
    <_>
      <rects>
        <_>
          18 15 14 12 -1.</_>
        <_>
          18 15 7 6 2.</_>
        <_>
          25 21 7 6 2.</_></rects>
      <tilted>0</tilted></_>
    <_>
      <rects>
        <_>
          18 24 6 21 -1.</_>
        <_>
          20 24 2 21 3.</_></rects>
      <tilted>0</tilted></_>
    <_>
      <rects>
        <_>
          18 24 4 24 -1.</_>
        <_>
          18 36 4 12 2.</_></rects>
      <tilted>0</tilted></_>
    <_>
      <rects>
        <_>
          20 9 1 2 -1.</_>
        <_>
          20 10 1 1 2.</_></rects>
      <tilted>0</tilted></_>
    <_>
      <rects>
        <_>
          20 15 10 16 -1.</_>
        <_>
          20 23 10 8 2.</_></rects>
      <tilted>0</tilted></_>
    <_>
      <rects>
        <_>
          21 6 1 26 -1.</_>
        <_>
          21 19 1 13 2.</_></rects>
      <tilted>0</tilted></_>
    <_>
      <rects>
        <_>
          21 22 12 9 -1.</_>
        <_>
          25 22 4 9 3.</_></rects>
      <tilted>0</tilted></_>
    <_>
      <rects>
        <_>
          21 24 6 12 -1.</_>
        <_>
          21 30 6 6 2.</_></rects>
      <tilted>0</tilted></_>
    <_>
      <rects>
        <_>
          21 25 6 2 -1.</_>
        <_>
          23 25 2 2 3.</_></rects>
      <tilted>0</tilted></_>
    <_>
      <rects>
        <_>
          21 25 15 16 -1.</_>
        <_>
          26 25 5 16 3.</_></rects>
      <tilted>0</tilted></_>
    <_>
      <rects>
        <_>
          22 23 22 8 -1.</_>
        <_>
          22 23 11 4 2.</_>
        <_>
          33 27 11 4 2.</_></rects>
      <tilted>0</tilted></_>
    <_>
      <rects>
        <_>
          22 32 21 5 -1.</_>
        <_>
          29 32 7 5 3.</_></rects>
      <tilted>0</tilted></_>
    <_>
      <rects>
        <_>
          23 17 14 26 -1.</_>
        <_>
          23 17 7 13 2.</_>
        <_>
          30 30 7 13 2.</_></rects>
      <tilted>0</tilted></_>
    <_>
      <rects>
        <_>
          23 23 8 4 -1.</_>
        <_>
          23 25 8 2 2.</_></rects>
      <tilted>0</tilted></_>
    <_>
      <rects>
        <_>
          23 31 20 1 -1.</_>
        <_>
          33 31 10 1 2.</_></rects>
      <tilted>0</tilted></_>
    <_>
      <rects>
        <_>
          24 28 6 1 -1.</_>
        <_>
          26 28 2 1 3.</_></rects>
      <tilted>0</tilted></_>
    <_>
      <rects>
        <_>
          25 2 38 32 -1.</_>
        <_>
          25 2 19 16 2.</_>
        <_>
          44 18 19 16 2.</_></rects>
      <tilted>0</tilted></_>
    <_>
      <rects>
        <_>
          25 26 10 1 -1.</_>
        <_>
          30 26 5 1 2.</_></rects>
      <tilted>0</tilted></_>
    <_>
      <rects>
        <_>
          26 24 10 2 -1.</_>
        <_>
          26 24 5 1 2.</_>
        <_>
          31 25 5 1 2.</_></rects>
      <tilted>0</tilted></_>
    <_>
      <rects>
        <_>
          27 23 7 12 -1.</_>
        <_>
          27 27 7 4 3.</_></rects>
      <tilted>0</tilted></_>
    <_>
      <rects>
        <_>
          27 25 6 3 -1.</_>
        <_>
          29 25 2 3 3.</_></rects>
      <tilted>0</tilted></_>
    <_>
      <rects>
        <_>
          27 29 16 4 -1.</_>
        <_>
          35 29 8 4 2.</_></rects>
      <tilted>0</tilted></_>
    <_>
      <rects>
        <_>
          28 24 5 4 -1.</_>
        <_>
          28 26 5 2 2.</_></rects>
      <tilted>0</tilted></_>
    <_>
      <rects>
        <_>
          29 24 3 5 -1.</_>
        <_>
          30 24 1 5 3.</_></rects>
      <tilted>0</tilted></_>
    <_>
      <rects>
        <_>
          29 28 10 4 -1.</_>
        <_>
          34 28 5 4 2.</_></rects>
      <tilted>0</tilted></_>
    <_>
      <rects>
        <_>
          29 31 30 7 -1.</_>
        <_>
          44 31 15 7 2.</_></rects>
      <tilted>0</tilted></_>
    <_>
      <rects>
        <_>
          30 12 8 5 -1.</_>
        <_>
          34 12 4 5 2.</_></rects>
      <tilted>0</tilted></_>
    <_>
      <rects>
        <_>
          30 16 2 16 -1.</_>
        <_>
          30 24 2 8 2.</_></rects>
      <tilted>0</tilted></_>
    <_>
      <rects>
        <_>
          30 22 12 8 -1.</_>
        <_>
          36 22 6 8 2.</_></rects>
      <tilted>0</tilted></_>
    <_>
      <rects>
        <_>
          30 26 3 2 -1.</_>
        <_>
          30 27 3 1 2.</_></rects>
      <tilted>0</tilted></_>
    <_>
      <rects>
        <_>
          30 26 14 4 -1.</_>
        <_>
          37 26 7 4 2.</_></rects>
      <tilted>0</tilted></_>
    <_>
      <rects>
        <_>
          30 27 14 1 -1.</_>
        <_>
          37 27 7 1 2.</_></rects>
      <tilted>0</tilted></_>
    <_>
      <rects>
        <_>
          32 11 11 4 -1.</_>
        <_>
          32 13 11 2 2.</_></rects>
      <tilted>0</tilted></_>
    <_>
      <rects>
        <_>
          32 14 14 7 -1.</_>
        <_>
          39 14 7 7 2.</_></rects>
      <tilted>0</tilted></_>
    <_>
      <rects>
        <_>
          32 16 4 12 -1.</_>
        <_>
          32 16 2 6 2.</_>
        <_>
          34 22 2 6 2.</_></rects>
      <tilted>0</tilted></_>
    <_>
      <rects>
        <_>
          32 20 10 8 -1.</_>
        <_>
          37 20 5 8 2.</_></rects>
      <tilted>0</tilted></_>
    <_>
      <rects>
        <_>
          32 26 4 2 -1.</_>
        <_>
          34 26 2 2 2.</_></rects>
      <tilted>0</tilted></_>
    <_>
      <rects>
        <_>
          32 35 9 4 -1.</_>
        <_>
          35 35 3 4 3.</_></rects>
      <tilted>0</tilted></_>
    <_>
      <rects>
        <_>
          32 37 6 2 -1.</_>
        <_>
          32 38 6 1 2.</_></rects>
      <tilted>0</tilted></_>
    <_>
      <rects>
        <_>
          33 30 9 4 -1.</_>
        <_>
          36 30 3 4 3.</_></rects>
      <tilted>0</tilted></_>
    <_>
      <rects>
        <_>
          33 32 6 9 -1.</_>
        <_>
          33 35 6 3 3.</_></rects>
      <tilted>0</tilted></_>
    <_>
      <rects>
        <_>
          33 35 6 8 -1.</_>
        <_>
          35 35 2 8 3.</_></rects>
      <tilted>0</tilted></_>
    <_>
      <rects>
        <_>
          34 19 7 6 -1.</_>
        <_>
          34 21 7 2 3.</_></rects>
      <tilted>0</tilted></_>
    <_>
      <rects>
        <_>
          34 28 2 8 -1.</_>
        <_>
          35 28 1 8 2.</_></rects>
      <tilted>0</tilted></_>
    <_>
      <rects>
        <_>
          35 0 8 14 -1.</_>
        <_>
          39 0 4 14 2.</_></rects>
      <tilted>0</tilted></_>
    <_>
      <rects>
        <_>
          35 30 6 4 -1.</_>
        <_>
          37 30 2 4 3.</_></rects>
      <tilted>0</tilted></_>
    <_>
      <rects>
        <_>
          35 37 5 2 -1.</_>
        <_>
          35 38 5 1 2.</_></rects>
      <tilted>0</tilted></_>
    <_>
      <rects>
        <_>
          36 10 5 2 -1.</_>
        <_>
          36 11 5 1 2.</_></rects>
      <tilted>0</tilted></_>
    <_>
      <rects>
        <_>
          36 10 12 1 -1.</_>
        <_>
          42 10 6 1 2.</_></rects>
      <tilted>0</tilted></_>
    <_>
      <rects>
        <_>
          37 12 1 2 -1.</_>
        <_>
          37 13 1 1 2.</_></rects>
      <tilted>0</tilted></_>
    <_>
      <rects>
        <_>
          38 10 2 2 -1.</_>
        <_>
          38 11 2 1 2.</_></rects>
      <tilted>0</tilted></_>
    <_>
      <rects>
        <_>
          38 19 5 4 -1.</_>
        <_>
          38 21 5 2 2.</_></rects>
      <tilted>0</tilted></_>
    <_>
      <rects>
        <_>
          38 31 19 6 -1.</_>
        <_>
          38 33 19 2 3.</_></rects>
      <tilted>0</tilted></_>
    <_>
      <rects>
        <_>
          39 36 1 2 -1.</_>
        <_>
          39 37 1 1 2.</_></rects>
      <tilted>0</tilted></_>
    <_>
      <rects>
        <_>
          40 4 10 20 -1.</_>
        <_>
          40 4 5 10 2.</_>
        <_>
          45 14 5 10 2.</_></rects>
      <tilted>0</tilted></_>
    <_>
      <rects>
        <_>
          40 17 5 22 -1.</_>
        <_>
          40 28 5 11 2.</_></rects>
      <tilted>0</tilted></_>
    <_>
      <rects>
        <_>
          40 31 3 3 -1.</_>
        <_>
          41 31 1 3 3.</_></rects>
      <tilted>0</tilted></_>
    <_>
      <rects>
        <_>
          40 34 2 2 -1.</_>
        <_>
          40 35 2 1 2.</_></rects>
      <tilted>0</tilted></_>
    <_>
      <rects>
        <_>
          41 29 4 6 -1.</_>
        <_>
          41 29 2 3 2.</_>
        <_>
          43 32 2 3 2.</_></rects>
      <tilted>0</tilted></_>
    <_>
      <rects>
        <_>
          41 31 3 4 -1.</_>
        <_>
          41 33 3 2 2.</_></rects>
      <tilted>0</tilted></_>
    <_>
      <rects>
        <_>
          41 31 22 14 -1.</_>
        <_>
          52 31 11 14 2.</_></rects>
      <tilted>0</tilted></_>
    <_>
      <rects>
        <_>
          42 28 14 18 -1.</_>
        <_>
          49 28 7 18 2.</_></rects>
      <tilted>0</tilted></_>
    <_>
      <rects>
        <_>
          42 52 21 1 -1.</_>
        <_>
          49 52 7 1 3.</_></rects>
      <tilted>0</tilted></_>
    <_>
      <rects>
        <_>
          43 19 7 12 -1.</_>
        <_>
          43 25 7 6 2.</_></rects>
      <tilted>0</tilted></_>
    <_>
      <rects>
        <_>
          43 31 3 2 -1.</_>
        <_>
          44 31 1 2 3.</_></rects>
      <tilted>0</tilted></_>
    <_>
      <rects>
        <_>
          43 33 12 6 -1.</_>
        <_>
          43 33 6 3 2.</_>
        <_>
          49 36 6 3 2.</_></rects>
      <tilted>0</tilted></_>
    <_>
      <rects>
        <_>
          44 13 1 16 -1.</_>
        <_>
          44 21 1 8 2.</_></rects>
      <tilted>0</tilted></_>
    <_>
      <rects>
        <_>
          44 33 2 1 -1.</_>
        <_>
          45 33 1 1 2.</_></rects>
      <tilted>0</tilted></_>
    <_>
      <rects>
        <_>
          45 26 7 9 -1.</_>
        <_>
          45 29 7 3 3.</_></rects>
      <tilted>0</tilted></_>
    <_>
      <rects>
        <_>
          45 29 14 11 -1.</_>
        <_>
          52 29 7 11 2.</_></rects>
      <tilted>0</tilted></_>
    <_>
      <rects>
        <_>
          45 30 2 2 -1.</_>
        <_>
          45 31 2 1 2.</_></rects>
      <tilted>0</tilted></_>
    <_>
      <rects>
        <_>
          45 31 4 1 -1.</_>
        <_>
          47 31 2 1 2.</_></rects>
      <tilted>0</tilted></_>
    <_>
      <rects>
        <_>
          46 16 1 20 -1.</_>
        <_>
          46 26 1 10 2.</_></rects>
      <tilted>0</tilted></_>
    <_>
      <rects>
        <_>
          46 24 8 6 -1.</_>
        <_>
          46 26 8 2 3.</_></rects>
      <tilted>0</tilted></_>
    <_>
      <rects>
        <_>
          46 37 2 1 -1.</_>
        <_>
          47 37 1 1 2.</_></rects>
      <tilted>0</tilted></_>
    <_>
      <rects>
        <_>
          47 15 4 12 -1.</_>
        <_>
          49 15 2 12 2.</_></rects>
      <tilted>0</tilted></_>
    <_>
      <rects>
        <_>
          47 26 1 4 -1.</_>
        <_>
          47 28 1 2 2.</_></rects>
      <tilted>0</tilted></_>
    <_>
      <rects>
        <_>
          47 26 16 7 -1.</_>
        <_>
          55 26 8 7 2.</_></rects>
      <tilted>0</tilted></_>
    <_>
      <rects>
        <_>
          48 1 12 18 -1.</_>
        <_>
          48 7 12 6 3.</_></rects>
      <tilted>0</tilted></_>
    <_>
      <rects>
        <_>
          48 16 2 11 -1.</_>
        <_>
          49 16 1 11 2.</_></rects>
      <tilted>0</tilted></_>
    <_>
      <rects>
        <_>
          50 11 2 20 -1.</_>
        <_>
          51 11 1 20 2.</_></rects>
      <tilted>0</tilted></_>
    <_>
      <rects>
        <_>
          51 16 4 3 -1.</_>
        <_>
          53 16 2 3 2.</_></rects>
      <tilted>0</tilted></_>
    <_>
      <rects>
        <_>
          53 0 10 1 -1.</_>
        <_>
          58 0 5 1 2.</_></rects>
      <tilted>0</tilted></_>
    <_>
      <rects>
        <_>
          53 39 4 2 -1.</_>
        <_>
          53 40 4 1 2.</_></rects>
      <tilted>0</tilted></_>
    <_>
      <rects>
        <_>
          55 25 2 6 -1.</_>
        <_>
          55 25 1 3 2.</_>
        <_>
          56 28 1 3 2.</_></rects>
      <tilted>0</tilted></_>
    <_>
      <rects>
        <_>
          55 29 2 2 -1.</_>
        <_>
          55 30 2 1 2.</_></rects>
      <tilted>0</tilted></_>
    <_>
      <rects>
        <_>
          56 30 4 2 -1.</_>
        <_>
          56 31 4 1 2.</_></rects>
      <tilted>0</tilted></_>
    <_>
      <rects>
        <_>
          58 0 5 24 -1.</_>
        <_>
          58 12 5 12 2.</_></rects>
      <tilted>0</tilted></_>
    <_>
      <rects>
        <_>
          61 5 2 39 -1.</_>
        <_>
          61 18 2 13 3.</_></rects>
      <tilted>0</tilted></_></features></cascade>
</opencv_storage>
